#pragma once

__attribute__((section (".container-data")))
static const int inputDims = 30;
__attribute__((section (".container-data")))
static const int hiddenDims = 64;
__attribute__((section (".container-data")))
static const int wRank = 8;
__attribute__((section (".container-data")))
static const int uRank = 8;
__attribute__((section (".container-data")))
static const int timeSteps = 7;
__attribute__((section (".container-data")))
static const int numClasses = 72;
__attribute__((section (".container-data")))
static const int FCrank = 18;

__attribute__((section (".container-data")))
const float zeta = 1.3;// 0.09134404;
__attribute__((section (".container-data")))
const float nu = 0.01;//0.0020261854;

__attribute__((section (".container-data")))
const float mean[210] = {0.0, 0.0, 0.0, 0.0, 0.0, 0.0, 0.0, 0.0, 0.0, 0.0, 0.0, 0.0, 0.0, 0.0, 0.0, 0.0, 0.0, 0.0, 0.0, 0.0, 0.0, 0.0, 0.0, 0.0, 0.0, 0.0, 0.0, 0.0, 0.0, 0.0, 0.0, 0.0, 0.0, 0.0, 0.0, 0.0, 0.0, 0.0, 0.0, 0.0, 0.0, 0.0, 0.0, 0.0, 0.0, 0.0, 0.0, 0.0, 0.0, 0.0, 0.0, 0.0, 0.0, 0.0, 0.0, 0.0, 0.0, 0.0, 0.0, 0.0, 0.0, 0.0, 0.0, 0.0, 0.0, 0.0, 0.0, 0.0, 0.0, 0.0, 0.0, 0.0, 0.0, 0.0, 0.0, 0.0, 0.0, 0.0, 0.0, 0.0, 0.0, 0.0, 0.0, 0.0, 0.0, 0.0, 0.0, 0.0, 0.0, 0.0, 0.0, 0.0, 0.0, 0.0, 0.0, 0.0, 0.0, 0.0, 0.0, 0.0, 0.0, 0.0, 0.0, 0.0, 0.0, 0.0, 0.0, 0.0, 0.0, 0.0, 0.0, 0.0, 0.0, 0.0, 0.0, 0.0, 0.0, 0.0, 0.0, 0.0, 0.0, 0.0, 0.0, 0.0, 0.0, 0.0, 0.0, 0.0, 0.0, 0.0, 0.0, 0.0, 0.0, 0.0, 0.0, 0.0, 0.0, 0.0, 0.0, 0.0, 0.0, 0.0, 0.0, 0.0, 0.0, 0.0, 0.0, 0.0, 0.0, 0.0, 0.0, 0.0, 0.0, 0.0, 0.0, 0.0, 0.0, 0.0, 0.0, 0.0, 0.0, 0.0, 0.0, 0.0, 0.0, 0.0, 0.0, 0.0, 0.0, 0.0, 0.0, 0.0, 0.0, 0.0, 0.0, 0.0, 0.0, 0.0, 0.0, 0.0, 0.0, 0.0, 0.0, 0.0, 0.0, 0.0, 0.0, 0.0, 0.0, 0.0, 0.0, 0.0, 0.0, 0.0, 0.0, 0.0, 0.0, 0.0, 0.0, 0.0, 0.0, 0.0, 0.0, 0.0, 0.0, 0.0, 0.0, 0.0, 0.0, 0.0};
__attribute__((section (".container-data")))
const float stdDev[210] = {1.0, 1.0, 1.0, 1.0, 1.0, 1.0, 1.0, 1.0, 1.0, 1.0, 1.0, 1.0, 1.0, 1.0, 1.0, 1.0, 1.0, 1.0, 1.0, 1.0, 1.0, 1.0, 1.0, 1.0, 1.0, 1.0, 1.0, 1.0, 1.0, 1.0, 1.0, 1.0, 1.0, 1.0, 1.0, 1.0, 1.0, 1.0, 1.0, 1.0, 1.0, 1.0, 1.0, 1.0, 1.0, 1.0, 1.0, 1.0, 1.0, 1.0, 1.0, 1.0, 1.0, 1.0, 1.0, 1.0, 1.0, 1.0, 1.0, 1.0, 1.0, 1.0, 1.0, 1.0, 1.0, 1.0, 1.0, 1.0, 1.0, 1.0, 1.0, 1.0, 1.0, 1.0, 1.0, 1.0, 1.0, 1.0, 1.0, 1.0, 1.0, 1.0, 1.0, 1.0, 1.0, 1.0, 1.0, 1.0, 1.0, 1.0, 1.0, 1.0, 1.0, 1.0, 1.0, 1.0, 1.0, 1.0, 1.0, 1.0, 1.0, 1.0, 1.0, 1.0, 1.0, 1.0, 1.0, 1.0, 1.0, 1.0, 1.0, 1.0, 1.0, 1.0, 1.0, 1.0, 1.0, 1.0, 1.0, 1.0, 1.0, 1.0, 1.0, 1.0, 1.0, 1.0, 1.0, 1.0, 1.0, 1.0, 1.0, 1.0, 1.0, 1.0, 1.0, 1.0, 1.0, 1.0, 1.0, 1.0, 1.0, 1.0, 1.0, 1.0, 1.0, 1.0, 1.0, 1.0, 1.0, 1.0, 1.0, 1.0, 1.0, 1.0, 1.0, 1.0, 1.0, 1.0, 1.0, 1.0, 1.0, 1.0, 1.0, 1.0, 1.0, 1.0, 1.0, 1.0, 1.0, 1.0, 1.0, 1.0, 1.0, 1.0, 1.0, 1.0, 1.0, 1.0, 1.0, 1.0, 1.0, 1.0, 1.0, 1.0, 1.0, 1.0, 1.0, 1.0, 1.0, 1.0, 1.0, 1.0, 1.0, 1.0, 1.0, 1.0, 1.0, 1.0, 1.0, 1.0, 1.0, 1.0, 1.0, 1.0, 1.0, 1.0, 1.0, 1.0, 1.0, 1.0};

__attribute__((section (".container-data")))
const float W1[240] = {1.3465940058231354, 2.2185100317001343, -2.511705160140991, -0.1982703059911728, 0.0715264230966568, -1.902424693107605, -0.27162986993789673, -0.32870665192604065, -0.08416027575731277, -0.7501683235168457, 1.3116273880004883, 1.5465214252471924, -0.7088413238525391, 2.182451009750366, -0.0751609355211258, 0.420604407787323, 2.300715446472168, -1.5362911224365234, -0.10946653038263321, 0.38839155435562134, -1.9123672246932983, -0.19456790387630463, 0.26433083415031433, -2.1185190677642822, 1.6385173797607422, 0.9020499587059021, -1.7012346982955933, 0.668894350528717, 2.0425565242767334, -0.7129132151603699, 0.6938563585281372, 1.5199719667434692, -2.1399242877960205, 0.04126972705125809, 0.6383245587348938, -3.2805967330932617, 0.2535804808139801, 1.0558438301086426, -3.0122318267822266, 0.21139036118984222, 0.4282318353652954, -1.6508584022521973, 0.0691552683711052, -0.655498206615448, -0.9403997659683228, 0.02791299857199192, -0.7161237597465515, 0.17998935282230377, 0.49704495072364807, 0.1785794347524643, 0.17805851995944977, 1.2183449268341064, -0.10608118772506714, 0.7230478525161743, 1.3180062770843506, 0.07269231975078583, 1.1322907209396362, -0.24152936041355133, 0.536954402923584, 1.7174652814865112, -0.25798213481903076, 1.6666758060455322, 0.3613796830177307, -0.06546647101640701, -0.24781717360019684, 1.3371037244796753, -1.2108681201934814, -2.543520450592041, 1.3944233655929565, -1.447786569595337, -2.574404239654541, 0.04488682374358177, -0.09732536226511002, -0.098179891705513, -1.69991135597229, 1.4260481595993042, 1.024339199066162, -1.4444912672042847, 0.5081597566604614, 0.9391794204711914, 0.052695389837026596, -0.542716920375824, 0.8726970553398132, 1.084529161453247, -0.7763372659683228, 0.8999621868133545, 0.6658838391304016, -0.38720133900642395, 1.2619328498840332, -0.3211192488670349, 0.19750340282917023, -2.6313819885253906, 0.3613547086715698, 0.03469952568411827, -2.8882365226745605, -0.5172485709190369, 0.06733136624097824, -2.0556976795196533, -1.0709095001220703, 0.3339104950428009, -1.3679468631744385, -0.5053609013557434, 1.1716006994247437, -0.9750888347625732, 0.6526240706443787, -0.09495934844017029, -0.7338289618492126, 1.0449554920196533, 0.41955187916755676, 0.2726185917854309, 1.1790647506713867, 0.843843400478363, 0.9278343915939331, 1.2567219734191895, -0.08996947109699249, 0.6316373944282532, 1.4341063499450684, -0.24794702231884003, 1.1230087280273438, 1.0624433755874634, 1.6400882005691528, -0.2974192798137665, 0.4280056059360504, 1.1012353897094727, -0.23064421117305756, 0.9150471687316895, 1.6382924318313599, -0.5709391832351685, 0.4364466071128845, 1.0893504619598389, -0.6548520922660828, -0.5140124559402466, 0.8341014981269836, -0.6770108938217163, -0.7156704068183899, 1.3666743040084839, -0.45587533712387085, -2.0103940963745117, 1.044122338294983, -0.7055514454841614, -2.215785026550293, 0.9901041388511658, 0.2756575644016266, -2.0207173824310303, 0.8545157313346863, 0.01672479324042797, -1.5839985609054565, 0.9482712745666504, 0.6265211701393127, -1.4334310293197632, 0.7154872417449951, 0.8656066656112671, 0.7516831159591675, 0.3192404508590698, 0.8655644655227661, 0.5211568474769592, 0.5305542349815369, 0.8446829319000244, -0.48135140538215637, 0.013097702525556087, 0.6698798537254333, -1.478306531906128, -0.12671037018299103, -0.2101869434118271, -0.6524263024330139, -0.2302120178937912, -1.1518245935440063, -0.007248128764331341, -0.25253891944885254, -0.8657951951026917, 0.24151310324668884, -0.1797892302274704, -0.022345222532749176, 0.4793076813220978, -0.6063865423202515, 0.20134863257408142, -0.017411435022950172, 0.1498536616563797, -0.9713816046714783, 0.08381710201501846, 0.577109158039093, -2.2403767108917236, 1.352822184562683, 0.5375307202339172, -0.9824397563934326, 1.1591010093688965, 0.8163447976112366, -0.3074261546134949, 0.5553147196769714, 0.9139518737792969, -0.3525131046772003, 0.7452705502510071, -0.3053467273712158, -0.5835759043693542, 1.0356342792510986, -0.43692755699157715, 0.1464187651872635, -0.6627098917961121, -0.15939027070999146, 1.0993614196777344, -1.6792855262756348, 0.11868376284837723, 1.7189977169036865, -2.1420369148254395, -0.3045552670955658, 0.36167529225349426, -1.1301438808441162, 0.3390272855758667, 0.6334393620491028, -0.8926195502281189, -0.813123345375061, -0.4728415906429291, -0.03472171351313591, -0.5214656591415405, 0.17017501592636108, -0.4685513973236084, -0.944767951965332, 0.35279586911201477, 0.3146035969257355, -0.4348430335521698, -0.9580214023590088, 0.7209827899932861, -0.17468200623989105, -1.6322840452194214, 0.4590705335140228, 0.21850666403770447, -1.5659525394439697, -0.2981019616127014, 0.33597972989082336, 1.322937250137329, -0.9704511165618896, 0.3051998019218445, 1.8980926275253296, -0.35823506116867065, -0.41254037618637085, 1.3363267183303833, 0.46560049057006836, 0.39306640625, 0.6523844003677368, 1.0578117370605469};
__attribute__((section (".container-data")))
const float W2[512] = {-1.0791722536087036, -1.2967854738235474, -0.07731624692678452, -0.4088544249534607, -0.08663726598024368, 0.2813485860824585, -0.5544538497924805, -1.0241339206695557, 0.8622438311576843, 0.8559433817863464, 0.12680229544639587, 1.0340991020202637, -0.6388188004493713, -0.5524160861968994, -0.29689696431159973, -0.36288923025131226, -0.015857938677072525, -0.6915744543075562, 0.5808887481689453, -0.036238983273506165, -1.5523133277893066, -0.4195749759674072, -0.35851991176605225, 0.2789572775363922, -0.004988475237041712, 0.8984423279762268, -0.7391489148139954, -1.281105637550354, 1.5333709716796875, 0.37450259923934937, -0.11836438626050949, -0.6006960868835449, -0.6252100467681885, -1.9043134450912476, -0.2742205560207367, 1.278052568435669, 1.302730679512024, -0.3574252128601074, 1.0739905834197998, -0.36990585923194885, 0.9866024255752563, -0.9572993516921997, -1.3500758409500122, -1.2582297325134277, 0.2484806329011917, -0.0036657056771218777, 0.10230281949043274, -0.7655531764030457, -1.178787350654602, -1.0374244451522827, -0.47704872488975525, -0.7167705297470093, 0.1319553405046463, 0.30642297863960266, -0.1928756684064865, -0.5702028870582581, 0.43263205885887146, -0.9852872490882874, -0.3070649802684784, 0.4578380584716797, 0.31588494777679443, -0.16196629405021667, 0.4376104176044464, -0.2424212545156479, 0.08537612855434418, 0.5625765919685364, 0.2331686019897461, 0.8864663243293762, 0.7705268859863281, -0.07859551161527634, 0.08121073246002197, 0.20874227583408356, -0.11631039530038834, -1.2493486404418945, -0.24618592858314514, -0.49752217531204224, 0.760428786277771, 0.011048139072954655, 0.3030746281147003, -0.2936687469482422, -1.6141865253448486, -0.6023402214050293, -0.18182426691055298, 0.7336246371269226, 0.0611785352230072, 0.1739802360534668, -0.9055505394935608, -0.8492175340652466, 0.18742837011814117, 0.10343984514474869, -0.17108072340488434, 1.1160414218902588, 1.9652729034423828, -0.14559288322925568, 0.7063080072402954, -0.36579635739326477, -0.9161410927772522, 2.1587982177734375, -0.8529387712478638, -0.9932836890220642, -0.3701154589653015, 0.9184735417366028, -0.7638697624206543, -0.04568442329764366, 1.612059235572815, 1.2938863039016724, -1.5748523473739624, -0.5129535794258118, -0.0023453847970813513, 0.007703442592173815, -0.26291337609291077, -1.0040526390075684, 1.2811129093170166, 1.107909917831421, -0.1527659296989441, 0.5060888528823853, 1.3692121505737305, -0.06381555646657944, 0.2922082841396332, -0.40624839067459106, 1.238041877746582, 0.9719815850257874, 0.5304049849510193, 0.6789995431900024, -0.14743126928806305, -0.48689398169517517, -0.14433921873569489, 0.5203189253807068, -0.0482417531311512, 1.160510778427124, 0.24761824309825897, -1.7915127277374268, -0.8700332045555115, 0.3710489273071289, -1.0003502368927002, 0.1207711473107338, 0.8350011110305786, 0.40201112627983093, -0.40319204330444336, 0.5233107805252075, 2.0565383434295654, 0.010508855804800987, 0.5979383587837219, -0.4445843994617462, -0.0798926129937172, -0.041027892380952835, 0.6417350172996521, 1.9991176128387451, 0.12431927770376205, -0.23595771193504333, 0.42790427803993225, -0.08592340350151062, 1.0110894441604614, -0.1721293032169342, -2.460134744644165, -0.18361124396324158, -1.1366418600082397, -0.015457632020115852, 0.30113792419433594, -0.7184237837791443, 0.11511730402708054, 0.8033750057220459, -0.6076793670654297, 0.8064484596252441, 1.030799150466919, -0.45527687668800354, -0.9088686108589172, -0.9300795793533325, -0.42034798860549927, 0.25493454933166504, -0.2853943705558777, 0.5215555429458618, 0.20568345487117767, 0.1513892412185669, -0.03325214982032776, -0.4390321671962738, -0.6729941964149475, -1.165280818939209, 0.01646670512855053, -0.598138689994812, 0.20783816277980804, 0.14049836993217468, 0.1327970027923584, -0.12519271671772003, -1.1559525728225708, -1.006420612335205, 0.25959599018096924, -0.18248042464256287, -0.6337557435035706, 0.3042861819267273, -0.40886035561561584, 0.09929046779870987, 0.28974324464797974, 1.4242222309112549, -0.217860147356987, -0.7315943837165833, -0.16506069898605347, 0.1468869000673294, -0.32632288336753845, 0.03349807485938072, -0.346174031496048, 1.081817626953125, -0.6761027574539185, -1.513363003730774, -0.38899144530296326, 0.37372204661369324, -0.8690687417984009, -0.6373961567878723, 1.1226352453231812, 0.03853614628314972, 0.2934812307357788, -1.2473700046539307, 0.9847153425216675, 0.08560803532600403, -0.5901098847389221, -1.2131104469299316, -0.2442295253276825, 0.048326049000024796, -0.5557342767715454, 0.01196548342704773, 2.4632489681243896, 0.22090907394886017, 0.698889434337616, -0.35695499181747437, 0.6791869401931763, 0.5402344465255737, -0.9684525728225708, -1.8976801633834839, -0.22738918662071228, 0.15208370983600616, -0.9533016681671143, -0.8164768815040588, 0.668930172920227, -0.49877500534057617, -1.8300844430923462, -0.40768274664878845, -0.8223944306373596, -0.36918118596076965, -0.25549519062042236, -1.8346796035766602, 0.1955791711807251, 1.279736042022705, 0.36006462574005127, 0.9255985617637634, -0.8974072933197021, 0.06237034499645233, -0.11044102162122726, 0.4371902644634247, -0.5504085421562195, -0.982029378414154, 0.23097185790538788, -0.20625834167003632, -1.7618427276611328, -0.09824372082948685, -0.2999735474586487, 0.16989882290363312, 0.5536813735961914, 0.16605590283870697, -0.12480834126472473, 0.131017804145813, 2.819185972213745, -0.05703521519899368, 0.8840934634208679, 0.07083811610937119, 0.5117031931877136, -0.6994131207466125, 0.0889405757188797, 1.0502322912216187, 1.735924243927002, -0.26605433225631714, 1.0087023973464966, 0.08261191844940186, 1.8584836721420288, 0.9888017177581787, -1.8568150997161865, -0.7036612629890442, 1.1274086236953735, 0.022022126242518425, 0.6047102212905884, -0.4674176275730133, -0.8075805306434631, 0.937932550907135, 0.04041355475783348, -1.1541296243667603, 0.6596726775169373, 0.6425231099128723, -1.2121094465255737, -1.2566763162612915, 0.6469502449035645, 1.243392825126648, 0.164170041680336, 0.9765563607215881, 2.361454963684082, -0.04818722978234291, 0.5736352205276489, 0.20179550349712372, -0.7220868468284607, -0.2597176730632782, 0.565159261226654, 0.837777316570282, -0.2074763923883438, -0.5955854058265686, -0.980789065361023, -1.0230900049209595, 1.8748071193695068, 1.499975323677063, -0.4571317136287689, 0.20488014817237854, 0.3804894983768463, -0.26844465732574463, 0.16429132223129272, 0.1935426890850067, -0.9230369329452515, 1.0435009002685547, 0.18548962473869324, 1.0161103010177612, -0.6508068442344666, 0.08747256547212601, -0.17325334250926971, 0.6667727828025818, -0.756405234336853, -0.6079998016357422, -0.7076560258865356, -2.533257484436035, -0.5436705350875854, 0.0950893834233284, -0.0022777109406888485, 0.01690770499408245, 2.344557523727417, -0.7785257697105408, -1.9736191034317017, -1.804672122001648, -0.005500600207597017, -0.09754816442728043, 0.054541103541851044, -1.6296072006225586, -0.7067735195159912, 0.6302003264427185, -1.8205938339233398, -0.7406923770904541, -0.41943272948265076, 0.19051265716552734, -0.40250271558761597, -0.7764313220977783, -0.02419428341090679, 0.9551883935928345, 0.2968085706233978, 0.20712174475193024, -1.273368239402771, 0.04329349845647812, -0.6654478311538696, 0.21185335516929626, -2.742473840713501, -0.1631384938955307, 0.4041785001754761, 1.7800887823104858, 0.10617884993553162, 0.4382096827030182, 0.059910207986831665, 0.8225303888320923, -1.874621868133545, -0.7307277917861938, 0.5878673791885376, -0.8187151551246643, 1.0708776712417603, 0.3520631492137909, -0.13919402658939362, 0.061201196163892746, 1.9842044115066528, 1.6077635288238525, 0.039292894303798676, -0.7515098452568054, 1.8452037572860718, 0.34689489006996155, 0.15331387519836426, -0.5180509090423584, 0.5257311463356018, -1.071762204170227, -1.0564417839050293, -1.9464706182479858, 0.5009084343910217, 0.11635706573724747, 0.3113749623298645, -0.7211920619010925, -0.4885714650154114, 1.6547975540161133, 0.6075671315193176, 1.4898498058319092, -0.3098689019680023, 0.09210096299648285, -0.5864514708518982, 0.32528990507125854, 0.10244975239038467, 0.5707597732543945, 0.20732279121875763, -0.26721253991127014, 2.140603542327881, 0.11598525941371918, 0.24395057559013367, 0.014613157138228416, 0.6933398842811584, -1.3559536933898926, 0.30982765555381775, -1.021398663520813, -1.458174228668213, -0.23977676033973694, -0.2729581594467163, -0.548057496547699, -0.7566096186637878, -0.009456036612391472, -0.5712196826934814, 1.5044825077056885, 0.7037396430969238, -0.0028741073329001665, -0.09387616813182831, -1.6480607986450195, -0.23941291868686676, 1.1325477361679077, 0.1556585431098938, 1.193938970565796, -0.31553491950035095, -0.1261487752199173, -0.5669742822647095, -0.028503280133008957, -0.03528023138642311, -2.3838157653808594, -1.392637848854065, -2.791990280151367, 0.9681323766708374, 0.252836138010025, 0.6052664518356323, -1.1411510705947876, -0.5718220472335815, 1.316110372543335, 0.5420545339584351, 0.5153709650039673, -0.347917377948761, 0.2540653347969055, -0.8615767359733582, 0.08281494677066803, -1.6822491884231567, -1.0370301008224487, -1.2155958414077759, -0.19293195009231567, -0.04128161072731018, 0.20351088047027588, -0.0496419258415699, -0.7572323083877563, -0.5708499550819397, -2.794365644454956, -1.3711349964141846, -1.2382245063781738, 0.9151209592819214, 0.06249602884054184, 0.7504632472991943, -0.7873786091804504, -1.4047765731811523, 0.1253090351819992, 0.30167868733406067, 0.6254995465278625, -0.425834596157074, 0.08784925192594528, -0.5002967715263367, 0.05389180779457092, 0.09364563226699829, -0.42876532673835754, 0.20710086822509766, -0.028209738433361053, 0.7452443838119507, -0.016948476433753967, 0.1682368814945221, -0.034549400210380554, 0.9061322808265686, 1.2184724807739258, -0.6901916265487671, 0.05303839221596718, -1.1815804243087769, -0.04908285662531853, -0.7119842171669006, -0.4483377933502197, -0.1751416027545929, -0.8846140503883362, -0.5522344708442688, -0.3151359558105469, -2.314084529876709, 0.4609437584877014, -1.079401969909668, -0.8824480772018433, 0.7634831666946411, 0.9825218319892883, -0.4910205006599426, -0.009712228551506996, -2.482464551925659, -0.5119990110397339, -0.5672467947006226, 0.24258998036384583, 0.6623314619064331, 0.28409942984580994, -1.2232651710510254, -1.6724421977996826, 1.6443758010864258, 0.41603052616119385, -0.2822498083114624, -1.3078449964523315, 0.9854379892349243, -0.6853839159011841, 0.3621681332588196, -0.659726083278656, -0.40824222564697266, -0.22781454026699066, 0.6202413439750671, 0.8696738481521606};

__attribute__((section (".container-data")))
const float U1[512] = {-2.0410234928131104, 1.1746084690093994, 1.517113208770752, -1.1372030973434448, 0.5859277248382568, 1.7562800645828247, 0.9107016324996948, 0.8396777510643005, -1.927971363067627, 2.164721965789795, -3.7715227603912354, -2.4642696380615234, 0.039084918797016144, -0.25637686252593994, 1.331982970237732, -1.7111997604370117, 1.2150286436080933, -2.3295276165008545, -1.916917324066162, -2.736506223678589, 1.224151611328125, -2.101672887802124, 0.9128143787384033, -0.8949200510978699, -0.9327307343482971, -1.8454344272613525, -0.32650187611579895, -0.9610722661018372, -0.49645838141441345, 0.7374692559242249, -0.021932754665613174, 1.4528709650039673, 1.2106701135635376, 0.5424706339836121, -1.3546479940414429, -2.0404012203216553, -3.0043699741363525, 0.3883950412273407, 0.5260863304138184, -1.1294933557510376, -0.7345631122589111, -1.4963818788528442, -0.018495406955480576, -3.0139687061309814, 0.9369004964828491, 0.3919313848018646, 0.2468336969614029, 0.5562692880630493, -0.9983254671096802, -0.4319414794445038, -0.506850004196167, -0.057907138019800186, -4.009870529174805, 0.8700088262557983, 2.4305381774902344, 0.5424063801765442, 0.17597609758377075, 1.2997459173202515, -0.0018056927947327495, 0.42546138167381287, 0.1957826465368271, -1.0752968788146973, -1.579228162765503, 1.1248173713684082, -2.900228261947632, 4.008098602294922, 1.0277539491653442, 5.728872776031494, 0.9227335453033447, -1.08651602268219, 0.20401960611343384, -0.4136015772819519, -0.2390386313199997, -0.4038850665092468, -1.0317127704620361, 0.19869831204414368, -0.2674914002418518, 2.671924352645874, 0.7063817381858826, -0.13766269385814667, 0.8680266737937927, -1.155875325202942, -0.1306244283914566, -0.1882973164319992, -0.01313373539596796, -0.6316121816635132, 0.19582891464233398, 0.7477024793624878, 2.851097822189331, -0.09975818544626236, 1.8886172771453857, 1.0999574661254883, 1.2038450241088867, 2.3159143924713135, 1.2448092699050903, -0.8522086143493652, 0.28502804040908813, -0.045779358595609665, -0.0052900840528309345, 1.4442460536956787, 1.1011842489242554, -2.3034467697143555, 2.436020851135254, -1.0943299531936646, 1.0556349754333496, -0.6254976987838745, 1.0519944429397583, -2.206484794616699, 1.3591190576553345, 0.9276885390281677, 0.8481378555297852, -0.38694852590560913, 0.23716585338115692, -3.678694486618042, 0.4228110611438751, 0.3863542973995209, 1.446047067642212, -1.8436108827590942, 1.5155714750289917, 0.396385133266449, 0.8469832539558411, 1.2479560375213623, -0.3300488293170929, -3.0224928855895996, -1.841001272201538, -0.39645829796791077, -1.0469881296157837, -0.33886000514030457, -5.723045825958252, -1.5479241609573364, -1.901587963104248, 0.5280185341835022, 0.7063430547714233, -1.9037202596664429, -1.0064151287078857, -0.8535923957824707, -1.252221941947937, -0.3223385214805603, -1.1258132457733154, 0.6301949620246887, -1.513501524925232, 1.9742556810379028, -0.5762496590614319, -0.7859295010566711, 1.6404966115951538, -2.031435251235962, -1.8298662900924683, 1.5353260040283203, 3.161667823791504, 0.5756384134292603, 0.1724124401807785, -0.9630663990974426, 1.3843886852264404, -0.7487760186195374, -0.24469062685966492, -1.2067910432815552, 1.3445779085159302, -1.5030490159988403, 0.006021083798259497, 2.0856833457946777, -1.541467308998108, -1.653497338294983, -1.3941298723220825, -0.6313007473945618, -1.8012714385986328, 0.4615480899810791, -1.237709641456604, -1.2726969718933105, 0.40307390689849854, -2.5660910606384277, -0.9168985486030579, 1.7208856344223022, -1.5688709020614624, 0.4481969177722931, -0.21833430230617523, 0.2091846615076065, 0.9039203524589539, -1.569756269454956, 2.0734004974365234, 0.7639670372009277, -0.2331262230873108, 1.563079595565796, -2.38744854927063, -0.3383280038833618, 0.07413940876722336, -1.3117645978927612, -0.539489209651947, 1.003675103187561, -0.5921450853347778, 0.1555328518152237, 0.4056728482246399, 0.9059466123580933, 4.4911956787109375, -0.5485947728157043, -2.983548879623413, 0.09694290161132812, 0.22378629446029663, 0.37398749589920044, 0.05257879197597504, -0.1754205822944641, 0.29344895482063293, 0.26861461997032166, -2.2151942253112793, 2.1166584491729736, -0.7436218857765198, 0.7970292568206787, -0.5035935044288635, 0.6118608117103577, -2.0562636852264404, 1.3665965795516968, -0.6921667456626892, -1.4872850179672241, 0.19037535786628723, 0.6490899324417114, 0.038524407893419266, -0.2812986969947815, -2.7010488510131836, -0.03758944571018219, 0.38445067405700684, 1.0887099504470825, -0.057200755923986435, -0.18677474558353424, 0.611979603767395, -4.257020473480225, 0.11799026280641556, -0.6714655160903931, -0.9780526161193848, 1.2070826292037964, 1.7775999307632446, -3.0859529972076416, -1.8391005992889404, -0.4208523631095886, 1.090713620185852, 0.5565170645713806, 0.5527933835983276, -1.502002239227295, -3.364412546157837, -0.36806559562683105, 0.10487262159585953, -0.3685086965560913, 0.5891974568367004, 0.8436135649681091, -7.463512420654297, -1.6032557487487793, -1.0872344970703125, 1.0894715785980225, -0.9902744889259338, 1.477226972579956, 0.47112366557121277, -1.4759098291397095, 0.8498378396034241, -3.050651788711548, 0.05457305535674095, -3.835020065307617, -0.9821503162384033, -0.0988566130399704, -4.342236042022705, -1.3921414613723755, 0.172280415892601, -0.639819860458374, -1.4501104354858398, 0.9460702538490295, 0.8523459434509277, 0.7568544149398804, -1.8184008598327637, 1.9879860877990723, -3.437532424926758, 0.7389362454414368, 0.24440152943134308, 0.5146255493164062, 0.45679762959480286, 1.1295702457427979, -2.716892957687378, 0.2925797402858734, 2.42785382270813, -4.7667341232299805, 1.3560519218444824, -1.120115041732788, 0.08471345156431198, 0.9965174794197083, 1.610724687576294, -1.591504454612732, 0.11351166665554047, -1.7418901920318604, -1.0055238008499146, -4.334425926208496, 0.982035219669342, -0.661853015422821, 0.3811390697956085, 0.04192391037940979, -0.7508368492126465, 0.3777487874031067, -3.3962810039520264, 1.079444408416748, 1.9215298891067505, -0.37321481108665466, -0.5559647083282471, -0.23402585089206696, 0.15899835526943207, -0.06824543327093124, -0.6801689863204956, -0.9621136784553528, -0.6309280395507812, 1.4379699230194092, 0.282953679561615, -2.2178127765655518, 0.16589833796024323, 0.3603401184082031, 2.666900396347046, 0.33631208539009094, -4.523721694946289, 1.3419057130813599, -0.4972427487373352, 0.5714572668075562, 0.02715824544429779, -0.32570260763168335, -0.44584059715270996, 3.3187777996063232, 5.276466369628906, -0.2589370012283325, 0.9673003554344177, 5.062554359436035, -1.9845373630523682, -0.7163944244384766, -0.9581580758094788, -2.4264423847198486, -0.022881057113409042, -1.9427132606506348, 0.617202639579773, -1.2157069444656372, 0.15508918464183807, -0.4326768219470978, -0.08306926488876343, -2.987293243408203, -0.3884938061237335, -0.7228726148605347, 1.979324221611023, -0.637816309928894, 0.9622016549110413, 0.49036115407943726, 0.1880766600370407, 2.671663284301758, 0.25069859623908997, -0.07026837766170502, -0.7863360047340393, -2.0547800064086914, 0.47305506467819214, -1.339374303817749, 1.678692102432251, -0.24106602370738983, 1.153069257736206, 0.5263185501098633, -0.719685435295105, -0.5354553461074829, 0.8139949440956116, -1.8126839399337769, -0.24256043136119843, -1.895994782447815, 0.3599252998828888, -0.5524045825004578, 0.1729716956615448, -0.02552807331085205, -0.3901249170303345, 1.6097155809402466, -1.3616697788238525, -0.5555950999259949, -0.5020313858985901, -0.5529561042785645, 0.685076892375946, -1.35598886013031, -1.5399448871612549, -0.0965631753206253, 0.6721355319023132, -2.218980550765991, 7.382331371307373, -0.6680163145065308, 0.646977424621582, 0.6061348915100098, 1.2099473476409912, 0.9037472009658813, -0.9302308559417725, 1.3218098878860474, 1.8680360317230225, -1.7078663110733032, -1.5189443826675415, 0.08867877721786499, 1.5475493669509888, -0.3511987626552582, -0.5968567728996277, 0.42912063002586365, 0.08306682854890823, -0.06164519116282463, -0.9656311869621277, -1.016255259513855, 2.8633124828338623, 0.8129046559333801, 0.3855147659778595, -2.197650194168091, 1.2816230058670044, 1.4708364009857178, 1.3384960889816284, -0.2565326392650604, -0.5672768354415894, -1.4108258485794067, -1.0571240186691284, -2.969593048095703, 0.6756831407546997, 0.20901300013065338, 1.0725973844528198, -2.81325364112854, -0.1521814465522766, -0.18292802572250366, -0.5082187652587891, 0.2755151391029358, 1.6929227113723755, -4.533061504364014, 0.36518609523773193, 2.938188314437866, -1.3649791479110718, -2.746457815170288, -1.2129499912261963, -1.4581257104873657, -1.458786129951477, 1.3612593412399292, 0.8593012094497681, 1.3831946849822998, -0.8545872569084167, 1.5004595518112183, -1.8594632148742676, 0.5294444561004639, 0.9850074052810669, 0.4988890588283539, -0.8703740835189819, -3.3333709239959717, 1.4945167303085327, 2.7929885387420654, -0.879069447517395, -1.0709705352783203, -1.4512742757797241, -0.0714767798781395, 0.43060311675071716, -0.3193347156047821, -0.038375504314899445, -1.386017918586731, 1.6883398294448853, -0.6561558842658997, -1.2841981649398804, 0.09451056271791458, -1.5846810340881348, -2.0767087936401367, 1.041946291923523, -2.1253721714019775, -0.3408357799053192, 2.1889472007751465, 0.35105791687965393, -0.4872145354747772, -1.7736010551452637, -0.9951514601707458, -2.961165189743042, -0.670132577419281, -0.8824931979179382, 3.007654905319214, -0.1602523922920227, 0.007093855645507574, -1.0855361223220825, 0.3849351406097412, 0.1341666281223297, 0.2765032649040222, -1.6495710611343384, -0.14087611436843872, 0.2927578091621399, 1.2639459371566772, -1.1984961032867432, -1.1836944818496704, 1.838005542755127, -1.4346446990966797, -0.7058080434799194, 3.0974133014678955, 2.135240077972412, 0.7703706622123718, -0.29267576336860657, -2.5838003158569336, 0.840529203414917, -0.4318990707397461, 0.17428156733512878, 2.1194496154785156, 0.9327932000160217, 0.2959713041782379, 0.2638219892978668, -1.331967830657959, -0.4730346202850342, 2.342881202697754, 1.4153274297714233, -0.2594887316226959, 1.059801697731018, -0.6693249344825745, 1.3322434425354004, 1.10027277469635, -2.1399502754211426, -0.06229865550994873, -0.8539655804634094, -1.941705346107483, 3.6723010540008545, -0.9328184127807617, 0.7931215763092041, 1.3447877168655396, -0.7164163589477539, 1.5073329210281372, 0.822596549987793, -1.6336983442306519, -1.3527097702026367, -1.8909268379211426};
__attribute__((section (".container-data")))
const float U2[512] = {-0.425555944442749, 1.3100780248641968, -1.2364400625228882, -0.9731073379516602, -3.2596261501312256, -1.14316725730896, 1.819973111152649, 0.1432182639837265, -1.3410638570785522, 1.9443479776382446, 2.084355354309082, -1.4340317249298096, -0.6649749875068665, -1.4188189506530762, 1.5175254344940186, 3.4511542320251465, -1.4592548608779907, -2.724046468734741, 0.9666774868965149, 0.9215052723884583, 0.42425087094306946, 1.534812092781067, 0.32023805379867554, 2.2861852645874023, -1.217235803604126, 2.2711985111236572, 0.008375639095902443, 1.3523175716400146, -1.5817550420761108, 0.007377216126769781, -0.9390835165977478, -0.7616217732429504, 0.04801478609442711, -0.11478997021913528, 1.3282233476638794, -0.48424258828163147, -1.2451852560043335, 1.7941709756851196, 3.6251637935638428, 1.7023327350616455, -2.8724920749664307, 1.9307115077972412, 1.2740188837051392, -1.6087106466293335, -1.1088711023330688, 1.1921178102493286, -1.0798075199127197, 4.448331356048584, -3.888007402420044, 1.1540658473968506, 0.7075266242027283, -0.5538313984870911, -1.967590570449829, 1.7149972915649414, -0.0715913400053978, -0.45618465542793274, 2.1212105751037598, -0.8774637579917908, 0.3769349455833435, -1.2660624980926514, -1.3152803182601929, 0.38408830761909485, 0.5930508971214294, 1.3138821125030518, -0.4308757185935974, -0.1183282732963562, -0.43292102217674255, -0.576425313949585, 1.600224256515503, 0.17657560110092163, 0.8242592811584473, -0.24520176649093628, -1.6114412546157837, 0.27752867341041565, -1.3573219776153564, 1.4701752662658691, 0.5174105167388916, 1.6007436513900757, 2.2550787925720215, 1.607028603553772, -3.696722984313965, 3.913360834121704, 0.295740008354187, 0.3964058756828308, -0.9996520280838013, -3.683044910430908, 2.944486618041992, 2.350914478302002, 0.9996001720428467, 1.6280517578125, -0.6610215902328491, 1.8159030675888062, -0.7834135890007019, -1.6807447671890259, 4.774370193481445, -0.4203486144542694, -1.8281745910644531, 1.9750441312789917, 1.0906585454940796, 2.252746343612671, 1.2695848941802979, -0.7328764796257019, -3.423462390899658, -3.1211190223693848, -3.1063077449798584, 2.945279836654663, 1.843929409980774, 2.47887921333313, -3.3273138999938965, -2.7572572231292725, 2.730262041091919, 3.784499168395996, 2.7755789756774902, 2.0797595977783203, -0.37007588148117065, -1.5224363803863525, -0.10616171360015869, -3.958113670349121, 2.4698336124420166, 0.994185745716095, 1.955635666847229, -1.3655600547790527, -0.39250558614730835, 2.0648245811462402, 2.3632516860961914, -0.6709203720092773, 1.178199052810669, 1.0152429342269897, -1.672396183013916, 1.0092689990997314, -0.07584498077630997, 3.372466564178467, 0.6536973118782043, -0.39413192868232727, -2.112046480178833, -0.8280360102653503, 1.6042327880859375, 2.1287779808044434, 0.16340582072734833, -1.418409824371338, -0.33643248677253723, -1.081719160079956, 0.8586899042129517, -0.05794956162571907, 0.8690963387489319, -0.8671993613243103, 2.767031192779541, 1.0381503105163574, -0.9002238512039185, -0.16124741733074188, 0.44318246841430664, -1.0429713726043701, 1.7348566055297852, 1.4910054206848145, 0.8937888145446777, 1.9958909749984741, -5.573353290557861, -1.915077567100525, 1.3347139358520508, 2.99202561378479, -1.1836819648742676, 1.245044469833374, 2.4684088230133057, -0.15063922107219696, -7.0378241539001465, -2.9997599124908447, 0.5715394020080566, -0.12596482038497925, 0.672946572303772, 1.8921709060668945, -2.5445573329925537, -2.489372968673706, -1.1414486169815063, -2.3805744647979736, 1.4471685886383057, 0.3238917291164398, -2.2638652324676514, -0.7573256492614746, 1.765779972076416, -0.5243657231330872, -0.2102961242198944, 2.6721384525299072, -1.2821781635284424, -0.06839251518249512, -3.130828619003296, -0.6327338218688965, -0.8204442262649536, 3.7053136825561523, -0.3028116822242737, 0.5568859577178955, 2.1734554767608643, -0.0015375962248072028, 0.5611642599105835, 2.2832934856414795, -3.140099048614502, 1.189257264137268, 0.4793960452079773, -3.251013994216919, -0.6896375417709351, -1.0023939609527588, -3.5049073696136475, 2.78529691696167, 1.9847691059112549, 0.4400232136249542, -1.7896174192428589, -1.5595682859420776, -1.488175868988037, 0.5983660817146301, -0.7526769042015076, 2.244039297103882, -1.361714482307434, 1.0994795560836792, -1.0273741483688354, -0.007003099657595158, 0.4006284177303314, 1.9387632608413696, 2.0071115493774414, 1.758602261543274, 1.1488888263702393, -3.987833261489868, -0.31815919280052185, 0.8711121082305908, -2.086223840713501, -1.0837606191635132, -2.8005452156066895, 2.5671908855438232, -0.9442975521087646, 4.200808048248291, -1.7447295188903809, -0.25488516688346863, -0.9107424020767212, 1.6757456064224243, -1.5725301504135132, 1.3632837533950806, 0.4147455096244812, 1.6615750789642334, -2.7722036838531494, -2.4585893154144287, 2.2836616039276123, 4.124612808227539, 1.5179755687713623, -0.6457764506340027, 0.6588121652603149, -1.5595393180847168, 2.129467248916626, -1.3810893297195435, -1.73842453956604, 0.07093702256679535, -0.13423268496990204, -2.1285643577575684, -1.0918794870376587, 0.43638595938682556, -0.8407189846038818, 0.37542396783828735, -0.24833835661411285, 0.05932752415537834, 1.1566238403320312, 1.4531149864196777, 1.9126574993133545, 2.038856267929077, 1.72679603099823, 1.8367341756820679, 1.474863886833191, -1.1077271699905396, 1.8354265689849854, -0.9993690848350525, 2.531930923461914, -2.861341714859009, 1.1967593431472778, 2.1611273288726807, 1.177621841430664, 0.38097110390663147, 2.5249011516571045, 2.6125123500823975, 0.6334430575370789, 0.7413874864578247, -3.136117458343506, -1.1720985174179077, -1.390457272529602, 1.408345341682434, -2.329927682876587, 2.2031681537628174, 3.188828468322754, 0.21528533101081848, -1.1141031980514526, -1.2417558431625366, 2.7728607654571533, 0.3831464648246765, 0.8545770645141602, 1.055585265159607, 1.5233498811721802, -1.43057382106781, 2.166921615600586, 0.3276878297328949, 0.8272870182991028, -0.2327977865934372, -0.35276371240615845, 1.3401201963424683, -0.9996845126152039, 2.5063886642456055, -3.5224814414978027, -2.672207832336426, 3.530905246734619, 1.8111892938613892, 0.3981971740722656, -0.7611177563667297, 5.593106746673584, 0.7267905473709106, 0.21373321115970612, -0.015536786988377571, -0.40101245045661926, 2.6971395015716553, 2.2896275520324707, -0.3745045065879822, -1.8177522420883179, 0.8906352519989014, -0.2888067662715912, -2.634347677230835, 0.35355228185653687, -3.1922106742858887, 1.135597586631775, 0.6229768991470337, -2.3524022102355957, 1.8625617027282715, -1.398874282836914, 1.0475943088531494, -0.6530160903930664, -0.21037507057189941, 1.0239882469177246, 2.5578129291534424, 0.33015578985214233, -2.453019142150879, -2.557619094848633, -1.0099109411239624, -1.600049376487732, 3.0152125358581543, -4.206362724304199, 2.1700096130371094, -1.6827832460403442, 0.9324164986610413, -0.9775598049163818, -0.6538881063461304, 0.9571724534034729, 3.0801265239715576, 0.45102548599243164, -0.6994598507881165, -0.2712908089160919, 1.5266913175582886, 0.004022517241537571, -1.6408199071884155, -0.28192076086997986, -0.5613502264022827, -0.4895344376564026, -0.9722211360931396, -2.486093282699585, 0.9346609115600586, -0.6797759532928467, -0.3367539048194885, 2.6771130561828613, -4.5937581062316895, -3.7749500274658203, 1.465643286705017, -2.7379980087280273, 2.4645261764526367, -1.6950980424880981, -0.5659072399139404, 2.3478457927703857, -2.389538288116455, -0.09970515966415405, 3.2192318439483643, 2.0914196968078613, 3.608571767807007, 1.7095569372177124, -0.48307791352272034, -0.5656850934028625, 0.168532595038414, -1.482893466949463, 2.2234039306640625, -0.48180094361305237, -0.6701731085777283, -0.5737132430076599, 1.1694180965423584, -1.4866912364959717, 2.2697532176971436, -0.8860780596733093, -0.9602487087249756, 1.5918303728103638, -0.18228568136692047, 1.2171759605407715, -2.2715349197387695, 0.6604771018028259, -1.1976381540298462, -1.1771817207336426, 0.3769577741622925, 2.376542329788208, 0.12922586500644684, -0.07731140404939651, -0.8917961716651917, -2.3642523288726807, 0.12545734643936157, -1.055240511894226, 0.12236090749502182, -2.754424571990967, 0.0984412357211113, -0.28016501665115356, -0.127497136592865, -0.6071111559867859, 1.7252756357192993, -3.923518419265747, 3.9005017280578613, 1.0135046243667603, -1.5412380695343018, -2.0857250690460205, -3.9692981243133545, -0.05897758901119232, -1.3348263502120972, -1.895424723625183, -0.387403279542923, 1.4273377656936646, -0.6847294569015503, -0.19747602939605713, -1.94120192527771, 1.308212161064148, 0.6359915733337402, 0.8973341584205627, 3.9093177318573, -1.7850807905197144, -1.048742651939392, -4.598305702209473, 0.753795325756073, -1.2470824718475342, 0.31926584243774414, -2.3616745471954346, -0.2911216914653778, -1.3587027788162231, -0.14046917855739594, 1.5993958711624146, 0.22867600619792938, -0.3158225119113922, -0.3103310167789459, -3.0318057537078857, 0.8008752465248108, 0.25016045570373535, 2.249667167663574, -2.453476905822754, 1.1930691003799438, 1.9048391580581665, 0.9739787578582764, -1.2340995073318481, 1.6775429248809814, 1.3282408714294434, 1.9278974533081055, -3.488842010498047, 4.10633659362793, 0.600655734539032, 0.2608645558357239, -2.019817590713501, -0.9129433631896973, -0.4302445650100708, -0.042023900896310806, -0.33254650235176086, -0.9382345080375671, 2.2177138328552246, -0.593418300151825, -4.187726974487305, 0.6994731426239014, 0.2701652944087982, -0.376150518655777, 2.364391326904297, 2.6021358966827393, -0.32837939262390137, 1.6027189493179321, 1.3440216779708862, -0.2438090592622757, 1.2707308530807495, 4.720589637756348, -3.238154411315918, -2.5204977989196777, -0.4906744062900543, 0.3506441116333008, -1.583434820175171, 0.248992457985878, -1.6829582452774048, 1.6660317182540894, -2.973522424697876, -1.403871774673462, -0.27221694588661194, 0.5954254865646362, 1.0364304780960083, -0.8453331589698792, -2.00502347946167, 0.5233805179595947, -0.04529126361012459, -2.6257834434509277, -0.7249422669410706, 2.94338059425354, -3.0549392700195312, 5.148947238922119, 1.3163588047027588, -1.5088871717453003, -2.457099437713623, -1.8682395219802856, -0.6231196522712708, -2.124098300933838, 1.5310331583023071, -1.9097974300384521, -0.06925733387470245, 3.2869224548339844, 1.448919415473938, 2.039224863052368, -0.41393324732780457, 1.384896993637085};
__attribute__((section (".container-data")))
const float Bg[64] = {3.49057674407959, 2.4559621810913086, 3.9438705444335938, 1.5743608474731445, 4.054404258728027, 3.928786277770996, -0.7554771900177002, 0.022569037973880768, -1.1906501054763794, 0.8379910588264465, 1.2708499431610107, 3.6260993480682373, 4.143780708312988, 1.211190938949585, 3.6801629066467285, 1.3212202787399292, 2.4344940185546875, -1.0754731893539429, 5.630155086517334, 5.568354606628418, 4.670875549316406, 6.254124164581299, -0.14066050946712494, 1.5470478534698486, 5.141075611114502, 2.029282569885254, 1.4626703262329102, 5.071329593658447, 2.4503817558288574, 1.828322410583496, 0.7771558165550232, 0.49252068996429443, -0.0660155788064003, 1.4234286546707153, 4.100191593170166, 1.9355636835098267, 3.576178550720215, 4.048737049102783, 4.066868782043457, 1.8829655647277832, 4.4791998863220215, 6.956034183502197, 3.7710916996002197, -10.716339111328125, 6.773983001708984, 4.518430709838867, 2.823472261428833, -0.574060320854187, 0.9891773462295532, 2.729825973510742, 5.666379928588867, 1.6672983169555664, -8.078609466552734, 4.865328311920166, 4.45158576965332, 3.3439996242523193, 0.9738442301750183, 1.0831773281097412, -0.42835548520088196, 5.1913323402404785, 4.339902877807617, 4.9843974113464355, 5.3447346687316895, 3.7328765392303467};
__attribute__((section (".container-data")))
const float Bh[64] = {16.16535186767578, -1.2012571096420288, 3.006147623062134, 7.705262184143066, 2.1973061561584473, 1.54494309425354, 0.756959080696106, 1.4093350172042847, 1.1786118745803833, 0.6362507343292236, 8.960693359375, 1.4889792203903198, 2.496375322341919, 6.673824787139893, 3.0443472862243652, 2.2141294479370117, 1.1570369005203247, -0.39717212319374084, 2.8995962142944336, 2.3470466136932373, 2.643767833709717, 5.188918590545654, 1.3217082023620605, 2.7627322673797607, 3.653045892715454, 2.2909390926361084, 4.696462154388428, 3.23049259185791, 1.205845832824707, 9.778674125671387, 1.6379319429397583, 1.659826636314392, 1.9180755615234375, 3.04938006401062, 1.7458019256591797, 11.0798978805542, 2.021646738052368, 9.088261604309082, 3.0008115768432617, 2.6202750205993652, 11.630045890808105, 3.3490638732910156, 4.348781585693359, 0.16779868304729462, 2.4259164333343506, 2.67637038230896, 2.106184720993042, -0.25965914130210876, 2.2529103755950928, -0.8147610425949097, 0.7220147252082825, 7.199477195739746, -1.6579039096832275, 2.2763099670410156, 0.13948236405849457, 1.7235692739486694, 4.378705024719238, 0.8563855290412903, 0.820391058921814, 2.128087043762207, 12.019701957702637, 2.8172216415405273, 2.5613837242126465, 2.8207039833068848};

__attribute__((section (".container-data")))
const float FC1[1152] = {2.826504945755005, 0.731637179851532, -2.4386847019195557, -0.3278314769268036, -10.007641792297363, -2.245572805404663, -0.9535654187202454, -1.2061680555343628, -1.794286847114563, 0.38301241397857666, -2.2996933460235596, 3.840794324874878, -2.7829034328460693, -1.2356246709823608, 0.6780450344085693, -2.4512197971343994, -0.8624018430709839, -4.0388503074646, 1.0827308893203735, 4.991004943847656, -0.5918402075767517, 3.1246814727783203, 1.476020097732544, -5.011624336242676, -0.8111539483070374, 0.523114025592804, 0.890891432762146, 2.9806630611419678, 2.7764856815338135, -1.9472404718399048, 0.6474006175994873, -0.1464199423789978, 1.6574926376342773, -4.36752986907959, 2.937513589859009, -2.691535711288452, -0.6308141350746155, -1.932336449623108, 3.963408946990967, 0.22075316309928894, 3.8860034942626953, -5.411677360534668, -0.7949342727661133, 3.3004493713378906, 1.0532435178756714, -0.6741090416908264, -2.2577362060546875, 1.6370210647583008, -0.31219667196273804, 0.41598305106163025, 1.2515370845794678, -1.046916127204895, -1.0642942190170288, 1.0658372640609741, 0.6429722309112549, -7.081830978393555, 1.6154310703277588, -3.636735200881958, 2.3028206825256348, 3.2586843967437744, 0.5831258893013, 1.2153059244155884, 1.6123237609863281, 3.940654754638672, -3.490086317062378, 0.8882104754447937, -1.099902629852295, -0.49506184458732605, -1.5967282056808472, -5.631951332092285, -0.43163904547691345, -0.05451326444745064, 4.06951379776001, 1.6383153200149536, -0.6205483675003052, 2.1810946464538574, -2.6577305793762207, 0.3841678500175476, -3.1948909759521484, -0.5298498868942261, 0.962435781955719, 1.6786489486694336, -2.1896071434020996, -2.7844715118408203, 0.37912458181381226, -0.08116692304611206, -3.6938014030456543, -1.6534096002578735, 5.2425994873046875, -2.2110722064971924, -1.1981148719787598, -4.840531826019287, 3.7250289916992188, 3.769909381866455, 3.6160502433776855, 0.337655633687973, 1.5699121952056885, 0.96295565366745, 5.018205642700195, -0.6669467687606812, -2.7951457500457764, 2.3663103580474854, -1.9696146249771118, -2.792023181915283, 0.6073322892189026, -0.6756166219711304, 0.8862366080284119, 1.777448058128357, -3.325990676879883, 5.298354148864746, -0.6825941205024719, -0.28546711802482605, 4.820433616638184, -0.15164951980113983, 1.998213291168213, -1.4120944738388062, 1.165554404258728, 3.9038755893707275, -2.8045096397399902, -0.8597578406333923, -3.335787773132324, -0.8094144463539124, 0.6263114213943481, -1.555677056312561, -3.660050392150879, 5.455419540405273, 1.7800759077072144, 2.215433359146118, 2.3033084869384766, 2.682044506072998, 9.09516429901123, -2.9737374782562256, 3.548258066177368, 0.5831319689750671, 3.961841344833374, 2.6664721965789795, -2.301602840423584, -1.828566074371338, -2.7615275382995605, 2.8697009086608887, 0.9100043773651123, 0.8131904602050781, -0.7879204154014587, 0.7436283826828003, 1.0010967254638672, -2.754801034927368, -4.935203552246094, 0.32551318407058716, -1.3939542770385742, 4.802663326263428, 0.38366371393203735, -4.735390663146973, 5.049458980560303, -0.8734408020973206, -1.5825525522232056, 0.07521544396877289, -6.041706562042236, 4.709486484527588, 1.2302321195602417, 5.563400745391846, -6.145896911621094, -2.2256317138671875, 6.422383785247803, -1.6829649209976196, 0.8142634034156799, -2.643972635269165, 1.5748707056045532, 2.175837278366089, 2.2787058353424072, 2.334322452545166, 2.9287123680114746, -1.2191461324691772, 5.120213508605957, 0.18730135262012482, -0.8241229057312012, -3.832977056503296, 1.125274658203125, -3.09613037109375, -3.2127881050109863, -3.058389902114868, -0.1467369794845581, -7.1020731925964355, -5.062930107116699, -3.793701648712158, -1.9324252605438232, 0.008399000391364098, -3.039743423461914, 0.24991241097450256, 2.9569807052612305, -2.707399606704712, -1.608525276184082, 5.513335704803467, 2.311312198638916, -0.17119631171226501, 2.344529151916504, 1.8787273168563843, 1.9238438606262207, -2.1813416481018066, 2.1851603984832764, 0.4921155273914337, -0.2649267613887787, -0.6950905919075012, 0.09351636469364166, 4.361752986907959, -0.5780384540557861, -2.574007987976074, -2.8789052963256836, -2.6657919883728027, -1.7679179906845093, 1.525614619255066, 6.118740081787109, -5.470398902893066, 0.723120927810669, -3.515615701675415, 2.046781539916992, 2.038484573364258, 3.6331818103790283, -2.3441691398620605, -0.8193882703781128, -3.2472543716430664, 6.380703926086426, -0.33715519309043884, 1.5082474946975708, 3.3437933921813965, 0.18690413236618042, -2.7746741771698, -2.20097279548645, -2.2297372817993164, 1.8285657167434692, -1.8955377340316772, 4.040188312530518, -0.4978812336921692, -1.7435450553894043, -4.972222328186035, 3.5429861545562744, -3.4890453815460205, 1.803950309753418, -0.4607614576816559, 0.4140848219394684, 1.9181753396987915, 1.9765568971633911, 0.47999048233032227, -0.6870097517967224, 1.6052571535110474, -1.0817177295684814, -0.965648889541626, -3.3164775371551514, -0.9403747320175171, -2.2300662994384766, -0.8955914974212646, -1.3969213962554932, -2.8895628452301025, -1.0138189792633057, -1.7069222927093506, -1.338036060333252, -0.13393531739711761, 1.4938793182373047, -2.0061323642730713, 2.2224841117858887, -1.1285252571105957, 1.6858844757080078, -0.9880959987640381, 2.433567762374878, -2.6944432258605957, -2.5901834964752197, -2.234513998031616, -2.533379077911377, -0.7547961473464966, -2.8132553100585938, -2.4723596572875977, -0.38749369978904724, 0.2068006694316864, -0.8223976492881775, -0.29427921772003174, 2.0599560737609863, 7.769653797149658, 0.8034092783927917, 0.1631723940372467, -0.693532407283783, 1.164336085319519, 0.1681388020515442, -3.5045876502990723, 0.6504323482513428, -3.207942008972168, 4.0267157554626465, -0.12313993275165558, -3.4383137226104736, 0.32652077078819275, 1.8173338174819946, -2.9569356441497803, 1.2132840156555176, -0.3592667877674103, 0.39857280254364014, -4.454633712768555, -1.704987645149231, -7.624938488006592, 0.9347847104072571, 3.5240442752838135, 0.9831982254981995, -4.1876606941223145, 9.251171112060547, 2.4679620265960693, -3.36733341217041, -1.9915419816970825, -2.1056792736053467, -0.9135393500328064, 1.1641029119491577, -0.5407752394676208, -0.46178317070007324, 1.9786020517349243, -1.850228190422058, -3.46496319770813, 0.5364713668823242, 5.519493103027344, -0.4228267967700958, 3.4471044540405273, 4.10077428817749, -2.4845950603485107, -3.0396060943603516, -0.6828078627586365, 1.5078744888305664, -0.4793079197406769, -5.9846649169921875, -1.024182677268982, -2.7033820152282715, 2.3404970169067383, 6.313880920410156, -1.7309443950653076, 1.9936606884002686, 5.9668660163879395, 0.8326926827430725, -2.7182672023773193, -2.386143684387207, 0.9047422409057617, -4.120166301727295, 1.5593819618225098, -7.995476245880127, -3.3695547580718994, 5.643311500549316, -1.4322195053100586, 4.694841384887695, 0.3994816839694977, -0.19875562191009521, -1.511304259300232, 1.6408426761627197, 1.0608854293823242, -2.1491403579711914, 2.481010675430298, 2.013343572616577, -1.0141006708145142, 2.6298296451568604, 1.6198530197143555, -4.7596540451049805, -0.2913748025894165, -2.541376829147339, -1.5310680866241455, 8.038331031799316, 4.334598541259766, -5.5362229347229, -0.3227655291557312, -1.3579374551773071, 0.40431860089302063, 0.39420032501220703, 0.9268416166305542, -4.881420612335205, 2.354865789413452, -6.728257179260254, -3.181926965713501, -1.406840443611145, -0.030633779242634773, -1.230037808418274, 1.1159019470214844, 3.044843912124634, 3.7689881324768066, 0.9871856570243835, -2.6260056495666504, -0.9648388624191284, -0.16416992247104645, -2.7563858032226562, -2.043038845062256, -0.3145408630371094, 3.050382137298584, 7.177718639373779, -1.7048838138580322, -0.5154473781585693, 0.8541607856750488, 6.093808174133301, -0.7554763555526733, 3.928271532058716, 2.316721200942993, 2.004013776779175, 0.20475350320339203, 2.0968093872070312, 1.5036207437515259, 1.8506032228469849, -1.536500096321106, -3.3381893634796143, -1.893376111984253, -0.2614063620567322, -3.1824190616607666, -6.260398864746094, 2.4134111404418945, 2.8503668308258057, -2.76628041267395, 3.2109944820404053, 0.16727501153945923, 0.5849799513816833, 1.8362541198730469, -1.2544865608215332, -4.192168235778809, 3.705629587173462, 5.837925910949707, -6.232536792755127, -1.604270339012146, 0.7585546374320984, -4.446834087371826, 0.6647806167602539, 1.9667491912841797, -1.3938078880310059, -2.199113607406616, -6.450976848602295, -0.7033647298812866, -3.429600477218628, -0.7097463011741638, 1.7077531814575195, -4.439526081085205, -1.9371860027313232, -1.9729313850402832, 2.6921963691711426, 0.10466483980417252, 2.004760980606079, 0.4532794952392578, 4.2743120193481445, 1.1057907342910767, 3.664595603942871, -0.5296146273612976, 1.390860676765442, -2.127554416656494, 1.6200063228607178, 0.31933003664016724, 0.22781994938850403, -2.3411638736724854, -0.8244503736495972, -3.2607100009918213, -0.29477545619010925, 1.3374361991882324, 1.8877978324890137, 7.27972412109375, 0.48440513014793396, 2.0562584400177, -3.9340293407440186, -0.3102096915245056, 3.9119551181793213, -6.650882244110107, -1.1058857440948486, 0.1332506686449051, -0.6679382920265198, 1.0864092111587524, 0.9680659174919128, -0.4394969046115875, -0.5230247378349304, 0.8557276725769043, 1.2518956661224365, -0.3170371651649475, 2.2711074352264404, 0.512810230255127, 3.575394868850708, 0.6939089894294739, 1.4257237911224365, -0.9908832907676697, -2.8450124263763428, 3.207913637161255, 0.5654439926147461, -0.50565505027771, -1.8908939361572266, 3.4070661067962646, -2.7002174854278564, 0.9732340574264526, 1.3414448499679565, 0.9924731254577637, 1.23735511302948, -3.3629653453826904, 3.3776357173919678, -0.378293514251709, 3.8468761444091797, 0.32034358382225037, -4.777500152587891, 0.717238187789917, -0.9889065027236938, -4.347930908203125, -5.0532917976379395, -1.019161581993103, -6.176380157470703, 1.2111620903015137, -4.067983627319336, -1.0475678443908691, -2.160111665725708, 0.16017644107341766, -1.820710301399231, 0.37879979610443115, -2.3335587978363037, -1.3334176540374756, -3.0597476959228516, 4.906946182250977, 2.347339630126953, 0.037423599511384964, -2.5049357414245605, -6.569554328918457, -2.1947951316833496, 2.759636402130127, -2.021257162094116, 0.6495165228843689, -3.820512056350708, -1.5872230529785156, 1.5222903490066528, 2.7893152236938477, -3.506333112716675, 2.415799856185913, 1.4015964269638062, 1.249207854270935, 1.4082355499267578, -2.652085065841675, 3.0738883018493652, 2.404710292816162, 2.913184404373169, 0.13248562812805176, -5.1900835037231445, 3.0574698448181152, 1.1685899496078491, 6.987306594848633, -1.6061813831329346, 0.6532037854194641, 2.0725975036621094, -1.3366841077804565, 0.313563734292984, -0.22244195640087128, -4.790339469909668, 3.4618923664093018, 1.1690696477890015, 3.997474431991577, -3.4820282459259033, -2.8542370796203613, -1.0264133214950562, -3.976708173751831, -1.6204200983047485, -6.226141929626465, -1.931396722793579, 1.1276367902755737, 4.612264633178711, 0.7963437438011169, -1.3799117803573608, -0.33708083629608154, 0.2302130162715912, 6.654025554656982, -2.4255146980285645, 3.352752447128296, -0.5401600003242493, -2.765558958053589, -0.5040830969810486, -0.6350606083869934, -0.8720171451568604, 2.259032726287842, 0.4601527750492096, 2.9281067848205566, 3.0559661388397217, 6.978289604187012, 0.883871853351593, 1.207247257232666, -0.6414901614189148, 0.20656995475292206, 3.1295149326324463, -1.4894237518310547, -1.368050217628479, -3.7633252143859863, 1.7584586143493652, -2.855132579803467, -2.1936371326446533, -0.6195544004440308, 0.19181640446186066, 1.2586243152618408, -1.388301134109497, -5.532122611999512, -2.083272933959961, 1.3275495767593384, 0.8882709741592407, 2.003801107406616, 1.0124560594558716, 1.6125489473342896, 1.8134931325912476, 0.7843484282493591, 2.2931571006774902, 0.8799436092376709, 1.3729182481765747, 3.600863456726074, 5.3900933265686035, -0.5252999067306519, -4.011009693145752, 2.750627040863037, -3.3041954040527344, -1.0150238275527954, 1.235542893409729, 4.694741249084473, 3.214296340942383, -1.8889845609664917, 4.329314708709717, -3.6193594932556152, -1.5634135007858276, -0.5181283950805664, -3.01361083984375, 0.27475568652153015, -3.0858728885650635, -1.0347936153411865, 0.4287850558757782, -1.3166863918304443, -0.4798220098018646, 1.9289979934692383, 2.479281187057495, 2.1800649166107178, 0.6565577983856201, 4.298604488372803, 2.2552123069763184, -0.4467695653438568, -2.972074508666992, -0.7980246543884277, -0.5899398922920227, 1.016759991645813, 3.2894551753997803, 2.8062453269958496, 0.49774113297462463, -7.084897041320801, 0.6187587380409241, 1.011820673942566, 1.9897457361221313, 1.7483843564987183, -0.5180708765983582, 1.0377426147460938, -3.0322492122650146, 0.9279738068580627, 2.5786614418029785, -0.7347850203514099, -0.4949966073036194, 0.5653368234634399, -1.9598952531814575, 2.9019763469696045, 1.9218846559524536, 0.7464175224304199, -0.06152318790555, 0.3875481188297272, 2.478304862976074, 7.612706661224365, -0.9176158308982849, 1.8568650484085083, 2.7580907344818115, -1.3244972229003906, -0.6862779855728149, -0.1770865023136139, 3.0561652183532715, 2.305748462677002, -0.26246970891952515, -0.5708327889442444, 1.8170077800750732, -3.6672937870025635, 1.837267518043518, -3.0764877796173096, -4.6620707511901855, 4.231400012969971, 1.1230024099349976, -0.14004690945148468, 1.7477182149887085, 1.2556990385055542, -0.20850268006324768, 0.42972564697265625, -1.957815408706665, 0.17404209077358246, 2.0659191608428955, -2.295706033706665, -8.859976768493652, -2.7450413703918457, -0.9145529270172119, 0.9798890948295593, -2.9466984272003174, -3.87034010887146, 1.762616515159607, -3.669003486633301, 0.9602554440498352, 2.849313497543335, 0.004816880915313959, -0.09059743583202362, -3.1253297328948975, 0.7935329675674438, -2.2066779136657715, -0.11448397487401962, -2.015967845916748, 1.7032028436660767, -0.6696768403053284, -5.368473052978516, 1.5727994441986084, 0.3412969708442688, 1.8857921361923218, -1.4705404043197632, -1.8205296993255615, 0.4347221851348877, 0.34182578325271606, -2.0839147567749023, -0.3792673647403717, 2.1957056522369385, -2.0493104457855225, 1.0924285650253296, 0.5336266756057739, -3.3331243991851807, -0.9268709421157837, -0.07317370921373367, -1.804888129234314, -3.675511360168457, -1.0602798461914062, -0.34801408648490906, 1.2854499816894531, -1.4793856143951416, -8.887283325195312, 3.7566332817077637, 0.9142003655433655, 0.8240996599197388, -4.272985458374023, -0.8123482465744019, -1.8323994874954224, 3.0748226642608643, -1.070137858390808, -0.7088772058486938, 3.237945795059204, 2.7573349475860596, 2.797624111175537, -2.9404330253601074, 3.10184383392334, 1.2998440265655518, 0.5575117468833923, -4.846447944641113, -3.5613861083984375, 4.917623996734619, -1.8498549461364746, -2.341356039047241, -4.9135589599609375, -2.316171169281006, 1.8583019971847534, -0.36137333512306213, 2.234773635864258, -3.5791592597961426, -1.6582525968551636, -0.39226239919662476, 5.7475175857543945, -2.229184865951538, -0.20346422493457794, 3.1394381523132324, -5.602090835571289, 2.267571449279785, -2.7657694816589355, -1.7892199754714966, 1.5195039510726929, 2.198523759841919, -3.575075387954712, 3.9230339527130127, 0.9330543279647827, -3.545607089996338, 0.02636059932410717, -2.162564992904663, -0.11976885050535202, -0.12425853312015533, 3.0244193077087402, -1.0234414339065552, -4.343400001525879, 2.4908199310302734, -2.8103458881378174, 1.7377954721450806, 5.900113105773926, 4.2755279541015625, 1.8890937566757202, 1.4461365938186646, 1.7873061895370483, 5.905209541320801, 2.2796032428741455, -0.3809214234352112, 1.9058674573898315, 2.152855157852173, -0.5416216850280762, 1.0582565069198608, 2.6177752017974854, -2.9893312454223633, -2.1074604988098145, 1.0460411310195923, 0.7114169597625732, 4.407101154327393, -3.924820899963379, -1.4262605905532837, -0.6211676001548767, 1.2163017988204956, -1.5529637336730957, 2.001507043838501, -0.32628339529037476, -0.7038683295249939, -4.461406230926514, -0.4479013979434967, 0.356780469417572, -3.2034847736358643, -2.255070209503174, -0.9672277569770813, -3.6602938175201416, 1.435548186302185, 4.013790607452393, 0.8612213134765625, -1.3260976076126099, 0.9476679563522339, -1.7114274501800537, -1.6650394201278687, 2.050727128982544, -4.40345573425293, -3.2750656604766846, -0.8658362030982971, -1.0027309656143188, 1.733641505241394, -0.9954657554626465, -0.09753981232643127, -0.4842606484889984, -4.915322303771973, -0.07188189774751663, 0.8129273056983948, 1.489165186882019, -4.022355079650879, 0.09529376775026321, -2.145944833755493, -1.3251315355300903, 0.9128164649009705, 1.983352541923523, 2.942451238632202, 2.6413512229919434, 0.8053027391433716, -2.340545177459717, -1.5210236310958862, 4.712172031402588, -0.6200857758522034, 2.4591495990753174, 3.3565053939819336, -0.46569809317588806, 2.3049025535583496, -1.8476166725158691, 5.67637300491333, -2.9053707122802734, 0.906207799911499, 2.056959867477417, 2.7667195796966553, -2.4048922061920166, -1.2536813020706177, -3.009847640991211, -1.4525216817855835, -0.843237578868866, -0.3541039526462555, 2.0117897987365723, 2.784600257873535, 1.2960008382797241, 2.730264663696289, -0.10686483979225159, -3.0218942165374756, 1.0815776586532593, 0.4445631206035614, 2.5831050872802734, 0.8020080924034119, 3.111130714416504, 1.101135015487671, 0.1091201975941658, -0.04949094355106354, -2.541200876235962, -2.740150213241577, -1.3542866706848145, -0.35897693037986755, 0.43509697914123535, 1.5405770540237427, -0.6865849494934082, 4.915581703186035, -0.17806220054626465, 3.6354458332061768, -0.5892166495323181, 0.5427354574203491, -0.8599255681037903, -2.394200325012207, -4.45552396774292, -0.45607736706733704, 0.15397211909294128, 1.604109764099121, -0.8169960975646973, 1.4038026332855225, -2.1850192546844482, -1.9748473167419434, 1.0209429264068604, 0.7540220022201538, -0.24532292783260345, 0.5432682037353516, -2.9011454582214355, -0.9527844190597534, -2.2610971927642822, 1.6291486024856567, 0.7221983075141907, -0.6431494951248169, 5.020593643188477, -2.1920065879821777, 5.033677101135254, -0.7127553820610046, 1.3258360624313354, -0.2733454704284668, 0.6813057661056519, -1.4609943628311157, 4.955440998077393, 1.4406791925430298, 0.651625394821167, -1.4879339933395386, 0.19692735373973846, 1.8273133039474487, 0.05545549467206001, -3.577627658843994, 1.2047855854034424, -5.8883891105651855, -0.9970786571502686, 0.5844199061393738, 4.11125373840332, 0.06003553420305252, -0.7842532992362976, -2.9696319103240967, -1.562941074371338, 0.007008757907897234, 0.7081862092018127, -2.9908382892608643, -0.8308925032615662, -1.443292498588562, -1.343025803565979, 0.4044956862926483, -1.4975101947784424, 2.7581489086151123, 0.41358280181884766, -1.0782119035720825, 1.5287392139434814, -2.667800188064575, -2.4614150524139404, -0.41367459297180176, -1.9553086757659912, -1.5656161308288574, 5.801656246185303, 2.467099189758301, 1.242728352546692, -1.120102882385254, -5.1304731369018555, 0.43936583399772644, -1.4172528982162476, 2.1694114208221436, -2.4107635021209717, 6.475720405578613, 3.364706039428711, -0.34244513511657715, -2.720658302307129, 7.323312282562256, -3.435425043106079, -1.2191499471664429, -0.3803556561470032, 1.781383991241455, 2.0719492435455322, -1.9289501905441284, -5.34498405456543, -0.3592779338359833, -1.7398930788040161, 0.39571425318717957, -0.8835868239402771, -0.910815417766571, 2.137617588043213, -0.758071780204773, -0.6759288311004639, 1.5133132934570312, -0.3747492730617523, -0.838812530040741, 1.8369197845458984, 0.4136817753314972, 0.5271914601325989, -2.462006092071533, 7.222731113433838, 10.659369468688965, -1.5901165008544922, 3.348825454711914, 5.089868068695068, -1.291219711303711, -5.130688667297363, -3.1642937660217285, -3.7371606826782227, -3.500774621963501, 2.698580265045166, -0.8193601369857788, 2.29583740234375, 1.996175765991211, -2.6202080249786377, -2.525360107421875, -2.193096399307251, 2.518702268600464, -1.7627413272857666, -1.6826337575912476, 0.14422650635242462, -1.8432344198226929, -1.418930172920227, -1.2105941772460938, -0.8484624028205872, 1.4359052181243896, -2.1115734577178955, 1.1172816753387451, -5.397347927093506, 5.578009128570557, 3.883129119873047, -0.2720320522785187, -5.367520809173584, 0.9924429655075073, -0.6694539189338684, 1.9458644390106201, 2.0714869499206543, 1.4927167892456055, -2.749405860900879, 5.515976428985596, -1.0119088888168335, -4.550273418426514, 2.514634370803833, -2.946545362472534, -2.042210578918457, 1.5512155294418335, -1.358269453048706, 0.5932104587554932, 0.6553768515586853, -0.4005994498729706, -0.17224787175655365, -3.390791893005371, 2.021042585372925, 2.9957454204559326, -0.1854298710823059, -1.1761274337768555, 2.1380386352539062, 1.101361632347107, 7.623233318328857, -0.6440302133560181, 5.688216209411621, 0.07653244584798813, 5.147709846496582, -6.494870185852051, -7.563720703125, -6.241216659545898, 4.34643030166626, -2.620265483856201, 1.9425532817840576, 1.9029810428619385, -2.877431869506836, 4.997116565704346, 0.7783815264701843, 0.3100384771823883, 1.735377311706543, -0.4202291965484619, 2.026822090148926, -1.7751481533050537, -2.180215358734131, -0.010471007786691189, 1.6312329769134521, -0.6603005528450012, -2.509298324584961, 2.844571590423584, 1.8437851667404175, -2.5080642700195312, 0.63499516248703, -2.318364381790161, -2.864203929901123, 0.41611501574516296, 4.60249662399292, -0.4838535487651825, 4.96541166305542, -3.618971109390259, -0.12773184478282928, 1.4384945631027222, 0.4980776906013489, -3.5026955604553223, 3.501171588897705, 1.4342122077941895, -1.5151501893997192, -0.9980812668800354, -0.2463073879480362, -0.5166088342666626, -0.14421533048152924, -7.376920223236084, 2.8086326122283936, 1.905482292175293, 2.8539113998413086, 2.130164623260498, -3.306723117828369, 3.04542875289917, -4.648022651672363, 1.1083645820617676, 5.512540817260742, -2.180332899093628, 0.13303962349891663, -4.4341301918029785, 3.388122081756592, -4.467862129211426, 2.7864530086517334, 0.24386657774448395, 2.598268747329712, 2.4232964515686035, -1.164363980293274, 0.7998061776161194, 0.18000361323356628, -0.4957418143749237, 0.17992611229419708, -2.0643680095672607, 3.5121777057647705, -1.1608760356903076, 5.747533798217773, 1.391659140586853, 0.9756497740745544, 4.481223106384277, -0.3482157289981842, 7.28241491317749, 2.4582467079162598, 0.28296563029289246, 0.3451380431652069, -0.27034634351730347, 0.20214055478572845, 2.4355268478393555, 2.3702449798583984, -2.7299089431762695, 0.10002163052558899, -1.3394503593444824, 5.082152843475342, 1.4627834558486938, -1.1828455924987793, 0.3425566256046295, 2.973809003829956, 3.7583680152893066, 0.586919903755188, -5.944850444793701, -1.5453115701675415, 0.16028031706809998, 2.0889503955841064, 0.8419232368469238, 4.357878684997559, 0.5678400993347168, 5.7999587059021, -1.3625706434249878, -3.385779857635498, 2.6406099796295166, 1.2105268239974976, 4.706637382507324, 0.4106411337852478, -0.5341159701347351, -4.964264392852783, 4.652916431427002, 0.6792164444923401, -1.591420292854309};
__attribute__((section (".container-data")))
const float FC2[1296] = {2.4243650436401367, 3.051079034805298, -2.383052110671997, 1.4949803352355957, 3.4080417156219482, 3.5250184535980225, 3.4438815116882324, 3.359099864959717, -1.321421504020691, -5.47173547744751, -1.6944977045059204, 2.0842249393463135, -3.734204053878784, 1.3017878532409668, -0.020327314734458923, 4.495142459869385, -1.0199337005615234, -1.747718334197998, -0.912575900554657, 5.615987777709961, -2.790876865386963, 4.447049140930176, 2.028808832168579, 1.8881715536117554, -1.8039155006408691, 1.7934651374816895, -3.3839282989501953, 3.0201258659362793, 2.1188323497772217, 3.0691850185394287, -2.6790976524353027, 3.459674835205078, 2.1461148262023926, 3.1827590465545654, -0.07322057336568832, -1.53239905834198, 1.8764888048171997, 4.900385856628418, -1.4792649745941162, 1.0144952535629272, 1.2300728559494019, 0.8975923657417297, -2.133882522583008, -1.4152592420578003, -0.0922190472483635, -0.7830839157104492, 2.6487157344818115, 4.469812393188477, 2.538954019546509, 0.1897924244403839, 0.042134158313274384, 2.0501720905303955, 6.164936065673828, -2.736793041229248, 0.7001582384109497, -0.6015353798866272, -5.849910736083984, 0.2805090844631195, -1.340019941329956, -1.998502492904663, -4.077335357666016, 0.5230182409286499, 1.193243145942688, -3.08644962310791, 5.807771682739258, 1.2393405437469482, -0.13818636536598206, 0.4239577353000641, -0.20882025361061096, 3.390824556350708, 3.4227802753448486, -0.7473071813583374, 4.071392059326172, 2.324662208557129, -3.0242724418640137, -0.14134901762008667, -0.05863780155777931, 1.4956179857254028, 4.4729533195495605, 0.2623889446258545, -2.957005023956299, 0.8202534317970276, -1.6012547016143799, -0.345249205827713, 0.9284655451774597, -0.08774522691965103, 2.133122205734253, 1.6240838766098022, -1.3036234378814697, -2.316948890686035, 2.5893843173980713, -0.9618639945983887, -3.188004732131958, 3.441683292388916, 2.071502923965454, -0.33268359303474426, 0.5990288257598877, -1.1799514293670654, -1.2889631986618042, 3.6475892066955566, -1.0516277551651, 2.909745454788208, 0.7104420065879822, -3.131103038787842, 0.6090844869613647, 2.0317602157592773, -3.223311424255371, -1.7279026508331299, 0.36810410022735596, -3.3288817405700684, -1.0777037143707275, 1.5753954648971558, -2.7726352214813232, 4.787527561187744, -1.4114795923233032, -2.3555774688720703, -0.8327298760414124, 2.879223108291626, 1.8878774642944336, 1.9040086269378662, -0.22111868858337402, -1.3643814325332642, 0.27967479825019836, 1.490214228630066, 1.3673012256622314, -1.726129412651062, 0.6376332640647888, -0.2589913606643677, -2.7725164890289307, -2.485964775085449, -3.109842300415039, 0.6687673926353455, -6.12430477142334, -2.2966153621673584, 0.44702818989753723, -1.1459941864013672, 1.1027908325195312, -0.4809911549091339, 0.093584343791008, 0.6232934594154358, 0.07263268530368805, 1.350465178489685, -2.529632568359375, -2.7240562438964844, 2.0262393951416016, 1.1774981021881104, 0.8703332543373108, 0.9696826338768005, -0.7996598482131958, -0.29214224219322205, 2.7182986736297607, -3.5888237953186035, -0.0781741589307785, -0.9109405279159546, -1.4543625116348267, -0.6599231362342834, -0.6710334420204163, -1.9879320859909058, -0.5318236947059631, 4.365695953369141, -4.388808250427246, -3.831925868988037, 1.0589194297790527, -1.8936253786087036, -2.2858192920684814, -0.8787122368812561, 2.0791938304901123, -0.14452849328517914, 1.668241262435913, -3.349905252456665, -1.85446035861969, 2.0916030406951904, 1.3000999689102173, 1.0906791687011719, -0.9980807304382324, 0.18722860515117645, -4.361451148986816, 0.29105350375175476, -2.342418670654297, -2.8507449626922607, 3.8349015712738037, -3.433689832687378, -2.940706968307495, 0.043554533272981644, 2.048264265060425, -0.362636536359787, -0.11462438851594925, -2.0871543884277344, 0.1451927125453949, 0.5560513734817505, 2.6900036334991455, -0.330234557390213, 2.4579854011535645, -2.2804408073425293, -2.7003157138824463, -1.0867549180984497, 0.7403432130813599, -3.0479345321655273, 0.2666833698749542, -1.0572545528411865, -0.568371057510376, -2.2541589736938477, -2.115150213241577, -2.71874737739563, -1.3179881572723389, 3.2168078422546387, 0.7552527189254761, 0.08318740874528885, -1.5423574447631836, 1.1481170654296875, 0.471328467130661, 2.8744804859161377, -0.40492498874664307, -1.508599877357483, -4.460158348083496, -4.609797477722168, 0.6740267872810364, -1.521774411201477, 1.4131433963775635, -0.6468706727027893, 2.8651137351989746, 0.01877772994339466, 2.492086410522461, -5.979015350341797, -1.785636067390442, -4.278524875640869, -0.44017016887664795, -3.5813965797424316, -0.04524233937263489, -1.0771740674972534, 0.053024716675281525, 1.0632048845291138, -0.5574230551719666, -2.443270444869995, 0.9788752794265747, -3.3603951930999756, 2.4669747352600098, 1.1396591663360596, 0.5132558941841125, 1.4533189535140991, 2.5597574710845947, -1.4493271112442017, -1.8015495538711548, -1.1219550371170044, 1.3651454448699951, -0.8424538969993591, 2.6062402725219727, 2.0392658710479736, -0.04909767583012581, -1.578768253326416, -2.316638946533203, -3.2952628135681152, -0.62032151222229, -4.091578006744385, 2.488278865814209, 1.3219233751296997, 4.031365871429443, -2.3024227619171143, -3.6303417682647705, -1.1169754266738892, 0.22742001712322235, -0.5653610229492188, 1.2847760915756226, 1.4831887483596802, -0.2561745047569275, -0.8503879904747009, -1.6343693733215332, 2.533301591873169, -1.3659148216247559, -2.407489061355591, -2.18394136428833, -0.23689283430576324, 0.9390043616294861, -1.079699993133545, 1.0779774188995361, 0.48833203315734863, -0.9596807360649109, -0.4960079789161682, -2.1998329162597656, -2.6741433143615723, 0.9891466498374939, 1.828690767288208, -3.2749736309051514, 1.5799789428710938, 2.704401969909668, -0.9884891510009766, -5.505443572998047, -1.6291123628616333, -0.11891809850931168, -1.6005820035934448, 2.58730411529541, -3.508035659790039, 3.2212204933166504, -2.3466644287109375, 2.9867782592773438, -0.44304609298706055, -4.417812347412109, -3.4090209007263184, -0.5478971600532532, -5.8152756690979, 1.3004028797149658, -2.789686918258667, 1.165490746498108, 2.81796932220459, 3.4478182792663574, -2.6247291564941406, -0.8152411580085754, -1.2950998544692993, 4.626684665679932, 2.2179791927337646, 2.1495392322540283, -2.702307939529419, 3.078104257583618, -1.411551594734192, -1.5433869361877441, -3.519279718399048, 4.530386924743652, 0.5632612109184265, 2.222717523574829, -0.4213842451572418, -2.295646905899048, 0.6439306139945984, -0.4637860655784607, -2.897609233856201, 1.1816588640213013, -0.4760066866874695, 7.027544021606445, -1.0325285196304321, 1.0637134313583374, -1.1971826553344727, -1.707319974899292, 2.1322226524353027, -2.73866605758667, -0.7051106691360474, 2.173456907272339, 1.9626892805099487, 0.2179819941520691, -0.9996792078018188, -1.644604206085205, 1.6250991821289062, 0.054435599595308304, -2.848764181137085, -2.8495049476623535, -0.0709754005074501, 1.7983086109161377, -0.6654152274131775, -2.1383297443389893, -0.5149752497673035, 1.6986066102981567, 2.544365167617798, -3.1509432792663574, -4.97318172454834, 0.881496012210846, 1.7891209125518799, 0.7833845019340515, 0.051373738795518875, 3.1297240257263184, -0.8381670713424683, -3.1219732761383057, -2.168789863586426, 1.4987778663635254, 7.051202297210693, 3.004819393157959, -5.47649621963501, 3.169142723083496, -3.3235549926757812, 1.1488796472549438, -2.409956693649292, -0.5238147974014282, -2.6408138275146484, 3.7051408290863037, -2.862302780151367, 2.9323408603668213, 5.036211967468262, -1.7406646013259888, 2.0441360473632812, -1.888604998588562, -0.2860669791698456, 1.8158698081970215, 1.5167803764343262, 2.698298454284668, 5.629281044006348, 1.6695311069488525, -4.140246868133545, -1.9526350498199463, -2.576767683029175, -1.0146185159683228, -0.9729120135307312, -1.9678151607513428, -6.099123954772949, -4.879365921020508, 4.212386131286621, 3.563476085662842, -0.3398034870624542, 4.2765655517578125, -1.0260030031204224, 1.6748656034469604, 2.0423460006713867, 5.021388053894043, 6.024271488189697, 2.1168510913848877, -2.8566718101501465, -0.6807557940483093, -1.9627519845962524, -3.504852771759033, -2.7027852535247803, 3.472688913345337, 0.027644526213407516, -2.2042043209075928, 1.5796103477478027, -0.6457758545875549, -1.4189122915267944, 1.4524298906326294, -2.019920825958252, 0.5784271359443665, -0.22719363868236542, 4.426480770111084, 2.8016409873962402, 0.20784981548786163, -2.397010564804077, -0.5141932964324951, 2.1178438663482666, -2.419874429702759, -6.315414905548096, -0.3156810402870178, -2.7200474739074707, -1.489182710647583, 5.078545093536377, 1.2525956630706787, -0.28521791100502014, 0.3478640913963318, -2.5951309204101562, 2.1934995651245117, 6.848355770111084, 0.10135474056005478, 4.76666784286499, 2.3983941078186035, -3.140913724899292, 2.806100606918335, -2.13425612449646, -1.1406681537628174, 0.6239231824874878, 4.20864725112915, -2.837602138519287, -1.7072668075561523, 0.9218525886535645, -4.612342834472656, -2.1462786197662354, 4.169444561004639, -1.5435882806777954, 1.3169047832489014, 2.757601499557495, 4.020470142364502, -1.485853672027588, 0.03583535552024841, -1.1923123598098755, 0.7340196371078491, -4.993778228759766, -2.963578701019287, 1.263469934463501, 1.8326876163482666, 2.17183780670166, -5.022185325622559, -1.3423348665237427, -2.360487699508667, -3.063800811767578, 4.774890422821045, 3.230027675628662, 0.967526912689209, 3.5539650917053223, 3.5211737155914307, 1.3524328470230103, 1.4792424440383911, -4.01497745513916, 1.1651352643966675, -1.2101260423660278, -3.4572465419769287, 1.781785488128662, 4.263488292694092, 1.9507455825805664, 0.18687206506729126, 2.5259807109832764, 0.9183207154273987, -3.324043035507202, 3.2093629837036133, -1.910524606704712, -3.480483055114746, 1.071516752243042, 1.1973040103912354, 4.352924823760986, 0.45264631509780884, -5.1515889167785645, 1.6387197971343994, -4.230064392089844, -2.5714738368988037, -4.537659168243408, 0.05488419160246849, -1.1851446628570557, 1.70054030418396, 3.677600860595703, 2.131509780883789, -1.1710500717163086, 1.2549328804016113, -1.0270373821258545, 0.9837833642959595, -0.19870686531066895, 0.8609797954559326, 0.1320117712020874, -0.27889344096183777, -0.0326867438852787, 0.766159176826477, -0.5624844431877136, 1.3731160163879395, 0.2674541771411896, 1.1926045417785645, 0.08721936494112015, 0.37882229685783386, 0.9366388320922852, -0.7097188234329224, 0.05271529033780098, 0.5258610248565674, -0.3881714642047882, 1.3518658876419067, 1.0236022472381592, 2.0918312072753906, 0.9120594263076782, -0.1865663379430771, -0.15922775864601135, 0.9439074397087097, 0.3927772641181946, 2.5375161170959473, -1.4967613220214844, 0.9119091033935547, 0.049906548112630844, -0.23194526135921478, 1.0165656805038452, -0.02853143773972988, 0.8960809707641602, 0.6258112192153931, 0.08907467126846313, -1.5168956518173218, 1.312291145324707, 2.4747097492218018, 0.8697552680969238, -2.098984479904175, -5.109652519226074, 3.520591974258423, 0.7763850688934326, -0.8496606349945068, 1.1341549158096313, 2.771413803100586, 0.672738790512085, -3.25713849067688, 1.2024157047271729, 1.3261427879333496, -3.877365827560425, 3.582698345184326, 0.1932574212551117, -2.4301295280456543, 5.746872901916504, 3.0784847736358643, -0.2141689658164978, -1.4381608963012695, -3.404644012451172, 0.337241530418396, -2.782923936843872, -1.394059181213379, 2.6860923767089844, -6.382878303527832, -2.9869120121002197, -0.06296373903751373, 5.222206115722656, 3.8935883045196533, -2.1214985847473145, 1.9028890132904053, 0.8479970693588257, -2.32798433303833, 2.4395084381103516, -0.27171269059181213, -0.9099386930465698, 2.729196548461914, -0.4680394232273102, 2.710251808166504, -2.311711549758911, -1.4964120388031006, -1.1785063743591309, 0.005184416193515062, -4.361326217651367, -1.4717506170272827, 0.1735084056854248, -4.188078880310059, -2.281564235687256, 1.0489295721054077, -2.5050013065338135, -3.3673415184020996, 2.0754313468933105, 2.0537970066070557, 0.35341307520866394, 2.0428881645202637, -1.2149001359939575, 3.435965061187744, 4.903923988342285, 0.8061910271644592, -2.572175979614258, -1.5649644136428833, -5.575954914093018, -3.2731363773345947, -0.5648316740989685, -2.5004734992980957, -2.5410263538360596, -0.8210800290107727, -0.8438282012939453, -2.602627992630005, 0.9697651267051697, 2.0323431491851807, 2.1785407066345215, -1.5548396110534668, -2.6541292667388916, 3.000873327255249, 1.4672025442123413, 1.379193902015686, 0.22424441576004028, -2.7291321754455566, 1.8170931339263916, -1.0760436058044434, -0.8417820930480957, 4.233748912811279, -5.558560371398926, 1.5154439210891724, 2.044328451156616, -2.2825725078582764, 0.7743149399757385, 0.6042452454566956, 1.184110164642334, -3.7686519622802734, -1.9448758363723755, 3.60357928276062, 2.823955535888672, 4.292023658752441, -4.386751174926758, 0.9942456483840942, -0.20444729924201965, 2.0601487159729004, 4.391823768615723, 4.062130928039551, -3.256692409515381, 3.7470901012420654, -2.3308207988739014, -5.306006908416748, 2.8944859504699707, -3.361569404602051, -2.079317569732666, 1.9428119659423828, 3.840131998062134, 2.247474431991577, -0.5312668681144714, 1.2136725187301636, -4.174794673919678, -0.30226629972457886, -2.40936017036438, -3.739302158355713, -0.8524980545043945, -1.761936068534851, -2.5707461833953857, 1.5726503133773804, -1.3741012811660767, -3.93774676322937, -2.0634052753448486, 2.619666576385498, 4.143356800079346, -2.611698627471924, -5.956511974334717, 2.8082523345947266, 1.3401013612747192, -0.6163449883460999, 2.9137990474700928, -1.763872504234314, -3.7092881202697754, 2.6744916439056396, -1.8170846700668335, -2.339110851287842, -2.889538288116455, -1.556481122970581, 5.0217671394348145, -3.8479549884796143, 0.38656851649284363, -0.7348239421844482, 0.09459645301103592, -3.1732394695281982, -3.95469331741333, 5.490579128265381, -1.0854707956314087, 3.3517112731933594, 0.9094579219818115, 0.6303369998931885, 2.9041407108306885, -1.2790422439575195, 2.1358482837677, 2.0541412830352783, -0.5459761619567871, 3.818419933319092, 4.110894203186035, -3.572061061859131, -0.9515304565429688, 3.8091161251068115, -0.07987061142921448, -4.226617813110352, -3.8243656158447266, 4.114091396331787, 0.5080640316009521, 4.543241500854492, -1.3009103536605835, -1.6200389862060547, -4.96946907043457, -1.5879956483840942, 0.8545682430267334, 0.4443678557872772, -2.225874423980713, -0.14437507092952728, 2.508155345916748, -4.793948650360107, 4.798882961273193, -3.5022997856140137, 2.944612503051758, -0.14522330462932587, -0.5928221344947815, -0.31273582577705383, 2.7308874130249023, 1.7261091470718384, -0.5201418399810791, 3.576320171356201, -3.1905882358551025, -4.970746040344238, -4.711701393127441, -0.6436021327972412, -1.7848342657089233, 1.4393582344055176, 0.6508294939994812, -3.7855379581451416, 0.6054152846336365, -1.5901802778244019, 1.5261766910552979, -4.530786514282227, -2.993459701538086, 0.3851551413536072, 3.493384838104248, 2.5681915283203125, 4.396791458129883, -3.724904775619507, -2.2509095668792725, -3.3403971195220947, 1.4674718379974365, -1.300903558731079, -1.3647934198379517, 2.4184153079986572, 2.5721118450164795, -3.687284469604492, 1.567240595817566, -0.06825729459524155, 0.5794910192489624, -2.2170495986938477, -0.6254756450653076, 2.238914728164673, 0.7965582013130188, 4.155520915985107, 2.0746355056762695, -3.686039447784424, 0.54670649766922, -1.2817988395690918, 3.205796957015991, 3.167937755584717, -1.4328702688217163, 2.6015753746032715, 3.7062740325927734, -0.9986423850059509, 5.641440391540527, 1.026799201965332, -1.6947102546691895, -5.13590669631958, 2.840254068374634, 3.972012519836426, 1.983738899230957, 4.847198009490967, 0.4597833454608917, -1.0294344425201416, -3.8038370609283447, -1.788049340248108, 0.5873004794120789, -0.49126988649368286, -3.914095640182495, 0.2665089964866638, -0.192674458026886, 1.578621506690979, 1.2183068990707397, -2.3520123958587646, 1.711299180984497, -6.0006937980651855, 1.8779752254486084, -1.1595574617385864, 1.055612325668335, 0.829182505607605, -1.0615015029907227, -2.002424478530884, 0.12600217759609222, -2.6349496841430664, -1.253039002418518, -2.7515225410461426, -0.7507822513580322, 2.8392670154571533, 5.387572288513184, 0.04442339017987251, 0.8358860611915588, 0.010958880186080933, 2.8078644275665283, -5.075360298156738, -1.7101315259933472, -1.7927769422531128, 4.162136554718018, 3.3277764320373535, -0.13600659370422363, -1.2128074169158936, -4.234707355499268, -2.0061612129211426, 2.707723379135132, 0.963801383972168, 2.3575916290283203, 5.970465660095215, 3.332237720489502, -1.4950419664382935, 1.0076541900634766, -0.05583352595567703, 5.290402412414551, -2.29565167427063, 2.997784376144409, 0.9850364923477173, 2.1757941246032715, 5.910423755645752, 2.0367252826690674, -2.9245986938476562, -3.4049911499023438, 0.19613242149353027, 3.4794445037841797, 0.9220556020736694, -2.338287353515625, 2.778215169906616, 2.521615982055664, 0.7112748622894287, 4.427011489868164, 2.6723639965057373, 0.8618717789649963, -2.6410160064697266, 4.757831573486328, 2.3150010108947754, -2.3044395446777344, 5.397463321685791, -1.1170005798339844, 1.5257790088653564, -3.6634745597839355, -1.35260808467865, 3.7579431533813477, -1.8477437496185303, -0.8713079690933228, -2.000559091567993, 1.4366686344146729, 2.3771183490753174, 0.11088039726018906, -1.5052547454833984, 0.6035504937171936, -6.5196428298950195, -0.7201054692268372, -0.6881952285766602, 1.3936865329742432, 1.1704102754592896, 3.2896859645843506, -1.7221351861953735, -4.760584354400635, 0.6515958905220032, -0.018180767074227333, 2.994586706161499, 0.015846699476242065, 6.290561199188232, 1.2764724493026733, -1.0279138088226318, 0.36769694089889526, -1.987653136253357, -0.7736207246780396, -3.2309865951538086, 0.6711167097091675, -1.135342001914978, 2.61296010017395, -0.8233368396759033, 1.7415177822113037, 1.6914918422698975, -3.12886118888855, 4.2379021644592285, 0.758022665977478, 2.629554033279419, 2.9886789321899414, 3.5454928874969482, 2.97021222114563, -1.4725282192230225, 0.8442164063453674, -0.5343138575553894, 2.4045419692993164, -0.3200191855430603, 5.495950698852539, -1.2213596105575562, 4.053540229797363, 0.5674850940704346, 1.613603949546814, -0.20154686272144318, -2.44516658782959, 3.281445264816284, 0.0859382227063179, 0.8166306614875793, 1.2517272233963013, -1.986043930053711, 1.4366317987442017, 1.0062386989593506, 3.119610548019409, 1.4137837886810303, -0.1194194033741951, 1.7130223512649536, 5.368350028991699, 1.7297120094299316, 1.271765947341919, 1.7552728652954102, -0.510838508605957, -1.4815294742584229, -4.07069730758667, 0.8160130381584167, -0.05701104924082756, 1.4425556659698486, 2.519179582595825, -2.6603245735168457, -2.338912010192871, 3.732189178466797, 2.5725247859954834, -3.266864538192749, 1.6657756567001343, -3.3592116832733154, 0.8155566453933716, -0.1840703785419464, -1.7879648208618164, 4.030852794647217, -1.6283763647079468, -1.8661218881607056, -0.554146945476532, 2.7478933334350586, -4.608670234680176, -1.607090950012207, -0.8095197081565857, 1.8632698059082031, 3.1372487545013428, 2.639599323272705, 1.229955792427063, -3.038851022720337, -0.7565290927886963, -2.6966159343719482, 1.587430477142334, 1.111525297164917, 1.4285509586334229, 3.2971692085266113, 1.9785367250442505, 4.9388957023620605, -1.7266438007354736, 2.956089496612549, -2.1196534633636475, 2.114962100982666, 0.5489890575408936, -1.4181489944458008, 4.466622352600098, 4.134418964385986, -1.0705502033233643, -0.2528076171875, 3.011702299118042, -1.031253695487976, 3.114550828933716, -0.320864200592041, -0.838631272315979, -0.12852223217487335, 0.5102408528327942, 0.3485724925994873, -3.809953451156616, 1.6273410320281982, 0.7036768198013306, -0.7374024391174316, 3.4147894382476807, 0.2508108615875244, 5.631532669067383, 2.4230122566223145, -3.3369956016540527, -1.6290873289108276, -0.26380452513694763, 1.7401076555252075, 1.158659815788269, -0.3307327330112457, 1.7531872987747192, 2.3286280632019043, 1.7910469770431519, -3.339236259460449, -3.3223719596862793, -2.5473170280456543, 1.995188593864441, 0.2983761131763458, 3.746199369430542, -2.6174204349517822, 0.08950390666723251, 0.8234176635742188, 3.3190693855285645, -1.6476752758026123, -1.4769794940948486, -4.30582857131958, -2.382387399673462, 3.061312675476074, -2.795931339263916, 2.483457565307617, -3.21079421043396, -1.457677960395813, -1.1074038743972778, 0.2059144377708435, 0.3197120428085327, 0.07221558690071106, -3.6067535877227783, -0.9662076234817505, 4.277233600616455, -0.17923486232757568, 2.0886154174804688, -0.6445428133010864, -0.18161541223526, -0.8134654760360718, 1.1260498762130737, 0.5313525795936584, -3.0664267539978027, 6.521521091461182, 0.7311967611312866, 1.4035277366638184, 0.7019532918930054, 5.329968452453613, -2.729982376098633, 1.1090980768203735, -1.2482801675796509, -1.5036450624465942, 1.8591116666793823, 0.6651157736778259, -3.417691230773926, -1.9908185005187988, -2.0077948570251465, 1.2246564626693726, 1.680546522140503, -1.949745774269104, -3.697540044784546, 4.432231426239014, 1.2349380254745483, -2.9615235328674316, -0.5844264626502991, -0.12792165577411652, -1.3594862222671509, -0.21842917799949646, 2.729712963104248, -0.5613881349563599, 2.687112331390381, -0.5918641090393066, 1.632141351699829, -1.216592788696289, 1.4232906103134155, 2.615638256072998, 2.6439146995544434, -0.31344282627105713, -0.8157775402069092, 4.2635626792907715, 2.4251012802124023, -1.7946146726608276, -0.07727813720703125, 1.519635796546936, -0.5379213094711304, 0.10893495380878448, 2.3274576663970947, -1.0729165077209473, 2.887683629989624, 2.0608737468719482, -2.6738455295562744, 0.5851932168006897, -3.362271308898926, -2.8270950317382812, 1.7665258646011353, 1.8993581533432007, -0.9982424974441528, 0.7824101448059082, -4.131481170654297, -0.9039427042007446, 2.8980047702789307, 3.7040860652923584, 0.3236396610736847, -2.1994967460632324, -4.018574237823486, 1.8575639724731445, 1.8898128271102905, 2.153731107711792, -2.4325239658355713, 3.5700020790100098, -3.8741583824157715, 2.5688529014587402, -3.9235000610351562, 0.9335463643074036, 0.3574059009552002, 3.5588715076446533, -0.5873659253120422, -1.6492204666137695, -3.5299391746520996, 2.1640663146972656, -4.135818958282471, 3.7242836952209473, -0.5795280337333679, 1.0495529174804688, 1.2690857648849487, -2.309551477432251, -3.2982354164123535, -0.7070082426071167, -3.9448142051696777, 3.6934525966644287, 1.4567430019378662, -0.10674616694450378, 2.3961093425750732, 1.7382389307022095, -3.011984348297119, 1.0932989120483398, -2.7974720001220703, 0.9944248795509338, -0.3526286482810974, -2.5192062854766846, 0.1271870881319046, -1.4753071069717407, 3.687317132949829, 1.7653340101242065, 4.883191108703613, -2.080371141433716, 0.7090867161750793, 2.812018394470215, 1.4771631956100464, -5.043865203857422, 1.4905000925064087, 1.1506381034851074, -0.05434631556272507, -2.308605194091797, -3.045048236846924, -4.93014669418335, 0.05104564502835274, 0.35305824875831604, -0.21585337817668915, -1.0877900123596191, 2.843879461288452, 0.5272482633590698, -2.040985584259033, 4.31443977355957, -1.3994786739349365, -0.41365233063697815, -0.4676159918308258, 0.013439695350825787, -3.617920398712158, 4.477135181427002, -3.936859369277954, -1.0828207731246948, 0.18713684380054474, 1.966500997543335, -0.6621826887130737, 4.938570499420166, -2.277968406677246, 4.81101131439209, 2.678328037261963, -0.2477617859840393, -2.687607765197754, 2.7036778926849365, -2.8526594638824463, -0.9771766662597656, 0.025899162515997887, -1.520805835723877, 0.814118504524231, 1.651989221572876, 4.356014728546143, 0.04559992626309395, 0.501365065574646, 2.7331628799438477, -0.2114315927028656, -0.09428898245096207, -3.036332368850708, 2.5011086463928223, 2.988274335861206, 1.3269597291946411, -1.5306487083435059, 0.14915995299816132, -1.1050992012023926, 0.7492867708206177, 1.4286938905715942, -4.935388565063477, 4.990255355834961, 3.0555152893066406, -0.34267720580101013, -2.4422202110290527, -0.1443057805299759, -2.2726519107818604, -1.9791077375411987, -3.908578395843506, -1.5647658109664917, 2.9753928184509277, 2.133807897567749, 2.7779641151428223, 5.262753963470459, 1.3913408517837524, -1.3178727626800537, 1.2109284400939941, 2.561310052871704, -2.5809056758880615, 1.9133645296096802, -2.6448171138763428, 1.4575321674346924, -5.406219482421875, 0.5335102677345276, -0.045386072248220444, 0.33138057589530945, -4.8448028564453125, 1.973768711090088, 0.9030376672744751, 3.2053494453430176, 0.9179121255874634, -1.6237506866455078, 2.898839235305786, -2.4191830158233643, 0.17482483386993408, -0.19273331761360168, -2.957197427749634, -2.7250020503997803, 4.046504497528076, -1.605401873588562, -0.017680808901786804, 3.0919742584228516, 1.7182843685150146, 3.673859119415283, 3.8186588287353516, -2.9177699089050293, 6.144505023956299, 1.449256181716919, 3.529942750930786, -0.5917606949806213, 2.9379522800445557, -4.841006755828857, 1.9163587093353271, 0.635152280330658, -1.4112695455551147, 0.4576880633831024, 4.118577480316162, -1.216350793838501, -0.12478645145893097, 3.7102105617523193, 0.5724887251853943, 2.771204948425293, 0.47176074981689453, -1.0570794343948364, 4.60938024520874, 2.2945363521575928, 2.9424877166748047, 1.6465011835098267, 2.6104118824005127, -2.4319908618927, -0.9057294726371765, 1.6208484172821045, -2.8833484649658203, -3.561664342880249, 8.109189987182617, 0.02025415375828743, 1.544541358947754, 0.8993386626243591, -1.974416732788086, 2.9641265869140625, -4.925194263458252, 2.701141119003296, 0.5307561159133911, 1.3351640701293945, 2.1449098587036133, 1.960242509841919, 0.7468273043632507, -1.193472146987915, 1.0797170400619507, 0.9501031041145325, -3.100371837615967, 0.357545405626297, 1.4864925146102905, 4.203803062438965, 2.9853525161743164, 0.6458227038383484, 2.0540757179260254, 1.506636381149292, -3.303818464279175, 3.3214945793151855, -5.791578769683838, 1.6626442670822144};
__attribute__((section (".container-data")))
const float FCbias[72] = {-1.1208608150482178, 1.3002899885177612, 1.150356650352478, -1.729156255722046, 1.7991746664047241, -1.016377329826355, 1.354562520980835, 1.1251804828643799, -0.7822135090827942, 0.5475649833679199, -2.5164806842803955, 0.13736458122730255, -1.0012480020523071, -0.060935504734516144, -1.0077050924301147, 2.887916088104248, -2.2814462184906006, -2.541239023208618, -0.71690833568573, 0.33837583661079407, -3.6493217945098877, -3.829714298248291, -0.5695340633392334, -2.1388821601867676, 1.2097012996673584, 0.18937794864177704, -0.5141185522079468, 2.1155550479888916, -7.245968341827393, -6.678058624267578, 1.7067750692367554, 0.6034132242202759, 3.3964462280273438, -0.27666428685188293, 1.5052086114883423, -0.21395952999591827, -0.056996919214725494, -4.269272327423096, -2.1504018306732178, -1.374874472618103, -1.7982032299041748, -1.5831364393234253, 3.054551362991333, -2.8225839138031006, 0.02061181142926216, 0.4319557845592499, -0.3878336548805237, 1.6143239736557007, -0.4756322503089905, 1.7710826396942139, 1.8781089782714844, -0.017300281673669815, -2.2277519702911377, 2.6108250617980957, -1.210158348083496, 1.780892014503479, -2.220623016357422, 1.069751501083374, 2.8791635036468506, -0.5378568172454834, 1.1684798002243042, 2.7908220291137695, 1.8384177684783936, -0.33242306113243103, -3.239281415939331, 3.233989953994751, -1.0504175424575806, 0.12103194743394852, -3.688328981399536, -2.338949680328369, -0.5517184138298035, 1.2197448015213013};

