#pragma once

#define INPUT_DIM 150
#define HIDDEN_DIM 50
#define OUTPUT_DIM 10

__attribute__((section (".container-data")))
static const float W1[INPUT_DIM * HIDDEN_DIM] = {-1.898460835218429565e-01, 1.895044595003128052e-01, -1.046163737773895264e-01,-1.632841825485229492e-01,-6.125917658209800720e-03,2.379530481994152069e-02,-2.722774744033813477e-01,1.675575077533721924e-01,8.084251731634140015e-02,6.468515843152999878e-02,-1.187584828585386276e-02,1.797602623701095581e-01,3.464290127158164978e-02,8.451274782419204712e-02,-2.217939682304859161e-02,-1.178491413593292236e-01,-3.387160599231719971e-01,4.951921105384826660e-02,-5.051418393850326538e-02,8.719322830438613892e-02,2.292329818010330200e-01,-4.620567336678504944e-02,7.894367724657058716e-02,-1.914162784814834595e-01,2.123055011034011841e-01,-3.580983281135559082e-01,-8.672931790351867676e-02,-2.193090878427028656e-02,-4.211389273405075073e-02,-1.793191879987716675e-01,6.393870711326599121e-02,2.109583914279937744e-01,-7.713600993156433105e-02,3.811175823211669922e-01,1.760935527272522449e-03,2.470885217189788818e-01,3.237157943658530712e-04,-1.379704773426055908e-01,-7.042650878429412842e-02,-3.121237754821777344e-01,-1.100193709135055542e-01,-2.035007327795028687e-01,1.832613199949264526e-01,-3.690118901431560516e-03,2.398741990327835083e-02,5.192812904715538025e-02,-1.592132449150085449e-01,3.179715573787689209e-02,1.360248923301696777e-01,-1.009897291660308838e-01, -1.101913154125213623e-01,4.242631047964096069e-02,-1.384828984737396240e-01,-4.521259963512420654e-01,-4.111209511756896973e-02,3.033828176558017731e-02,-1.754844188690185547e-02,1.220459789037704468e-01,-1.242519095540046692e-01,-7.811141014099121094e-02,-2.285341322422027588e-01,9.808690100908279419e-02,2.263531833887100220e-01,-2.154224663972854614e-01,2.410976141691207886e-01,1.919876933097839355e-01,-9.638259559869766235e-02,-1.029215678572654724e-01,2.526514828205108643e-01,1.479625403881072998e-01,5.674547702074050903e-02,9.567681699991226196e-02,1.169865354895591736e-01,-1.405600160360336304e-01,1.385975331068038940e-01,-2.650822699069976807e-01,1.452083438634872437e-01,1.362031698226928711e-01,-1.396735664457082748e-02,-1.320160031318664551e-01,1.168389916419982910e-01,2.881588637828826904e-01,1.695632003247737885e-02,2.885643243789672852e-01,2.099783420562744141e-01,-3.897243179380893707e-03,2.014684677124023438e-01,-1.106544360518455505e-01,-8.001201599836349487e-02,-2.400942444801330566e-01,-3.702590763568878174e-01,-3.872083425521850586e-01,2.742613255977630615e-01,-1.620527803897857666e-01,-1.071600094437599182e-01,-1.676876544952392578e-01,-2.136195600032806396e-01,1.892769634723663330e-01,-5.423988029360771179e-02,-9.329874068498611450e-02, 2.744362689554691315e-02,1.320852637290954590e-01,-2.780972048640251160e-02,-2.026879042387008667e-01,1.939453929662704468e-01,-1.951124072074890137e-01,-9.850890189409255981e-02,1.338386982679367065e-01,-2.046567052602767944e-01,1.409725546836853027e-01,9.748294018208980560e-03,9.281591325998306274e-02,3.177885413169860840e-01,-5.749861150979995728e-02,-2.068699449300765991e-01,-5.041652917861938477e-02,-1.134552359580993652e-01,1.269544810056686401e-01,1.656667441129684448e-01,-7.832775823771953583e-03,-1.237803045660257339e-02,-2.455176860094070435e-01,1.956787891685962677e-02,1.400933563709259033e-01,-6.565494835376739502e-02,-2.205718606710433960e-01,2.767777144908905029e-01,1.814278215169906616e-02,-6.071257218718528748e-02,5.546220764517784119e-02,-6.799581646919250488e-02,-1.861308515071868896e-01,-2.190661430358886719e-01,-7.848976552486419678e-02,-5.266092717647552490e-02,-1.284585986286401749e-02,-3.607939183712005615e-02,9.714113920927047729e-02,2.345842272043228149e-01,-8.779512345790863037e-02,-1.674806028604507446e-01,3.381388960406184196e-03,2.082608640193939209e-02,-4.252505674958229065e-02,-1.132960468530654907e-01,-9.920943528413772583e-02,2.133600600063800812e-02,4.434582963585853577e-02,-1.440432369709014893e-01,-2.528727613389492035e-02, 1.316192448139190674e-01,-1.200152188539505005e-01,-1.030482053756713867e-01,2.824870049953460693e-01,9.525208175182342529e-02,-2.070099860429763794e-01,-1.421220302581787109e-01,-5.047689378261566162e-02,1.752523928880691528e-01,4.662354290485382080e-02,-2.456937730312347412e-02,1.192839518189430237e-01,1.499830186367034912e-01,-1.938440203666687012e-01,-9.420926123857498169e-02,-4.002673923969268799e-02,3.149855881929397583e-02,1.827085018157958984e-01,-4.845556244254112244e-02,-1.955310851335525513e-01,1.389422416687011719e-01,-5.838650837540626526e-02,2.154076471924781799e-02,-8.570002764463424683e-02,-1.384454313665628433e-02,-2.178772389888763428e-01,4.532304033637046814e-02,-1.676917523145675659e-01,6.717770546674728394e-02,-7.736680656671524048e-02,-7.150744646787643433e-02,8.425128459930419922e-02,-2.171550691127777100e-02,-2.039122395217418671e-02,-2.112268358469009399e-01,-5.664403364062309265e-02,1.722636669874191284e-01,-1.057221740484237671e-01,3.356619551777839661e-02,-9.628028422594070435e-02,2.198920398950576782e-02,2.454434186220169067e-01,-7.673297077417373657e-02,-2.364664338529109955e-03,2.021460086107254028e-01,-3.016220591962337494e-02,1.119479164481163025e-01,-1.014430001378059387e-01,1.417753696441650391e-01,8.923383802175521851e-02, 2.663315832614898682e-01,6.327851861715316772e-02,1.359413610771298409e-03,-1.155375242233276367e-01,2.042924165725708008e-01,-7.773420214653015137e-02,-1.543329954147338867e-01,2.356686741113662720e-01,1.389736980199813843e-01,-1.862470656633377075e-01,2.446413487195968628e-01,-1.554285883903503418e-01,2.129230648279190063e-01,-1.247732192277908325e-01,3.303711488842964172e-02,6.155425217002630234e-03,-5.110081285238265991e-02,2.782996594905853271e-01,-1.280828863382339478e-01,-9.270443022251129150e-02,-4.170379787683486938e-02,-4.326576739549636841e-02,-3.532081097364425659e-02,-4.353401437401771545e-02,-6.730969995260238647e-02,-2.386402785778045654e-01,1.022236794233322144e-02,-1.883856579661369324e-02,-2.834484577178955078e-01,-2.035780549049377441e-01,-1.125905290246009827e-01,3.287644684314727783e-01,2.314556092023849487e-01,2.328347712755203247e-01,3.915512934327125549e-02,6.101182475686073303e-02,3.735873475670814514e-02,-3.094683215022087097e-02,1.635846197605133057e-01,1.040683537721633911e-01,9.552217274904251099e-02,-1.185410395264625549e-01,2.335108667612075806e-01,6.854997575283050537e-02,-6.634578853845596313e-02,8.154588192701339722e-02,-5.726826563477516174e-02,1.547369509935379028e-01,1.230133846402168274e-01,1.882171034812927246e-01, 1.695285737514495850e-01,-6.992788054049015045e-03,-7.832904160022735596e-02,2.169343233108520508e-01,1.429785937070846558e-01,-2.603943943977355957e-01,5.527426674962043762e-02,1.799814254045486450e-01,-1.917547583580017090e-01,4.835538193583488464e-02,1.802081912755966187e-01,-7.178043574094772339e-02,3.074587583541870117e-01,-2.712750136852264404e-01,-1.487405449151992798e-01,1.034542471170425415e-01,-5.036468431353569031e-02,-1.137341931462287903e-01,8.318110555410385132e-02,1.244713142514228821e-01,1.039493605494499207e-01,-9.804674983024597168e-02,1.390786468982696533e-01,3.697432205080986023e-02,-1.504067331552505493e-01,-2.035370469093322754e-01,2.056564986705780029e-01,-1.031919047236442566e-01,1.307293027639389038e-01,-3.314810618758201599e-02,1.124062985181808472e-01,1.643438339233398438e-01,-1.102583780884742737e-01,-1.018550843000411987e-01,8.030968159437179565e-02,4.791816323995590210e-02,-8.019296824932098389e-02,-4.110934957861900330e-02,1.735340803861618042e-01,3.782602399587631226e-02,1.012366339564323425e-01,1.092747077345848083e-01,-7.177386432886123657e-02,-2.107396125793457031e-01,1.542519330978393555e-01,5.036675184965133667e-02,2.506421506404876709e-01,-8.352439850568771362e-02,2.104594111442565918e-01,1.161817163228988647e-01, -7.036632299423217773e-02,1.704165488481521606e-01,-1.655122041702270508e-01,2.096899300813674927e-01,2.943518757820129395e-01,-1.441030800342559814e-01,4.677436873316764832e-02,-5.974817648530006409e-02,-1.767874211072921753e-01,1.930526942014694214e-01,-1.048372909426689148e-01,5.656745657324790955e-02,2.464642673730850220e-01,-8.109077066183090210e-02,-6.874660402536392212e-02,1.681419014930725098e-01,1.583347618579864502e-01,1.097271665930747986e-01,-1.236605346202850342e-01,2.631841413676738739e-02,3.847583383321762085e-02,-1.107990294694900513e-01,-8.474331349134445190e-02,-7.524321973323822021e-02,1.282460428774356842e-02,1.438578218221664429e-01,2.144798869267106056e-03,1.269523054361343384e-02,1.324793249368667603e-01,-1.321888864040374756e-01,4.324730485677719116e-02,1.263764947652816772e-01,6.603671610355377197e-02,-2.426301129162311554e-02,1.561346370726823807e-02,1.826704666018486023e-02,8.088557422161102295e-02,-4.223166778683662415e-02,5.386694148182868958e-02,6.497550755739212036e-02,-8.902458846569061279e-02,1.554978638887405396e-01,-1.750110089778900146e-01,-1.093058362603187561e-01,-4.197865352034568787e-02,3.902003541588783264e-02,2.182141989469528198e-01,2.175975143909454346e-01,1.382514238357543945e-01,3.975993394851684570e-02, -1.312331110239028931e-01,2.396548539400100708e-01,9.608042985200881958e-02,4.902963340282440186e-02,1.721128076314926147e-02,-1.142836757935583591e-03,-9.614812210202217102e-03,4.405807331204414368e-02,-1.387724727392196655e-01,2.401001006364822388e-02,7.066806405782699585e-02,-1.103160530328750610e-01,5.097688734531402588e-02,-2.031216323375701904e-01,-1.997532397508621216e-01,-2.292804569005966187e-01,2.219772897660732269e-02,1.307494193315505981e-01,1.370174884796142578e-01,9.519509971141815186e-02,-1.283211112022399902e-01,-1.864707767963409424e-01,6.632705777883529663e-02,-1.335264593362808228e-01,8.034326881170272827e-02,4.865424707531929016e-02,2.285490036010742188e-01,1.218055654317140579e-02,-2.431000024080276489e-01,-1.152513027191162109e-01,1.681098937988281250e-01,-2.404255419969558716e-02,1.231012344360351562e-01,2.551063895225524902e-01,4.197679460048675537e-03,1.922399103641510010e-01,1.650609076023101807e-01,1.860017329454421997e-02,7.584129273891448975e-02,4.093302413821220398e-02,-2.160694897174835205e-01,-2.890603244304656982e-01,1.713012605905532837e-01,6.807342171669006348e-03,3.362020105123519897e-02,5.672291666269302368e-02,1.793761402368545532e-01,6.193620618432760239e-03,5.835359543561935425e-02,1.672352701425552368e-01, 4.254250228404998779e-01,-4.683782532811164856e-02,6.125267967581748962e-02,1.464486718177795410e-01,2.652068734169006348e-01,-2.331309914588928223e-01,1.686322093009948730e-01,9.342925250530242920e-02,-8.113950490951538086e-02,2.312507778406143188e-01,-6.555300205945968628e-02,-5.425553396344184875e-02,4.087415635585784912e-01,-1.006932742893695831e-02,-2.223742157220840454e-01,2.060902118682861328e-02,1.115850135684013367e-01,8.124709874391555786e-02,1.231176219880580902e-02,6.279178708791732788e-02,-2.993875741958618164e-01,-1.705691367387771606e-01,-1.541763544082641602e-01,1.647018790245056152e-01,-1.312212049961090088e-01,-1.421241909265518188e-01,2.740367949008941650e-01,5.000720545649528503e-02,-1.500119417905807495e-01,-8.536363020539283752e-03,8.396906405687332153e-02,-1.415226459503173828e-01,-3.996171802282333374e-02,2.107863426208496094e-01,-2.562263421714305878e-02,-2.992613315582275391e-01,-8.312232792377471924e-02,3.262226656079292297e-02,-1.114466488361358643e-01,1.719350814819335938e-01,-1.841961443424224854e-01,2.492378465831279755e-02,1.270943321287631989e-03,7.859531790018081665e-03,9.520889073610305786e-02,5.228337645530700684e-02,1.377854347229003906e-01,-2.000959813594818115e-01,-9.746051579713821411e-02,3.797082901000976562e-01, 9.742792695760726929e-02,-9.531884640455245972e-02,-3.971196338534355164e-02,-6.021114811301231384e-02,-4.860200732946395874e-02,-1.066027805209159851e-01,-3.339166641235351562e-01,1.397122591733932495e-01,-5.984319001436233521e-02,5.365952849388122559e-02,1.718709319829940796e-01,3.656315430998802185e-02,1.126576885581016541e-01,-1.118231192231178284e-01,2.917699515819549561e-01,-1.415645480155944824e-01,9.821322560310363770e-02,1.043664291501045227e-01,-5.275386944413185120e-02,4.378299787640571594e-02,-5.647879838943481445e-02,5.866787582635879517e-02,-1.247981935739517212e-01,-1.941452920436859131e-01,-5.430967360734939575e-02,1.734427735209465027e-02,2.080116719007492065e-01,-1.958080530166625977e-01,9.362959861755371094e-02,-2.000975608825683594e-01,-1.405891627073287964e-01,-4.111739993095397949e-02,2.077505886554718018e-01,8.790698647499084473e-02,-3.420944884419441223e-02,-7.299596071243286133e-02,2.094151824712753296e-01,-5.117275565862655640e-02,1.063666194677352905e-01,6.154875154606997967e-05,1.598988622426986694e-01,1.729411482810974121e-01,2.045085281133651733e-01,-7.479680329561233521e-02,1.553504616022109985e-01,-1.034592539072036743e-01,2.227558791637420654e-01,-2.903765067458152771e-02,1.785355806350708008e-02,-2.484032809734344482e-01, -3.028842993080615997e-02,-1.233889684081077576e-01,-2.014715522527694702e-01,-3.092562407255172729e-02,-1.038884297013282776e-01,-3.185886517167091370e-02,-9.917901828885078430e-03,2.626344561576843262e-01,-9.042498469352722168e-02,1.195056363940238953e-01,-8.416548371315002441e-02,3.826870024204254150e-02,9.665454179048538208e-02,-2.215744405984878540e-01,3.078837990760803223e-01,3.074733316898345947e-01,2.224427647888660431e-02,1.744451969861984253e-01,2.324456535279750824e-02,6.978537142276763916e-02,-9.431190788745880127e-02,-2.990005351603031158e-02,-5.370419472455978394e-02,1.413835585117340088e-02,-1.655165255069732666e-01,-1.512328386306762695e-01,7.979089766740798950e-02,-1.797510683536529541e-01,-9.248380362987518311e-02,-8.918567746877670288e-02,-2.868171036243438721e-01,4.644619673490524292e-02,-3.826779499650001526e-02,5.634326115250587463e-02,5.706719681620597839e-02,4.065136238932609558e-02,1.018493995070457458e-01,2.318953424692153931e-01,2.187829017639160156e-01,2.189224399626255035e-02,5.409967154264450073e-02,-5.190813168883323669e-02,1.718537509441375732e-01,8.183734491467475891e-03,-1.495824605226516724e-01,2.488079518079757690e-01,6.453709304332733154e-02,-7.258431613445281982e-02,1.146420538425445557e-01,2.715633017942309380e-03, 1.237638145685195923e-01,-1.286524385213851929e-01,-1.629831828176975250e-02,-9.269066900014877319e-02,1.468386948108673096e-01,-1.426053345203399658e-01,1.239314749836921692e-01,2.976975142955780029e-01,-7.804429158568382263e-03,-8.844601921737194061e-03,-1.176381483674049377e-01,-1.388029456138610840e-01,2.864288985729217529e-01,-6.202410534024238586e-02,1.330496184527873993e-02,-8.805792778730392456e-02,7.750789821147918701e-02,1.866773366928100586e-01,2.368136197328567505e-01,9.738323092460632324e-02,-1.953350566327571869e-02,4.799931496381759644e-02,1.734174937009811401e-01,3.332946449518203735e-02,6.838826462626457214e-03,-1.744882166385650635e-01,-6.915885210037231445e-02,1.403847634792327881e-01,-2.094209939241409302e-01,-2.153427153825759888e-01,1.487515568733215332e-01,3.115437924861907959e-02,1.447556167840957642e-01,1.134392246603965759e-01,-1.236747950315475464e-01,4.118527285754680634e-03,1.258613616228103638e-01,2.554637193679809570e-01,1.604936420917510986e-01,-9.902600198984146118e-03,-1.481307148933410645e-01,9.923034906387329102e-02,7.362221926450729370e-02,-1.197615265846252441e-01,-2.019502967596054077e-02,1.550088971853256226e-01,-4.764206334948539734e-02,-5.820492282509803772e-02,4.845824465155601501e-02,3.246395289897918701e-01, -6.090793386101722717e-02,-9.422597289085388184e-02,1.454780399799346924e-01,6.344811618328094482e-02,1.957631297409534454e-02,-1.547853183001279831e-02,2.940167486667633057e-02,9.017366915941238403e-02,8.676075935363769531e-02,-4.431837797164916992e-02,2.019610255956649780e-01,9.005181491374969482e-02,2.826155126094818115e-01,-2.657524310052394867e-02,1.120202839374542236e-01,-8.003355562686920166e-02,9.450770914554595947e-02,2.619312703609466553e-01,-1.848164498805999756e-01,4.462895914912223816e-02,-2.336608171463012695e-01,-1.781778782606124878e-01,-1.874560415744781494e-01,3.532668109983205795e-03,-2.085225135087966919e-01,-1.599493320100009441e-03,5.832394957542419434e-02,-2.310182750225067139e-01,-5.655514076352119446e-02,1.264355629682540894e-01,6.789755076169967651e-02,9.261952713131904602e-03,-1.265717297792434692e-01,9.343387186527252197e-02,2.602230608463287354e-01,-5.654310807585716248e-02,8.951874077320098877e-02,-1.853978782892227173e-01,-4.072491824626922607e-02,8.173130452632904053e-02,4.729031771421432495e-02,9.196360409259796143e-02,1.110341027379035950e-01,2.142438478767871857e-02,4.259960725903511047e-02,1.218134816735982895e-02,1.101439818739891052e-02,7.876206189393997192e-02,-1.846568435430526733e-01,1.667203754186630249e-01, -1.062524691224098206e-01,3.492036163806915283e-01,-1.470690667629241943e-01,3.066173568367958069e-02,8.139239996671676636e-02,5.493678897619247437e-02,1.126030161976814270e-01,3.185187280178070068e-01,-1.222430989146232605e-01,-1.468146918341517448e-03,2.245172411203384399e-01,3.455549478530883789e-01,3.569237515330314636e-02,-1.314517110586166382e-01,-9.751173853874206543e-02,4.358614608645439148e-02,-1.708093434572219849e-01,2.432728931307792664e-02,1.829631812870502472e-02,5.685382336378097534e-02,-4.514669254422187805e-02,-9.113521128892898560e-02,8.481285767629742622e-04,9.622099250555038452e-02,3.747197613120079041e-02,9.404049068689346313e-02,2.083577662706375122e-01,5.952584743499755859e-02,-1.168222501873970032e-01,1.677183657884597778e-01,-4.126124456524848938e-02,-1.330685019493103027e-01,-2.208316624164581299e-01,-1.559525281190872192e-01,1.964600831270217896e-01,1.205351501703262329e-01,-1.538158045150339603e-03,-4.208645224571228027e-02,2.324537560343742371e-02,6.777728348970413208e-02,-1.999868750572204590e-01,-7.598049938678741455e-03,1.791820824146270752e-01,5.205311998724937439e-02,2.479586154222488403e-01,2.999759092926979065e-02,-1.694637238979339600e-01,-9.445413015782833099e-03,-1.341356523334980011e-02,-4.050495475530624390e-02, -8.722549676895141602e-02,8.544105291366577148e-02,-1.110747829079627991e-02,-1.492898166179656982e-02,2.336552888154983521e-01,-2.139019668102264404e-01,1.360213756561279297e-01,2.116442322731018066e-01,-1.249266043305397034e-01,7.206655293703079224e-02,-2.023752033710479736e-01,1.395021528005599976e-01,9.153056889772415161e-03,-3.553580120205879211e-02,1.158282011747360229e-01,-9.822315722703933716e-02,1.100993007421493530e-01,-7.968171685934066772e-02,2.147718369960784912e-01,-1.702649593353271484e-01,-2.596279792487621307e-02,-2.690626382827758789e-01,-1.823583431541919708e-02,5.506481975317001343e-02,-1.768685728311538696e-01,-1.646371781826019287e-01,3.169853687286376953e-01,-7.557392120361328125e-02,1.759534180164337158e-01,-6.181278824806213379e-02,1.297985911369323730e-01,-1.825821101665496826e-01,-5.855001881718635559e-02,-1.012681126594543457e-01,1.643791198730468750e-01,-1.569238752126693726e-01,6.761607527732849121e-02,-1.555625051259994507e-01,1.819345504045486450e-01,-2.621407620608806610e-02,3.990430384874343872e-02,-1.394445300102233887e-01,-5.409305542707443237e-02,-1.323082000017166138e-01,1.673883944749832153e-01,-6.637807935476303101e-02,1.821755319833755493e-01,1.227761283516883850e-01,-2.030886337161064148e-02,-4.773624241352081299e-02, -2.082080952823162079e-02,3.625384718179702759e-02,-2.609267234802246094e-01,1.302294284105300903e-01,8.438577875494956970e-03,-1.991734206676483154e-01,-7.155895978212356567e-02,1.806280612945556641e-01,-2.042275816202163696e-01,3.662935271859169006e-02,-1.092018187046051025e-01,-2.251673303544521332e-02,3.991720974445343018e-01,-1.837964057922363281e-01,9.102786332368850708e-02,2.149355262517929077e-01,2.083702087402343750e-01,-1.300414800643920898e-01,2.064823359251022339e-01,2.240561395883560181e-01,3.111999109387397766e-02,-2.276318967342376709e-01,-4.947026073932647705e-02,1.155683919787406921e-01,-7.345923036336898804e-02,-6.284461170434951782e-02,1.803527586162090302e-02,-2.100103348493576050e-01,-1.240150332450866699e-01,-1.338104307651519775e-01,-9.577368199825286865e-02,2.828023768961429596e-02,-5.274152010679244995e-02,4.867751523852348328e-02,-1.325949430465698242e-01,-8.441139012575149536e-02,2.124263793230056763e-01,-6.347224116325378418e-02,1.460920870304107666e-01,7.948581129312515259e-02,-3.219974040985107422e-02,-6.065174937248229980e-02,-1.167901232838630676e-01,-1.361827999353408813e-01,-2.020328789949417114e-01,-1.052741333842277527e-01,1.824346184730529785e-01,3.766059130430221558e-02,1.083304807543754578e-01,-6.006927788257598877e-02, 2.570176720619201660e-01,-4.913741722702980042e-02,1.815030872821807861e-01,2.564058601856231689e-01,-3.083758652210235596e-01,-1.446950733661651611e-01,1.313970685005187988e-01,5.626188218593597412e-02,-2.920270524919033051e-02,-2.177721587941050529e-03,3.440814092755317688e-03,1.431951522827148438e-01,1.194018572568893433e-01,1.794188655912876129e-02,2.440208047628402710e-01,2.904865443706512451e-01,4.254870116710662842e-02,-3.490791469812393188e-02,-9.875040501356124878e-03,-2.021903917193412781e-02,7.086104899644851685e-02,1.421500295400619507e-01,8.950497210025787354e-02,-1.642532348632812500e-01,-1.833399944007396698e-02,1.363373696804046631e-01,-1.499660760164260864e-01,-1.843525916337966919e-01,-9.535902738571166992e-02,1.097317636013031006e-01,-2.300494462251663208e-01,2.108445204794406891e-02,-1.395421773195266724e-01,1.799732446670532227e-01,1.266026794910430908e-01,4.247360303997993469e-02,1.768631637096405029e-01,3.444894775748252869e-02,4.893694072961807251e-02,2.018917798995971680e-01,-8.824328333139419556e-02,1.114548593759536743e-01,7.284171879291534424e-02,1.462488472461700439e-01,-1.087706536054611206e-01,3.479562103748321533e-01,1.814063936471939087e-01,-1.825465708971023560e-01,-1.396335959434509277e-01,-9.003312885761260986e-02, -8.902432769536972046e-02,-1.067541316151618958e-01,-6.746947020292282104e-02,1.981139183044433594e-01,2.451283037662506104e-01,-4.127130284905433655e-02,-6.786390393972396851e-02,-1.168715432286262512e-01,-4.508557729423046112e-03,-8.295691013336181641e-02,9.682525694370269775e-02,-1.020815894007682800e-01,1.084505319595336914e-01,-1.687873005867004395e-01,-1.036776527762413025e-01,1.991910785436630249e-01,-1.239954233169555664e-01,9.758790582418441772e-02,-1.095527112483978271e-01,1.777509450912475586e-01,1.619117110967636108e-01,-4.977259412407875061e-02,-1.707962900400161743e-01,1.117746382951736450e-01,-1.232144329696893692e-02,-6.549354642629623413e-02,3.374696895480155945e-02,-1.859155744314193726e-01,-1.683280020952224731e-01,-2.486732974648475647e-02,7.135993242263793945e-02,-2.475569397211074829e-01,3.327272832393646240e-02,1.409120559692382812e-01,-5.200516805052757263e-02,1.884473860263824463e-02,2.590524032711982727e-02,5.157102644443511963e-02,1.461121253669261932e-03,-7.317675650119781494e-02,-1.420764774084091187e-01,-1.020300313830375671e-01,1.287754029035568237e-01,-6.051396578550338745e-02,-2.590957581996917725e-01,1.122691035270690918e-01,1.621321737766265869e-01,-2.958800494670867920e-01,-5.847546271979808807e-03,7.089552283287048340e-02, -1.983651071786880493e-01,-1.929485797882080078e-02,3.460412472486495972e-02,-1.802819520235061646e-01,9.292154572904109955e-03,8.777140080928802490e-02,-2.694638967514038086e-01,-1.646381318569183350e-01,8.279111236333847046e-02,3.382110223174095154e-02,7.086049020290374756e-02,-1.337225437164306641e-01,3.062358200550079346e-01,-1.205508783459663391e-01,1.765044480562210083e-01,1.694172471761703491e-01,5.642128735780715942e-02,-3.238409012556076050e-02,-1.207065507769584656e-01,7.107786834239959717e-02,2.519899904727935791e-01,5.620341747999191284e-02,2.662512958049774170e-01,-5.435900762677192688e-02,-4.731310531497001648e-02,-1.090398174710571766e-03,1.431827545166015625e-01,-8.988805860280990601e-02,-1.917506754398345947e-02,4.154880344867706299e-02,2.214955538511276245e-01,1.838947832584381104e-01,-1.370874494314193726e-01,1.100308820605278015e-01,7.390025258064270020e-02,-1.134386286139488220e-02,-3.333046659827232361e-02,1.887373626232147217e-01,1.123771592974662781e-01,-9.360545128583908081e-02,5.122033879160881042e-02,6.047674268484115601e-02,-1.498495340347290039e-01,-2.861539721488952637e-01,-2.759112715721130371e-01,-1.006037145853042603e-01,-2.520002722740173340e-01,-2.441134676337242126e-02,-2.409993261098861694e-01,-1.689477562904357910e-01, 7.592938095331192017e-02,4.121768847107887268e-02,-1.450002193450927734e-02,-2.037809789180755615e-01,-6.792456656694412231e-02,1.473744809627532959e-01,7.844068855047225952e-02,1.796256899833679199e-01,9.541490674018859863e-02,-1.106681302189826965e-01,-2.698860764503479004e-01,1.409758031368255615e-01,1.035791188478469849e-01,1.063916757702827454e-01,9.296498447656631470e-02,-2.294823378324508667e-01,8.637217432260513306e-02,1.019089370965957642e-01,-1.060550436377525330e-01,-6.860962510108947754e-02,1.478041056543588638e-02,-2.058021575212478638e-01,4.565906524658203125e-02,8.786665648221969604e-02,1.519904099404811859e-02,3.886986076831817627e-01,-2.871341705322265625e-01,-7.067264616489410400e-02,1.803160905838012695e-01,-2.901209332048892975e-02,1.340636163949966431e-01,1.883995234966278076e-01,2.542053535580635071e-02,-2.771384268999099731e-02,1.095481812953948975e-01,3.273866176605224609e-01,3.322932720184326172e-01,-1.216381713747978210e-01,2.022432386875152588e-01,8.058105409145355225e-02,1.163287609815597534e-01,2.965912595391273499e-02,3.401543498039245605e-01,-2.142877280712127686e-01,-1.501309573650360107e-01,-1.485407501459121704e-01,-6.306650489568710327e-02,2.360491752624511719e-01,9.061893820762634277e-02,2.029617726802825928e-01, 1.110131815075874329e-01,-9.023829549551010132e-02,-3.930163756012916565e-02,-3.290755441412329674e-03,-1.029480844736099243e-01,-2.730419673025608063e-02,8.978880010545253754e-03,9.065974503755569458e-03,1.914974302053451538e-02,2.192950099706649780e-01,9.422912448644638062e-02,-1.904031932353973389e-01,-1.976323574781417847e-01,-9.178011864423751831e-02,2.488985657691955566e-01,2.148684263229370117e-01,-2.121663466095924377e-02,-2.496222853660583496e-01,-2.782218456268310547e-01,-5.107095092535018921e-02,3.024329803884029388e-02,7.850086688995361328e-02,-6.085212156176567078e-02,1.149796321988105774e-01,1.083843111991882324e-01,7.611080259084701538e-02,1.489112973213195801e-01,-7.375179231166839600e-02,1.895523071289062500e-01,5.165861174464225769e-02,-2.342344522476196289e-01,-4.560304060578346252e-02,-7.200936228036880493e-02,1.907431930303573608e-01,2.437575906515121460e-01,6.604845076799392700e-02,-9.715449810028076172e-02,9.578883647918701172e-02,-3.482381289359182119e-04,-1.743129342794418335e-01,2.410119958221912384e-02,8.918489515781402588e-02,-1.084402427077293396e-01,-8.847722411155700684e-02,1.090675964951515198e-01,7.393342256546020508e-02,-2.060439735651016235e-01,1.794020384550094604e-01,-3.408418595790863037e-02,-1.805740445852279663e-01, 5.537614971399307251e-02,-8.404336869716644287e-02,-2.500748634338378906e-01,-2.404658198356628418e-01,1.002168804407119751e-01,-2.606756752356886864e-03,-1.286191046237945557e-01,5.698311724700033665e-04,1.969398744404315948e-02,2.798665761947631836e-01,1.091303974390029907e-01,1.400468945503234863e-01,-3.393027558922767639e-02,-1.222506240010261536e-01,5.563687533140182495e-02,-1.952649801969528198e-01,2.277784049510955811e-01,-4.174527525901794434e-02,-2.974790930747985840e-01,5.053197592496871948e-02,-1.664169365540146828e-03,6.781088560819625854e-02,-2.534993588924407959e-01,2.432406693696975708e-01,-1.211847737431526184e-01,3.777551278471946716e-02,2.358790785074234009e-01,-7.248099893331527710e-02,1.139680817723274231e-01,1.215496286749839783e-01,-1.791520118713378906e-01,-1.194675341248512268e-01,5.387608706951141357e-02,-9.248363226652145386e-02,3.501985073089599609e-01,1.185092777013778687e-01,-8.642049878835678101e-02,-2.050958871841430664e-01,-1.583146452903747559e-01,-8.987741917371749878e-02,2.587587386369705200e-02,5.628591403365135193e-03,-2.110296338796615601e-01,-4.824644699692726135e-02,2.272780835628509521e-01,-1.784757077693939209e-01,3.784263134002685547e-02,-2.815587222576141357e-01,-4.026320204138755798e-02,-1.981112360954284668e-02, -4.346955101937055588e-03,2.771344035863876343e-02,8.691543340682983398e-02,5.220020562410354614e-02,9.574408084154129028e-02,9.436058253049850464e-02,1.831106096506118774e-02,-9.063117951154708862e-02,-2.256748527288436890e-01,-2.243281342089176178e-02,-1.016159057617187500e-01,1.024532541632652283e-01,1.492120176553726196e-01,8.624693751335144043e-02,-8.564513176679611206e-02,1.528728902339935303e-01,-1.597445644438266754e-02,-9.819656610488891602e-02,-1.590994298458099365e-01,7.654442451894283295e-03,-1.810936629772186279e-01,2.711282484233379364e-02,-1.615790575742721558e-01,2.030445784330368042e-01,1.375397741794586182e-01,1.636301279067993164e-01,2.677386105060577393e-01,-1.035510823130607605e-01,-1.445986032485961914e-01,8.938519656658172607e-02,-2.020588666200637817e-01,8.751359581947326660e-02,1.617664843797683716e-02,1.323176026344299316e-01,-1.690429751761257648e-03,1.727190762758255005e-01,1.987767666578292847e-01,-5.891792848706245422e-02,-1.401398889720439911e-02,1.828468143939971924e-01,1.762303560972213745e-01,9.866175800561904907e-02,7.371038198471069336e-02,-2.569034509360790253e-02,2.047825455665588379e-01,-1.751954257488250732e-01,-1.569681335240602493e-03,2.065330296754837036e-01,-1.002542674541473389e-01,1.409065723419189453e-01, 1.600549519062042236e-01,-1.516172140836715698e-01,-5.546326190233230591e-02,2.485352903604507446e-01,1.519251614809036255e-01,-1.071923151612281799e-01,2.144788652658462524e-01,-1.538242697715759277e-01,-1.468287557363510132e-01,-1.133683975785970688e-02,1.375966821797192097e-03,2.361709810793399811e-02,-1.960116177797317505e-01,-1.656109243631362915e-01,-1.641051620244979858e-01,6.468879990279674530e-03,-1.551555097103118896e-01,1.204162389039993286e-01,-4.879082366824150085e-02,-2.692708671092987061e-01,-3.668468445539474487e-02,-5.216874927282333374e-02,-9.289892017841339111e-02,1.100082620978355408e-01,1.874897629022598267e-01,-1.396977156400680542e-01,1.886059716343879700e-02,-2.058305591344833374e-01,-8.871336467564105988e-03,2.003693580627441406e-01,-2.864678576588630676e-02,-1.529131829738616943e-01,-3.533749654889106750e-02,2.511216402053833008e-01,-1.860968023538589478e-01,-5.574999377131462097e-02,3.787137567996978760e-02,-1.809681653976440430e-01,-9.174659848213195801e-02,-1.945181488990783691e-01,3.598923981189727783e-02,-6.780077237635850906e-03,-2.588573396205902100e-01,2.897471189498901367e-01,2.507290840148925781e-01,-1.835955530405044556e-01,9.020695835351943970e-02,8.692465722560882568e-02,-1.786563843488693237e-01,1.476643085479736328e-01, 5.250413343310356140e-02,-4.779293388128280640e-02,6.669748108834028244e-03,3.195503056049346924e-01,-1.002251822501420975e-02,1.235500499606132507e-01,2.054077833890914917e-01,-1.780574917793273926e-01,-1.846555471420288086e-01,-2.861414253711700439e-01,-1.017375066876411438e-01,2.786216791719198227e-03,1.076231673359870911e-01,3.337368369102478027e-02,-9.047890454530715942e-02,7.288081198930740356e-02,-5.236722063273191452e-04,1.472743600606918335e-01,-2.202811241149902344e-01,-1.098791658878326416e-01,-9.076697379350662231e-02,-1.419247388839721680e-01,-2.096209526062011719e-01,1.596486270427703857e-01,1.246687099337577820e-01,-6.291919853538274765e-03,-2.735720872879028320e-01,1.935867965221405029e-01,-1.071604341268539429e-01,2.095401287078857422e-02,1.821812391281127930e-01,-1.553530693054199219e-01,1.002503409981727600e-01,1.718499660491943359e-01,1.279091238975524902e-01,-4.606264829635620117e-02,-2.646276354789733887e-01,1.189399044960737228e-02,2.297382242977619171e-02,-2.702333927154541016e-01,-4.694914072751998901e-02,-2.148710042238235474e-01,2.608822882175445557e-01,-5.559914745390415192e-03,-6.054128333926200867e-02,-2.993531897664070129e-02,-5.517325922846794128e-02,-3.013955242931842804e-02,-4.725486040115356445e-02,2.862294614315032959e-01, -4.759737849235534668e-02,8.543196320533752441e-02,7.499705255031585693e-02,2.481748908758163452e-02,-2.510682046413421631e-01,2.625254988670349121e-01,9.185088425874710083e-02,8.940237015485763550e-02,-1.446458399295806885e-01,-2.492017000913619995e-01,1.188578009605407715e-01,1.234763935208320618e-01,-2.524918913841247559e-01,1.986614614725112915e-01,-1.600976735353469849e-01,-8.317315578460693359e-02,-2.611420452594757080e-01,1.593953520059585571e-01,-9.660962969064712524e-02,-1.567680239677429199e-01,-4.647136852145195007e-02,1.646833121776580811e-01,1.936687529087066650e-01,-4.684201907366514206e-03,8.686136454343795776e-03,-7.153142243623733521e-02,-2.420006841421127319e-01,-4.840222001075744629e-02,-2.809536457061767578e-01,-9.695970267057418823e-02,-1.429345756769180298e-01,3.511312007904052734e-01,7.019017636775970459e-02,-1.454847902059555054e-01,-5.398565158247947693e-02,1.386984735727310181e-01,-7.448726147413253784e-02,1.913786828517913818e-01,-7.846783101558685303e-02,-2.208555340766906738e-01,3.588600754737854004e-01,-6.460575014352798462e-02,2.582851052284240723e-01,2.432740293443202972e-02,1.091451048851013184e-01,3.553505241870880127e-02,1.542776972055435181e-01,1.216292660683393478e-02,1.829846948385238647e-02,8.635576814413070679e-02, 1.385128051042556763e-01,6.170609965920448303e-02,2.845710515975952148e-01,-2.045214772224426270e-01,-3.230417668819427490e-01,1.695961318910121918e-02,4.841465502977371216e-02,2.057786285877227783e-01,-5.919276177883148193e-02,-2.182288169860839844e-01,-3.360442221164703369e-01,-2.016638368368148804e-01,-1.484737992286682129e-01,1.131202504038810730e-01,-9.441632777452468872e-02,-1.364239007234573364e-01,-7.164621353149414062e-02,-3.477343022823333740e-01,5.258978158235549927e-02,1.779812723398208618e-01,3.305339515209197998e-01,9.425149112939834595e-02,1.429884433746337891e-01,1.475214809179306030e-01,1.045604720711708069e-01,8.052454143762588501e-02,-1.432860791683197021e-01,1.858380436897277832e-02,-8.288954198360443115e-02,-1.762422919273376465e-01,3.710254132747650146e-01,-5.714258924126625061e-02,-7.903978228569030762e-02,-9.819545596837997437e-02,1.133071705698966980e-01,1.407696157693862915e-01,-1.138276904821395874e-01,-1.178545057773590088e-01,-1.896166354417800903e-01,-9.190924465656280518e-02,-5.353889986872673035e-02,-1.086231768131256104e-01,1.015711016952991486e-02,1.905322656966745853e-03,-2.452649474143981934e-01,1.541872788220643997e-02,1.392719149589538574e-01,9.678650647401809692e-02,1.214489266276359558e-01,-7.695247232913970947e-02, -5.527336895465850830e-02,-1.901392638683319092e-01,9.911736100912094116e-02,7.083351165056228638e-02,2.264700382947921753e-01,1.380393560975790024e-02,2.022057026624679565e-01,-1.340044438838958740e-01,6.175642833113670349e-02,-2.526222169399261475e-01,-7.892527617514133453e-03,2.207764890044927597e-03,-1.692377626895904541e-01,4.220011830329895020e-02,5.310220271348953247e-02,-1.997962892055511475e-01,1.118203178048133850e-01,-1.593920886516571045e-01,-2.696636617183685303e-01,-1.805038750171661377e-01,-1.229693144559860229e-01,-1.610205620527267456e-01,-7.941574603319168091e-02,2.422069311141967773e-01,1.093876063823699951e-01,1.549460440874099731e-01,-2.265694923698902130e-02,-1.248186752200126648e-01,-1.877335011959075928e-01,1.826073825359344482e-01,-1.730930656194686890e-01,-7.103468477725982666e-02,-1.278469562530517578e-01,-1.280339807271957397e-01,1.011299639940261841e-01,7.689189165830612183e-02,-1.567408144474029541e-01,9.012641757726669312e-02,-6.883944571018218994e-02,6.173264607787132263e-02,-3.030405044555664062e-01,7.657492905855178833e-02,5.032186210155487061e-02,1.062448844313621521e-01,1.568121761083602905e-01,-2.194488048553466797e-01,-4.854897037148475647e-02,-1.909928470849990845e-01,8.080013096332550049e-02,1.322400867938995361e-01, -4.338150843977928162e-02,5.359399691224098206e-02,-1.501155365258455276e-02,-1.419752649962902069e-02,3.210501074790954590e-01,1.276609599590301514e-01,-3.183686733245849609e-02,7.042989879846572876e-02,-5.071589723229408264e-02,-9.373790770769119263e-02,-4.239528253674507141e-02,-2.246579527854919434e-01,-3.165825009346008301e-01,-1.614529937505722046e-01,-2.567255683243274689e-02,-1.550125926733016968e-01,-2.649087458848953247e-02,6.736897677183151245e-02,-2.863692939281463623e-01,1.064355149865150452e-01,-9.485248476266860962e-02,7.328274846076965332e-02,5.508963018655776978e-03,-3.219247236847877502e-02,-3.233293443918228149e-02,-1.276152301579713821e-02,5.137709900736808777e-02,-3.006543815135955811e-01,-3.399625793099403381e-02,3.191454708576202393e-02,-4.078113138675689697e-01,1.145459339022636414e-01,5.610343441367149353e-02,-6.472328305244445801e-02,3.269867002964019775e-01,1.304875314235687256e-01,-4.684664681553840637e-02,-6.746636703610420227e-03,-1.268665194511413574e-01,1.558049172163009644e-01,7.702777534723281860e-02,1.233498081564903259e-01,-1.263984292745590210e-01,-9.179707616567611694e-02,2.270345985889434814e-01,-8.165116608142852783e-02,-1.124041676521301270e-01,-1.308565139770507812e-01,9.169195778667926788e-03,-1.089283525943756104e-01, 1.322858873754739761e-02,3.575157141312956810e-03,9.841464459896087646e-02,-1.880451105535030365e-02,2.605503499507904053e-01,8.848406374454498291e-02,1.550256162881851196e-01,1.748062372207641602e-01,-3.576328977942466736e-02,1.208919659256935120e-01,1.600824594497680664e-01,-6.103463470935821533e-02,-2.263941466808319092e-01,3.991373255848884583e-02,3.337642550468444824e-02,-2.853252887725830078e-01,-1.613555401563644409e-01,-2.271835803985595703e-01,-1.073577180504798889e-01,-2.447672337293624878e-01,-2.066013216972351074e-01,4.697895422577857971e-02,-1.246772184967994690e-01,1.722606271505355835e-01,-1.680241972208023071e-01,-3.830511495471000671e-02,2.988193333148956299e-01,-2.789486646652221680e-01,-2.328177094459533691e-01,4.283385351300239563e-02,-3.020662665367126465e-01,6.457965821027755737e-02,1.416828483343124390e-01,-5.444042757153511047e-02,1.130084246397018433e-01,1.876375675201416016e-01,-7.779808342456817627e-02,-9.788296371698379517e-02,-9.405656158924102783e-02,7.077039033174514771e-02,2.837377190589904785e-01,7.192243635654449463e-02,-1.719711571931838989e-01,1.050782278180122375e-01,1.033734157681465149e-01,-3.492097556591033936e-02,6.318689882755279541e-02,6.033593788743019104e-02,3.800218552350997925e-02,4.088784381747245789e-02, 1.842661350965499878e-01,-1.659320443868637085e-01,5.221625789999961853e-03,1.985661834478378296e-01,-1.193978190422058105e-01,2.025690078735351562e-01,4.653053358197212219e-02,-9.039364010095596313e-02,2.182681262493133545e-01,5.924214795231819153e-02,5.527926981449127197e-02,-4.920865595340728760e-02,-8.172773569822311401e-02,9.508288651704788208e-02,-1.706249266862869263e-01,-1.834263205528259277e-01,1.429523080587387085e-01,1.348458975553512573e-01,-1.093797013163566589e-01,-2.154578715562820435e-01,-1.994767040014266968e-02,1.583568155765533447e-01,-1.220946758985519409e-01,-3.080136142671108246e-02,8.648806810379028320e-02,-1.556105911731719971e-02,8.014610409736633301e-02,-6.081914529204368591e-02,-3.982174396514892578e-02,1.537243723869323730e-01,2.419025301933288574e-01,-6.167135387659072876e-02,-1.394619941711425781e-01,-2.381579726934432983e-01,2.692262232303619385e-01,1.390262544155120850e-01,-5.956612899899482727e-02,2.753445319831371307e-02,-3.307725116610527039e-02,-1.664799265563488007e-02,-3.707971051335334778e-02,9.732582420110702515e-02,5.508276075124740601e-02,-3.319575265049934387e-02,3.190118074417114258e-01,-3.902547433972358704e-02,1.712991856038570404e-02,-1.774955540895462036e-01,-1.273618638515472412e-01,-1.171777583658695221e-02, -1.025282498449087143e-02,2.334802597761154175e-02,4.387196898460388184e-02,1.045725196599960327e-01,1.266174018383026123e-01,4.699801793321967125e-04,-1.384445577859878540e-01,-1.110374629497528076e-01,1.083016693592071533e-01,-5.942828208208084106e-02,2.295508235692977905e-01,-1.676193624734878540e-01,-1.102514415979385376e-01,-1.871926337480545044e-02,-1.397812813520431519e-01,-3.750504925847053528e-02,9.568057954311370850e-02,-1.732041686773300171e-01,-2.544242739677429199e-01,-1.836371868848800659e-01,1.978297084569931030e-01,-1.600176244974136353e-01,7.033526152372360229e-02,6.328880786895751953e-02,1.825245767831802368e-01,-1.520375311374664307e-01,2.989795990288257599e-02,1.568530648946762085e-01,-2.764687687158584595e-02,1.929019093513488770e-01,-1.713047176599502563e-02,-4.920308664441108704e-02,1.429627090692520142e-01,-6.698452681303024292e-02,7.472950965166091919e-02,-3.214314207434654236e-02,-3.494015894830226898e-03,-1.031079515814781189e-01,-2.338553667068481445e-01,-3.330833837389945984e-02,1.556057184934616089e-01,-1.155432015657424927e-01,3.695607930421829224e-02,1.607116907835006714e-01,1.736172437667846680e-01,-1.623640768229961395e-02,-1.412116289138793945e-01,-5.492931604385375977e-02,8.392700925469398499e-03,1.673392355442047119e-01, 1.753083616495132446e-01,2.871510572731494904e-02,1.468790173530578613e-01,5.764501914381980896e-02,8.421342074871063232e-02,8.473175764083862305e-02,1.374276131391525269e-01,-7.336165010929107666e-02,1.955972611904144287e-01,-3.297707736492156982e-01,-1.602177619934082031e-01,6.453567743301391602e-02,-2.605457901954650879e-01,-6.154670845717191696e-03,1.240492835640907288e-01,-3.463642001152038574e-01,7.244842499494552612e-02,3.483422100543975830e-02,-3.952780738472938538e-02,-9.509222954511642456e-02,1.811663061380386353e-01,-1.941752135753631592e-01,4.300100356340408325e-02,1.549398303031921387e-01,1.265182644128799438e-01,1.736653149127960205e-01,-8.871617168188095093e-02,-1.652968674898147583e-02,-5.764793232083320618e-02,-5.339747294783592224e-02,1.440951079130172729e-01,-1.542498469352722168e-01,1.222398877143859863e-01,-1.878248155117034912e-02,2.525914311408996582e-01,2.013007253408432007e-01,5.384859442710876465e-02,-9.271109104156494141e-02,2.714754082262516022e-02,-6.210478395223617554e-02,-1.609013676643371582e-01,-6.608837097883224487e-02,5.407278612256050110e-02,-2.791056409478187561e-02,7.648536469787359238e-03,-7.439918071031570435e-02,2.419635653495788574e-03,2.329621464014053345e-02,-4.731028340756893158e-03,1.101209297776222229e-01, 1.346692740917205811e-01,1.358702778816223145e-01,1.159333661198616028e-01,1.671134680509567261e-01,2.391344010829925537e-01,3.681810200214385986e-02,-9.822762757539749146e-02,-1.448256075382232666e-01,-3.009073734283447266e-01,-3.586609661579132080e-01,-1.817656457424163818e-01,-2.523356676101684570e-01,-2.371364086866378784e-01,1.382631808519363403e-01,1.026236340403556824e-01,-1.757569164037704468e-01,-1.201842129230499268e-01,-1.074584499001502991e-01,-2.203816920518875122e-01,-7.324435561895370483e-02,-1.555303484201431274e-01,1.806981116533279419e-01,-1.151233389973640442e-01,1.962787955999374390e-01,-4.060259461402893066e-02,-2.286658734083175659e-01,-7.716011255979537964e-02,-1.162481233477592468e-01,-1.786758303642272949e-01,1.499523967504501343e-01,-2.772698402404785156e-01,3.093017823994159698e-02,1.138062030076980591e-01,1.898174583911895752e-01,1.957714557647705078e-02,3.135530650615692139e-01,-2.225322462618350983e-02,-3.044353052973747253e-02,-2.585349082946777344e-01,-1.894518584012985229e-01,1.275942325592041016e-01,-1.755329966545104980e-01,1.780607849359512329e-01,1.401925459504127502e-02,-4.229111596941947937e-02,-1.562068909406661987e-01,-2.276170440018177032e-02,1.045068651437759399e-01,-2.938609942793846130e-02,9.333210438489913940e-02, 1.204305589199066162e-01,-1.228430494666099548e-02,2.414953261613845825e-01,3.153024986386299133e-02,2.970504164695739746e-01,7.321737706661224365e-02,4.042682051658630371e-02,-1.280579119920730591e-01,1.534430384635925293e-01,-3.304215148091316223e-02,7.470651715993881226e-02,-2.223349809646606445e-01,-8.252579718828201294e-02,-1.034971773624420166e-01,-1.035661902278661728e-02,-1.212923228740692139e-01,-2.398610115051269531e-02,-9.016200900077819824e-02,-4.282258450984954834e-02,-2.538037002086639404e-01,-5.567177385091781616e-02,-9.832324087619781494e-02,-1.613657362759113312e-02,3.298663198947906494e-01,2.268193066120147705e-01,-1.773181855678558350e-01,-9.737375378608703613e-02,-6.121601536870002747e-02,-5.805718526244163513e-02,-2.193713188171386719e-01,2.284535169601440430e-01,-2.673863433301448822e-02,1.509907990694046021e-01,-1.901615262031555176e-01,2.544716298580169678e-01,1.651833206415176392e-01,-2.560154795646667480e-01,9.798132628202438354e-02,-2.854032814502716064e-01,8.370409719645977020e-03,1.090709865093231201e-01,9.896962344646453857e-02,-5.095613375306129456e-02,-1.064873933792114258e-01,3.694698512554168701e-01,-3.014426445588469505e-03,-1.703647226095199585e-01,1.434140466153621674e-02,2.378068119287490845e-01,8.243642002344131470e-02, 1.462087780237197876e-02,1.789716184139251709e-01,9.484383463859558105e-02,-1.650367081165313721e-01,2.511509954929351807e-01,1.999717950820922852e-01,-9.254729747772216797e-02,-3.383699059486389160e-02,-7.186348736286163330e-02,6.546134501695632935e-02,1.754849553108215332e-01,3.883570060133934021e-02,-2.028218656778335571e-01,3.254269436001777649e-02,-6.557749956846237183e-02,-4.262538552284240723e-01,8.019256591796875000e-02,-9.286692738533020020e-02,-1.281144171953201294e-01,-9.562888299115002155e-04,4.023915529251098633e-02,6.868037581443786621e-02,-2.534263730049133301e-01,4.285820946097373962e-02,8.152700960636138916e-02,-7.749532908201217651e-02,2.067201882600784302e-01,-1.655355095863342285e-01,-2.898517847061157227e-01,-2.449445128440856934e-01,-8.989749848842620850e-02,1.330220103263854980e-01,3.525273874402046204e-02,-2.296116203069686890e-02,2.307531982660293579e-01,1.518029272556304932e-01,-9.494666010141372681e-02,2.585222013294696808e-02,-2.361989580094814301e-02,9.399366378784179688e-02,-5.986806750297546387e-02,-1.916545629501342773e-01,-3.617698699235916138e-02,-3.961091116070747375e-02,2.925688326358795166e-01,2.844332158565521240e-02,-1.750413924455642700e-01,1.069302707910537720e-01,2.800192683935165405e-02,-4.104080051183700562e-02, -1.552655547857284546e-01,1.202221512794494629e-01,2.088958863168954849e-03,-2.166564762592315674e-01,3.486981093883514404e-01,-9.457064419984817505e-02,4.411464929580688477e-02,-1.204942762851715088e-01,1.044428572058677673e-01,4.846867173910140991e-02,-1.517468839883804321e-01,-2.718340791761875153e-02,3.871043026447296143e-02,-1.045510172843933105e-01,-1.744624823331832886e-01,-1.887188106775283813e-01,-2.289259620010852814e-02,-2.412813901901245117e-02,-1.445780545473098755e-01,-1.979671567678451538e-01,6.397924572229385376e-02,-1.707675904035568237e-01,-1.325220614671707153e-01,2.182591855525970459e-01,-9.058694541454315186e-02,7.266032695770263672e-02,2.267358750104904175e-01,-1.019566953182220459e-01,-1.603545993566513062e-01,-1.356863528490066528e-01,-2.203482240438461304e-01,-2.391925454139709473e-01,1.138321682810783386e-01,-2.259530872106552124e-01,-4.165777936577796936e-03,2.128787785768508911e-01,-7.413885742425918579e-02,-3.756028413772583008e-02,-2.176213078200817108e-02,1.472490280866622925e-01,-1.979778110980987549e-01,6.473919749259948730e-02,4.287106916308403015e-02,1.226124614477157593e-01,1.628128737211227417e-01,-4.566540941596031189e-02,-3.848155960440635681e-02,-1.002943366765975952e-01,1.085440963506698608e-01,-4.823889583349227905e-02, 2.506218850612640381e-02,-1.537559740245342255e-02,-1.520462427288293839e-02,6.933844089508056641e-02,1.172875389456748962e-01,-1.872736215591430664e-02,-5.226099863648414612e-02,1.087876334786415100e-01,-1.540077924728393555e-01,-1.476631313562393188e-01,1.115479022264480591e-01,1.397661715745925903e-01,-2.664831578731536865e-01,1.530427336692810059e-01,-1.325555890798568726e-01,-3.237231448292732239e-02,-2.116713970899581909e-01,-1.604063361883163452e-01,-1.515400409698486328e-01,5.590882524847984314e-02,3.756611607968807220e-03,-2.432832419872283936e-01,-9.667071700096130371e-02,2.111907349899411201e-03,-3.069340251386165619e-02,-5.875276401638984680e-02,1.256586611270904541e-01,-1.981766894459724426e-02,-1.424909941852092743e-02,6.263191998004913330e-02,-3.044871389865875244e-01,-1.403460204601287842e-01,1.573746651411056519e-01,1.502389758825302124e-01,-8.336387574672698975e-02,7.196454703807830811e-02,-4.404586553573608398e-02,-6.392671726644039154e-03,-4.140195250511169434e-02,3.775057196617126465e-02,1.466385722160339355e-01,2.528576180338859558e-02,1.300503015518188477e-01,2.992651611566543579e-02,1.470919232815504074e-02,3.167857602238655090e-02,9.526839852333068848e-02,5.572092160582542419e-02,-3.976717591285705566e-02,-5.435390025377273560e-02, -6.990691274404525757e-02,2.485898733139038086e-01,1.260370463132858276e-01,2.363509982824325562e-01,7.200957089662551880e-02,2.874244377017021179e-02,4.466836899518966675e-02,2.160615324974060059e-01,-2.855689823627471924e-02,-2.399857640266418457e-01,-4.178032651543617249e-02,2.535701915621757507e-02,-1.961471140384674072e-01,-7.118915021419525146e-02,-2.307764887809753418e-01,-1.868362128734588623e-01,-1.876186877489089966e-01,1.264626253396272659e-02,-4.286056384444236755e-02,3.772278502583503723e-02,2.026510238647460938e-02,-3.248376771807670593e-02,7.868821173906326294e-02,2.400877773761749268e-01,2.650893926620483398e-01,-1.832118183374404907e-01,1.029428243637084961e-01,1.361252926290035248e-02,4.275684058666229248e-02,1.408514678478240967e-01,7.366324216127395630e-02,-1.864955425262451172e-01,6.909286975860595703e-02,6.308877468109130859e-02,2.157982817152515054e-04,6.143964454531669617e-02,-2.063154131174087524e-01,-1.260109432041645050e-02,-1.691765785217285156e-01,-1.151942908763885498e-01,1.608121991157531738e-01,1.081638708710670471e-01,-1.374519765377044678e-01,2.368046939373016357e-01,3.297584503889083862e-02,-1.643072217702865601e-01,1.394324004650115967e-01,8.456330746412277222e-02,1.228142604231834412e-01,1.290814131498336792e-01, 3.962570801377296448e-02,8.383835107088088989e-02,-8.559110760688781738e-02,2.301569841802120209e-02,9.853485971689224243e-02,1.810377389192581177e-01,1.801196932792663574e-01,6.125885620713233948e-02,-2.012520730495452881e-01,2.087406627833843231e-02,1.766134984791278839e-02,-3.321361541748046875e-02,2.520113438367843628e-02,1.768017113208770752e-01,-2.947852313518524170e-01,-1.301593780517578125e-01,-1.831934303045272827e-01,3.743587061762809753e-02,3.259145841002464294e-02,-1.916005015373229980e-01,9.205193817615509033e-02,-5.810953304171562195e-02,-1.932617872953414917e-01,2.438024580478668213e-01,1.068624407052993774e-01,-2.502237856388092041e-01,8.807595074176788330e-02,4.493181407451629639e-02,-1.737169921398162842e-01,1.539385914802551270e-01,1.406654864549636841e-01,1.505982726812362671e-01,3.346282290294766426e-03,4.264089465141296387e-02,2.533970773220062256e-01,1.335443258285522461e-01,-6.175599992275238037e-02,-5.745761841535568237e-02,-1.776414811611175537e-01,-3.049207031726837158e-01,2.219462692737579346e-01,-2.036113478243350983e-02,7.274255901575088501e-02,-9.417305886745452881e-02,3.935860395431518555e-01,1.052482426166534424e-01,-3.740510717034339905e-02,3.872248902916908264e-02,-1.766819953918457031e-01,9.683078527450561523e-02, -4.218482226133346558e-02,1.041858345270156860e-01,1.594042479991912842e-01,-2.376314252614974976e-01,1.648334264755249023e-01,1.277998834848403931e-01,1.689354777336120605e-01,2.862547524273395538e-02,5.824089422821998596e-02,-2.710430622100830078e-01,-2.187246233224868774e-01,4.536892101168632507e-02,-1.560494750738143921e-01,1.926398426294326782e-01,-2.775871753692626953e-01,-2.290525473654270172e-02,-7.073358446359634399e-02,1.761664450168609619e-02,1.196354329586029053e-01,-1.122001111507415771e-01,1.801127791404724121e-01,-3.188951686024665833e-02,1.072434261441230774e-01,8.087245374917984009e-02,1.983211636543273926e-01,2.347004860639572144e-01,-2.373289465904235840e-01,5.233789980411529541e-02,2.620612084865570068e-02,-9.194573014974594116e-02,-1.125288382172584534e-02,-1.111251488327980042e-02,-2.704602107405662537e-02,-2.157527953386306763e-01,2.083042711019515991e-01,-9.113337844610214233e-02,-7.817390561103820801e-02,1.754628121852874756e-01,-2.351682335138320923e-01,-1.251765340566635132e-01,-2.558611035346984863e-01,-2.225401699542999268e-01,-6.805302202701568604e-02,-1.252406239509582520e-01,-8.004946261644363403e-02,-7.269468903541564941e-02,-2.544792369008064270e-03,6.497620046138763428e-02,9.701462835073471069e-02,1.196785047650337219e-01, 1.479598730802536011e-01,1.172085385769605637e-02,3.585470467805862427e-02,-1.369396597146987915e-01,1.100670397281646729e-01,7.077177613973617554e-02,2.628182619810104370e-02,3.767120093107223511e-02,-1.898751854896545410e-01,-2.136960774660110474e-01,1.260935142636299133e-02,-1.938548088073730469e-01,-2.492218166589736938e-01,9.189529716968536377e-02,1.493467390537261963e-01,-3.021924495697021484e-01,-1.969704478979110718e-01,-2.388045042753219604e-01,-3.033097460865974426e-02,-8.565659821033477783e-02,5.904399976134300232e-02,-1.120011657476425171e-01,1.297931373119354248e-01,1.318281739950180054e-01,1.076668873429298401e-02,-1.005521118640899658e-01,3.123539686203002930e-02,-1.568098366260528564e-01,-1.361956596374511719e-01,-9.812898188829421997e-02,-6.790209095925092697e-03,1.412123441696166992e-01,1.761834323406219482e-01,7.008140534162521362e-02,1.582023799419403076e-01,2.432551421225070953e-02,1.104488596320152283e-01,-4.914250690490007401e-03,-3.011037111282348633e-01,7.376533746719360352e-02,1.380342990159988403e-01,-4.463524371385574341e-02,-1.732803322374820709e-02,-6.759113073348999023e-02,6.569381058216094971e-02,5.389749631285667419e-02,1.883021146059036255e-01,5.457701906561851501e-02,1.585144102573394775e-01,1.638729572296142578e-01, 6.902724504470825195e-02,-9.243804216384887695e-02,-1.962213069200515747e-01,-5.885997414588928223e-02,2.016854435205459595e-01,3.616377338767051697e-02,-2.658095210790634155e-02,-3.857824578881263733e-02,-2.515908181667327881e-01,-7.957968115806579590e-02,4.503613337874412537e-02,4.262248054146766663e-02,-1.231638342142105103e-01,-3.113242238759994507e-02,-1.166980341076850891e-01,-2.397348731756210327e-01,-2.266926616430282593e-01,-2.632714211940765381e-01,-2.801735997200012207e-01,7.063625752925872803e-02,-6.072070449590682983e-02,-1.266043633222579956e-01,-1.447241604328155518e-01,2.174769788980484009e-01,-8.179673552513122559e-02,-1.281196326017379761e-01,1.323574334383010864e-01,-2.173056304454803467e-01,-7.296202331781387329e-02,-9.540917724370956421e-02,-3.818337917327880859e-01,-6.753271073102951050e-02,1.003437861800193787e-01,1.360324472188949585e-01,1.084246858954429626e-01,7.320234552025794983e-03,-1.102321073412895203e-01,-6.584106385707855225e-02,-1.676324456930160522e-01,-6.201317906379699707e-02,-2.893425291404128075e-03,-1.170686855912208557e-01,-6.131865456700325012e-02,2.060682177543640137e-01,-1.367038935422897339e-01,-1.174379885196685791e-01,1.903201043605804443e-01,-8.619728684425354004e-02,-7.817801833152770996e-02,1.107563897967338562e-01, 1.488514393568038940e-01,-1.966849341988563538e-02,-6.977433711290359497e-02,1.139865890145301819e-01,1.823377609252929688e-01,2.299957722425460815e-01,-3.722092881798744202e-02,1.993520855903625488e-01,-2.918558754026889801e-02,-1.137497723102569580e-01,-2.588747739791870117e-01,8.718135952949523926e-02,-3.276738524436950684e-01,1.894797533750534058e-01,-2.716756053268909454e-02,-1.086813583970069885e-01,7.169108837842941284e-02,-2.592015564441680908e-01,1.347292065620422363e-01,-1.401990186423063278e-02,1.840107329189777374e-02,1.059719771146774292e-01,-1.768862158060073853e-01,1.798955947160720825e-01,-5.835568904876708984e-02,-2.323321849107742310e-01,-1.008249539881944656e-02,2.628110907971858978e-02,-2.579447627067565918e-01,-1.447313278913497925e-01,-1.522007882595062256e-01,1.916616782546043396e-02,8.277598023414611816e-02,-2.219138145446777344e-01,1.609677635133266449e-02,2.656143605709075928e-01,-3.097935616970062256e-01,-8.454792201519012451e-02,-3.272678554058074951e-01,-8.696807175874710083e-02,6.147784367203712463e-02,1.676941066980361938e-01,9.934864938259124756e-02,6.729634106159210205e-02,1.165216341614723206e-01,4.399515315890312195e-02,1.532144546508789062e-01,-1.631704866886138916e-01,1.159704476594924927e-01,-1.830082386732101440e-01, -9.348486363887786865e-02,1.167294234037399292e-01,1.415823101997375488e-01,-9.194701164960861206e-02,1.410193592309951782e-01,-5.132965371012687683e-02,-7.523155212402343750e-02,8.721777796745300293e-02,3.632026538252830505e-02,6.590496748685836792e-02,4.209127649664878845e-02,-5.441129580140113831e-02,-2.040894031524658203e-01,1.527108997106552124e-01,-1.453887075185775757e-01,-6.328702718019485474e-02,1.969403401017189026e-02,-3.447839990258216858e-02,1.266488432884216309e-01,-3.070025146007537842e-01,-6.712759286165237427e-02,-1.704665273427963257e-01,-1.039628982543945312e-01,3.133054673671722412e-01,9.464522451162338257e-02,7.708055526018142700e-02,-2.462189495563507080e-01,-5.492133274674415588e-02,1.014953926205635071e-01,-5.765211209654808044e-02,2.265769243240356445e-01,4.323713108897209167e-02,-1.237602159380912781e-01,-2.570890188217163086e-01,1.279811561107635498e-01,3.260653465986251831e-02,-1.071697026491165161e-01,-2.138355076313018799e-01,-2.269870601594448090e-02,-3.862469643354415894e-02,-8.983970433473587036e-02,-1.244895979762077332e-01,1.109549850225448608e-01,1.276904717087745667e-03,5.106315016746520996e-02,-6.886108219623565674e-02,4.903012886643409729e-02,9.298695623874664307e-02,3.652201592922210693e-02,2.407872080802917480e-01, 3.359503298997879028e-02,6.688155978918075562e-02,-6.534112244844436646e-02,-2.236612141132354736e-01,-1.787485182285308838e-01,2.924691699445247650e-02,-1.329134311527013779e-02,-4.857603460550308228e-02,-1.881562024354934692e-01,-7.739529013633728027e-02,-2.787631750106811523e-02,8.860570937395095825e-02,-9.435826539993286133e-02,1.738773137331008911e-01,-1.631301343441009521e-01,-1.577736437320709229e-01,3.580446541309356689e-02,-1.076835244894027710e-01,-1.248052790760993958e-01,-1.900531537830829620e-02,1.456707119941711426e-01,1.076951101422309875e-01,-4.186895862221717834e-02,2.420171648263931274e-01,1.202489528805017471e-02,-1.716218143701553345e-02,-5.894117429852485657e-02,6.401293724775314331e-02,4.071138426661491394e-02,1.707419455051422119e-01,-1.156214717775583267e-02,1.205689981579780579e-01,1.209672242403030396e-01,4.560007899999618530e-02,3.089326918125152588e-01,2.648418843746185303e-01,-4.242928698658943176e-02,-1.792509555816650391e-01,-1.510259509086608887e-01,7.595328986644744873e-02,1.935673803091049194e-01,3.268356248736381531e-02,6.659097224473953247e-02,-4.962889943271875381e-03,-6.873115897178649902e-02,1.051059216260910034e-01,-7.242105156183242798e-02,-9.851100854575634003e-03,2.047468721866607666e-02,2.915831804275512695e-01, 6.669759005308151245e-02,-1.574183441698551178e-02,6.105871126055717468e-02,-1.922309212386608124e-02,-1.269420832395553589e-01,1.105871573090553284e-01,-1.464348845183849335e-02,1.738955080509185791e-01,3.608286753296852112e-02,-1.872978061437606812e-01,1.650127395987510681e-02,2.179021984338760376e-01,-4.462734609842300415e-02,8.229728788137435913e-02,5.434732884168624878e-02,6.004786491394042969e-02,-9.802170097827911377e-02,-2.953296899795532227e-01,-9.184528142213821411e-02,-1.437822282314300537e-01,-1.392758190631866455e-01,-2.387515902519226074e-01,-1.952676177024841309e-01,-5.173385515809059143e-02,1.286194920539855957e-01,-4.402612149715423584e-02,-1.687413603067398071e-01,-7.920077443122863770e-02,-6.385546177625656128e-02,2.321859747171401978e-01,-1.382993310689926147e-01,-5.871362052857875824e-03,8.704922161996364594e-03,-1.535485982894897461e-01,1.656474918127059937e-01,1.273635774850845337e-01,-4.332707449793815613e-02,1.207631677389144897e-01,-2.411283552646636963e-01,-1.115641146898269653e-01,8.118309825658798218e-02,1.267241239547729492e-01,3.866536915302276611e-02,2.451476007699966431e-01,-6.738921627402305603e-03,-7.155574113130569458e-02,2.234751731157302856e-01,-1.819980889558792114e-02,-1.721103340387344360e-01,1.741467416286468506e-01, 5.863891169428825378e-02,-7.330185174942016602e-02,-1.218161955475807190e-01,6.222946569323539734e-02,-9.002385661005973816e-03,-1.155031174421310425e-01,1.590590476989746094e-01,2.529940009117126465e-01,-1.341864168643951416e-01,-6.677076220512390137e-02,-1.723087877035140991e-01,3.291161730885505676e-02,-4.227697104215621948e-02,2.588306069374084473e-01,-2.356264553964138031e-02,-6.244251504540443420e-02,-1.140324547886848450e-01,-6.962979584932327271e-02,1.544185727834701538e-01,-4.170118644833564758e-02,-4.268621280789375305e-02,-7.632789760828018188e-02,-1.071812510490417480e-01,-2.744725719094276428e-02,1.421924084424972534e-01,-1.534401476383209229e-01,-1.848603636026382446e-01,1.045369580388069153e-01,-1.309863626956939697e-01,1.531705707311630249e-01,-1.459940522909164429e-01,1.912841051816940308e-01,-2.081999778747558594e-01,1.490339338779449463e-01,2.418358325958251953e-01,8.862097561359405518e-02,-2.890873849391937256e-01,-1.464917957782745361e-01,-2.758217751979827881e-01,3.635411709547042847e-02,8.275307714939117432e-03,-3.730446472764015198e-02,5.394469946622848511e-02,2.343752980232238770e-02,-1.355481743812561035e-01,-6.498064845800399780e-02,1.786101609468460083e-01,1.341007351875305176e-01,6.241746991872787476e-02,-1.456555724143981934e-01, -1.033682152628898621e-01,1.138528436422348022e-01,1.818957924842834473e-01,-7.037243247032165527e-02,-1.871993690729141235e-01,-1.188609227538108826e-01,1.511960178613662720e-01,2.482186406850814819e-01,-2.757349312305450439e-01,-6.922454386949539185e-02,1.540934443473815918e-01,-1.121841743588447571e-01,-6.390102207660675049e-02,9.967040270566940308e-02,-2.388373762369155884e-01,-1.774897575378417969e-01,-9.665793180465698242e-02,-6.935568153858184814e-02,2.013919800519943237e-01,3.884248435497283936e-02,-1.062872484326362610e-01,-6.945400685071945190e-02,1.009918451309204102e-01,1.074860990047454834e-01,7.124051451683044434e-02,-1.552501767873764038e-01,-2.586571872234344482e-01,-7.783503085374832153e-02,-1.038958653807640076e-01,1.029036939144134521e-01,-5.637488886713981628e-02,1.635656505823135376e-01,1.586126983165740967e-01,-7.826308906078338623e-02,2.320314049720764160e-01,1.768561750650405884e-01,-2.321497946977615356e-01,-3.165574669837951660e-01,-2.309124171733856201e-01,1.089287176728248596e-01,2.539394795894622803e-01,-8.119779080152511597e-02,2.072561532258987427e-01,-2.009748369455337524e-01,-9.648323059082031250e-02,7.967009395360946655e-02,1.463777124881744385e-01,-6.286177039146423340e-02,-8.477324992418289185e-02,2.863997779786586761e-02, -1.108029484748840332e-01,1.131271347403526306e-01,1.618266403675079346e-01,-1.395750492811203003e-01,-1.484234333038330078e-01,-1.023037508130073547e-01,-2.589474059641361237e-02,-5.627456679940223694e-02,1.431044489145278931e-01,1.590388454496860504e-02,-1.994313001632690430e-01,2.672524936497211456e-02,6.452850997447967529e-02,9.755002707242965698e-02,-8.390652388334274292e-02,-2.993089854717254639e-01,-2.782401740550994873e-01,-2.484643161296844482e-01,2.890421152114868164e-01,-9.060376137495040894e-02,-1.307343691587448120e-01,2.054732665419578552e-02,-1.502538621425628662e-01,1.235642805695533752e-01,4.223477840423583984e-02,-1.569532901048660278e-01,-2.392807751893997192e-01,-2.016440629959106445e-01,-1.498196721076965332e-01,-2.159134149551391602e-01,3.516724333167076111e-02,1.443698704242706299e-01,-1.231044530868530273e-01,-2.329041063785552979e-02,2.572852671146392822e-01,1.242003217339515686e-01,-7.880442589521408081e-02,-2.285872548818588257e-01,-2.450331300497055054e-01,-1.627007871866226196e-01,-3.305132035166025162e-03,1.937457025051116943e-01,1.832004040479660034e-01,-1.646761894226074219e-01,-5.044929310679435730e-02,4.093204811215400696e-02,2.472492456436157227e-01,-2.352729253470897675e-02,-8.539012819528579712e-02,-1.211871504783630371e-01, -1.301216334104537964e-01,-1.406240649521350861e-02,2.300704568624496460e-01,2.506009042263031006e-01,2.855378203094005585e-02,-8.217044919729232788e-02,-1.005531568080186844e-02,-9.653878211975097656e-02,-7.047065347433090210e-02,1.547087281942367554e-01,1.871602833271026611e-01,1.106994822621345520e-01,-5.468345060944557190e-02,5.314317718148231506e-02,1.284389048814773560e-01,1.119221523404121399e-01,-9.022613614797592163e-02,-1.612255275249481201e-01,-2.498666755855083466e-02,-1.858368664979934692e-01,1.637356542050838470e-02,2.466813176870346069e-01,3.014202788472175598e-02,5.447336286306381226e-02,1.646647229790687561e-02,-8.055539429187774658e-02,3.302774727344512939e-01,-1.100919842720031738e-01,2.102160640060901642e-02,-8.481188863515853882e-02,-2.202332466840744019e-01,8.847969025373458862e-02,1.602773070335388184e-01,1.501682549715042114e-01,5.836066603660583496e-02,1.544157713651657104e-01,-1.836096942424774170e-01,-2.020988762378692627e-01,-9.351486712694168091e-02,-1.907482147216796875e-01,2.443524450063705444e-02,6.016765162348747253e-02,2.965601980686187744e-01,1.087214499711990356e-01,1.062119603157043457e-01,3.324748203158378601e-02,1.902273893356323242e-01,-4.377777874469757080e-02,-1.106392815709114075e-01,-4.979970678687095642e-02, 5.176524817943572998e-02,-5.806341394782066345e-02,2.863641977310180664e-01,1.358049362897872925e-02,-4.833922162652015686e-02,2.516367435455322266e-01,-1.443905234336853027e-01,7.764708250761032104e-02,-3.964602947235107422e-02,-7.358895987272262573e-02,1.341617256402969360e-01,1.148310974240303040e-01,-2.153546959161758423e-01,2.088807672262191772e-01,4.041938483715057373e-02,1.853300333023071289e-01,-1.164045408368110657e-01,-1.925806403160095215e-01,1.904446333646774292e-01,2.433239519596099854e-01,1.864932850003242493e-02,2.247537523508071899e-01,-1.710652410984039307e-01,-1.046116426587104797e-01,7.577466219663619995e-02,1.298628896474838257e-01,4.215106368064880371e-02,-5.286708846688270569e-02,2.335015982389450073e-01,-7.502251118421554565e-02,-1.407036334276199341e-01,7.753304392099380493e-02,1.094100102782249451e-01,-5.319534987211227417e-02,9.011804126203060150e-03,2.619225382804870605e-01,4.787973687052726746e-02,-6.253909319639205933e-02,-1.282415837049484253e-01,5.184291675686836243e-02,1.434786468744277954e-01,-5.129691679030656815e-03,3.278981745243072510e-01,-1.286742687225341797e-01,6.492364406585693359e-02,-1.075956150889396667e-01,-2.318361029028892517e-02,2.610621750354766846e-01,-2.319577932357788086e-01,7.077967375516891479e-02, 1.073273345828056335e-01,-1.488582510501146317e-02,1.284640431404113770e-01,2.235746532678604126e-01,3.788128495216369629e-01,1.338565200567245483e-01,-7.495846599340438843e-02,-5.807665735483169556e-02,-1.775373332202434540e-02,-9.352494776248931885e-02,-1.550679504871368408e-01,2.477750629186630249e-01,1.958600133657455444e-01,-1.035180389881134033e-01,-1.085453256964683533e-01,1.308630220592021942e-02,-6.958263926208019257e-03,-4.174568131566047668e-02,1.514867395162582397e-01,-2.026658132672309875e-02,2.225568518042564392e-02,4.048198834061622620e-02,-9.428171813488006592e-02,-1.053723767399787903e-01,-1.827309280633926392e-01,-1.300823539495468140e-01,1.842026710510253906e-01,-2.512785792350769043e-02,1.045797541737556458e-01,-1.546563357114791870e-01,3.515787795186042786e-02,-1.408552527427673340e-01,-6.044382601976394653e-02,-1.227573007345199585e-01,-4.382149875164031982e-02,1.877866499125957489e-02,1.379002034664154053e-01,1.280964910984039307e-01,-1.628372520208358765e-01,-1.354384869337081909e-01,-2.688969373703002930e-01,8.262953907251358032e-02,6.254861596971750259e-03,-1.205549687147140503e-01,-2.006250619888305664e-01,-1.818580180406570435e-01,-2.106995321810245514e-03,-1.548872590065002441e-01,-1.397451758384704590e-01,1.740166246891021729e-01, -6.892449408769607544e-02,8.949577808380126953e-02,-2.711653709411621094e-01,-4.439328610897064209e-02,2.488545924425125122e-01,-5.162367597222328186e-02,1.865333616733551025e-01,-5.730271711945533752e-02,-9.190828353166580200e-02,-2.728165388107299805e-01,8.931456506252288818e-02,1.813893020153045654e-01,1.172986105084419250e-01,-7.651712745428085327e-02,2.063944041728973389e-01,-1.526683866977691650e-01,-1.073998436331748962e-01,9.359982609748840332e-02,8.772762864828109741e-02,2.547420561313629150e-01,5.611210316419601440e-02,-9.016369283199310303e-02,-1.447063237428665161e-01,-1.300342082977294922e-01,-1.937293410301208496e-01,-1.579610258340835571e-01,-1.163735762238502502e-01,2.618100121617317200e-02,-4.393586143851280212e-02,1.634381711483001709e-02,-1.574535518884658813e-01,-3.803677856922149658e-02,7.777883857488632202e-02,-4.172275215387344360e-02,-4.237280692905187607e-03,1.382105350494384766e-01,2.900663912296295166e-01,2.118135392665863037e-01,3.182372450828552246e-02,-1.300931274890899658e-01,4.917430505156517029e-02,-3.000277578830718994e-01,-2.630219981074333191e-02,-6.965813040733337402e-02,1.499811261892318726e-01,1.572341918945312500e-01,-1.031778827309608459e-01,-1.363013386726379395e-01,2.452455274760723114e-02,2.687595486640930176e-01, 1.427243947982788086e-01,1.447772234678268433e-01,8.683650195598602295e-02,2.509357333183288574e-01,2.235634773969650269e-01,-1.012832671403884888e-01,1.407377421855926514e-01,2.281290441751480103e-01,1.365617383271455765e-02,-1.252361983060836792e-01,-7.938739657402038574e-02,-1.672765761613845825e-01,2.378072887659072876e-01,-3.308609127998352051e-01,7.294598221778869629e-02,1.400887519121170044e-01,1.022294908761978149e-01,-5.527543649077415466e-02,9.146889299154281616e-02,-7.700105756521224976e-02,2.747866697609424591e-02,-1.477206200361251831e-01,4.421442374587059021e-02,-2.216862328350543976e-02,-1.310184318572282791e-02,-7.787158247083425522e-03,2.034160643815994263e-01,1.661667227745056152e-01,-2.048758715391159058e-01,-1.189092472195625305e-01,-8.037349581718444824e-02,-2.884582281112670898e-01,3.128248080611228943e-02,6.051709875464439392e-03,9.572388976812362671e-02,1.357777267694473267e-01,1.700849384069442749e-01,-9.078218042850494385e-02,9.974704682826995850e-02,1.861795783042907715e-01,1.872105598449707031e-01,1.356908082962036133e-01,-1.475353986024856567e-01,1.937325596809387207e-01,2.992859110236167908e-02,-1.715327426791191101e-02,-1.148776859045028687e-01,-3.759807348251342773e-01,-8.195734769105911255e-02,2.758285403251647949e-01, -8.472839742898941040e-02,1.803428381681442261e-01,-2.594342231750488281e-01,-2.822014093399047852e-01,9.420412778854370117e-02,1.365581303834915161e-01,2.003332525491714478e-01,2.715094685554504395e-01,3.953629359602928162e-02,2.763638459146022797e-02,-4.239686951041221619e-02,-2.516284584999084473e-02,8.181482553482055664e-02,-9.972622990608215332e-02,5.909103900194168091e-02,-1.859392970800399780e-01,4.709145054221153259e-03,-6.665686517953872681e-02,9.174788743257522583e-02,1.778121106326580048e-02,4.229134321212768555e-02,-3.678655624389648438e-01,2.880151569843292236e-02,2.488933354616165161e-01,-2.935192286968231201e-01,-5.108840391039848328e-02,1.435382068157196045e-01,-9.274339675903320312e-02,3.863425180315971375e-02,1.472164988517761230e-01,-1.000783033668994904e-02,1.271194666624069214e-01,-1.069911662489175797e-02,-1.756412386894226074e-01,1.322451382875442505e-01,2.008588612079620361e-01,-8.951292186975479126e-02,7.249268889427185059e-02,-8.902325481176376343e-02,-5.933461338281631470e-02,-5.756857618689537048e-02,-2.061410546302795410e-01,1.712615787982940674e-01,-1.786623597145080566e-01,2.289560437202453613e-01,-4.090083017945289612e-02,-2.599342763423919678e-01,1.761021614074707031e-01,-4.566847532987594604e-02,2.446712255477905273e-01, -5.418972298502922058e-02,-7.953944057226181030e-02,-2.015079706907272339e-01,2.265862524509429932e-01,-7.835865765810012817e-02,-8.422975987195968628e-02,1.621515452861785889e-01,1.720168292522430420e-01,6.480243057012557983e-02,1.073550581932067871e-01,-5.277221277356147766e-02,9.967901278287172318e-04,-9.018012136220932007e-02,6.825984269380569458e-02,4.343372955918312073e-02,8.789477497339248657e-02,8.013639599084854126e-02,-4.515153355896472931e-03,1.950782090425491333e-01,9.121029824018478394e-02,-2.517407760024070740e-02,1.524998247623443604e-02,-1.804697364568710327e-01,-9.792927652597427368e-03,1.276199966669082642e-01,8.526792749762535095e-03,-1.410801056772470474e-02,-9.602889418601989746e-02,5.124657228589057922e-02,2.201862400397658348e-03,8.672485500574111938e-02,3.967354539781808853e-03,9.844198822975158691e-02,-4.049776867032051086e-02,1.131116896867752075e-01,1.000755280256271362e-01,-2.630400285124778748e-02,-2.329796180129051208e-02,-5.137725267559289932e-03,-6.728420406579971313e-02,3.559635952115058899e-02,1.343209948390722275e-02,1.803083121776580811e-01,1.806005984544754028e-01,1.376543343067169189e-01,1.318449433892965317e-02,7.315996289253234863e-02,1.011579576879739761e-02,1.821215152740478516e-01,-1.301031857728958130e-01, -3.065973520278930664e-02,1.071675792336463928e-01,-1.765559762716293335e-01,2.563127875328063965e-01,-3.986906260251998901e-02,2.577890409156680107e-03,5.111040547490119934e-02,2.895803153514862061e-01,-4.658631980419158936e-02,2.459018230438232422e-01,-1.319603025913238525e-01,-1.680921912193298340e-01,1.675589829683303833e-01,-9.312641620635986328e-02,-2.122084377333521843e-03,1.121875867247581482e-01,-2.140984870493412018e-02,-1.825736016035079956e-01,1.079620495438575745e-01,-2.554542757570743561e-02,-1.337420642375946045e-01,-5.653813015669584274e-03,-1.459407061338424683e-01,6.354496628046035767e-02,-3.455941379070281982e-02,-1.346611678600311279e-01,2.116111814975738525e-01,-5.095406249165534973e-02,9.874259680509567261e-02,1.452781707048416138e-01,1.093575656414031982e-01,-2.140207290649414062e-01,1.128714904189109802e-01,8.497864007949829102e-02,1.898212283849716187e-01,3.562778932973742485e-03,2.153593152761459351e-01,-7.917167991399765015e-02,7.502593100070953369e-03,-1.579526960849761963e-01,-3.098001703619956970e-02,5.157606676220893860e-02,6.406182050704956055e-02,-1.209289208054542542e-01,2.347511947154998779e-01,-5.859198793768882751e-02,2.043322920799255371e-01,7.573720067739486694e-02,3.982072323560714722e-02,7.293678075075149536e-02, -1.481314003467559814e-01,-4.123605787754058838e-02,-1.814277023077011108e-01,8.738065510988235474e-02,1.272226423025131226e-01,-1.614805012941360474e-01,5.559282004833221436e-02,4.421550035476684570e-02,6.049918010830879211e-02,2.607591636478900909e-02,-1.766388863325119019e-01,-3.236315250396728516e-01,3.396573290228843689e-02,-1.743099838495254517e-01,6.521151214838027954e-02,1.976413279771804810e-01,1.126936897635459900e-01,-1.932004690170288086e-01,-4.410348460078239441e-02,1.509396135807037354e-01,6.726191937923431396e-02,-3.782401233911514282e-02,6.150316447019577026e-02,3.846667706966400146e-02,-1.427927613258361816e-01,-2.997533380985260010e-01,1.109142825007438660e-01,-2.531553991138935089e-02,2.404598444700241089e-01,-2.256684154272079468e-01,2.395659452304244041e-03,-6.970169395208358765e-02,2.838884890079498291e-01,8.693987876176834106e-02,1.385584026575088501e-01,-1.066077575087547302e-01,2.205680608749389648e-01,9.440060704946517944e-02,1.573835313320159912e-01,4.426779970526695251e-02,9.953296929597854614e-02,5.780002102255821228e-02,1.438439786434173584e-01,-1.447777003049850464e-01,-1.561639085412025452e-02,-5.210965871810913086e-02,2.586948871612548828e-01,-1.161210536956787109e-01,-6.667684763669967651e-02,-1.719796508550643921e-01, -1.433974653482437134e-01,1.723634749650955200e-01,2.267804229632019997e-03,-9.321492910385131836e-02,3.155085444450378418e-01,-7.399324327707290649e-02,-1.320668160915374756e-01,2.179920971393585205e-01,1.504477709531784058e-01,-1.970411837100982666e-02,9.920958429574966431e-02,1.118813827633857727e-01,1.782950013875961304e-01,-2.128389924764633179e-01,3.844467177987098694e-02,1.249337792396545410e-01,-6.987334787845611572e-02,4.835223406553268433e-02,1.218397766351699829e-01,2.590080797672271729e-01,7.729738950729370117e-02,-7.611673325300216675e-03,1.521518975496292114e-01,2.261460721492767334e-01,-1.405346393585205078e-01,-3.226613104343414307e-01,2.347335033118724823e-02,9.812621772289276123e-02,-4.708934947848320007e-02,2.575196325778961182e-02,6.203933060169219971e-02,-2.017526626586914062e-01,1.336403489112854004e-01,-1.230984628200531006e-01,4.514495655894279480e-02,9.056982398033142090e-02,1.350980252027511597e-01,7.551964372396469116e-02,-1.434804406017065048e-03,-4.217023402452468872e-02,1.139769479632377625e-01,-1.704270951449871063e-02,-1.283985525369644165e-01,1.173235103487968445e-01,9.736456722021102905e-02,2.268393896520137787e-02,-1.966060698032379150e-02,-9.539365023374557495e-02,-4.777608066797256470e-02,9.060772508382797241e-02, 3.473993018269538879e-02,4.734736308455467224e-02,7.314639538526535034e-02,6.698635965585708618e-02,2.548686861991882324e-01,1.952310502529144287e-01,2.309325933456420898e-01,2.034012526273727417e-01,-1.764330863952636719e-01,-7.875398546457290649e-02,-6.355277448892593384e-02,1.146056801080703735e-01,2.390914224088191986e-02,-1.678044795989990234e-01,7.871615141630172729e-02,1.331460922956466675e-01,-5.165039375424385071e-02,-1.413068920373916626e-01,-5.520519241690635681e-02,5.699674785137176514e-02,3.157624509185552597e-03,-6.179319322109222412e-02,1.712178587913513184e-01,1.951656192541122437e-01,9.453994780778884888e-02,-8.540549129247665405e-02,-1.062508523464202881e-01,-1.578236818313598633e-01,7.852110266685485840e-02,-1.004672721028327942e-01,6.201522052288055420e-02,-2.674418389797210693e-01,1.121025979518890381e-01,-7.023648917675018311e-02,-2.752228267490863800e-02,1.686221957206726074e-01,1.263581067323684692e-01,4.915623739361763000e-02,-7.076747715473175049e-02,2.136337608098983765e-01,2.637163735926151276e-02,-1.040647476911544800e-01,-1.098164543509483337e-01,-1.810703277587890625e-01,-4.726427793502807617e-02,-3.124703280627727509e-02,-1.633414626121520996e-01,-1.103207468986511230e-03,-4.556452482938766479e-02,1.298085451126098633e-01, 1.873805969953536987e-01,9.691802412271499634e-02,-2.136272042989730835e-01,3.338929712772369385e-01,4.726869612932205200e-02,-1.914132237434387207e-01,-1.373919993638992310e-01,6.674487888813018799e-02,9.803824871778488159e-02,-1.310547441244125366e-01,-2.963660657405853271e-01,3.344670683145523071e-02,1.658731997013092041e-01,-2.889711856842041016e-01,4.698197543621063232e-02,-6.898757070302963257e-02,-6.623922381550073624e-03,4.969269409775733948e-02,-3.995804861187934875e-02,1.011982262134552002e-01,-1.229973062872886658e-01,-2.472659200429916382e-01,-7.032743841409683228e-02,7.160163670778274536e-02,-1.453859806060791016e-01,-3.825475871562957764e-01,2.446622252464294434e-01,1.000119000673294067e-01,4.021794348955154419e-02,8.618542551994323730e-02,-6.075066700577735901e-02,-1.709623187780380249e-01,3.908906877040863037e-02,-1.630632579326629639e-01,1.038878858089447021e-01,1.379068102687597275e-02,9.176167845726013184e-02,4.103904590010643005e-02,8.808339387178421021e-02,-2.377213984727859497e-01,-3.426282480359077454e-02,8.521770685911178589e-02,-9.591340273618698120e-02,1.317026913166046143e-01,3.797005489468574524e-02,-8.935142308473587036e-02,-6.870593875646591187e-02,-1.766702979803085327e-01,2.941648066043853760e-01,6.121563166379928589e-02, 8.947053551673889160e-02,4.816248640418052673e-02,-2.847617268562316895e-01,-1.891252696514129639e-01,-2.446851320564746857e-02,-4.434860125184059143e-02,-2.189208380877971649e-02,9.798540174961090088e-02,1.720996946096420288e-01,9.812347590923309326e-02,4.231725260615348816e-02,1.537280716001987457e-02,5.391246825456619263e-02,-2.446371614933013916e-01,2.635183036327362061e-01,2.483080625534057617e-01,1.125776395201683044e-01,8.575106412172317505e-02,8.654794655740261078e-03,2.373738139867782593e-01,-1.628038138151168823e-01,3.839117288589477539e-02,6.254778802394866943e-02,-8.835676312446594238e-02,-1.426610946655273438e-01,-4.611366987228393555e-02,-1.320103406906127930e-01,-9.918447583913803101e-02,1.188645139336585999e-01,-1.190628707408905029e-01,-1.235237270593643188e-01,3.974688053131103516e-02,-1.631452590227127075e-01,2.462814599275588989e-01,-2.862627618014812469e-02,6.847369670867919922e-02,1.226624622941017151e-01,1.362688094377517700e-01,2.582031488418579102e-01,1.044606976211071014e-02,-6.235101446509361267e-02,6.875307112932205200e-02,-1.563694328069686890e-02,-5.404477193951606750e-02,6.193509325385093689e-02,-1.817688792943954468e-01,-1.532183438539505005e-01,1.230847910046577454e-01,-3.043868578970432281e-02,2.205951362848281860e-01, -2.056647837162017822e-02,7.146320492029190063e-02,1.071201404556632042e-03,-4.950372129678726196e-02,-1.542094629257917404e-03,3.323690965771675110e-02,-1.234524622559547424e-01,9.339919686317443848e-02,1.786932349205017090e-01,-4.821586981415748596e-02,4.228268563747406006e-02,-2.476752847433090210e-01,-7.873168587684631348e-02,-2.809454202651977539e-01,6.843798607587814331e-02,1.166477724909782410e-01,-3.680384159088134766e-02,-7.303825020790100098e-02,-1.840308904647827148e-01,1.244959756731987000e-01,1.797565668821334839e-01,-2.641757428646087646e-01,-8.325142413377761841e-02,-1.345503628253936768e-01,-1.195844784379005432e-01,-1.589823216199874878e-01,-1.456597298383712769e-01,1.982044428586959839e-02,2.064796090126037598e-01,1.262243688106536865e-01,-6.992901209741830826e-03,-3.244968950748443604e-01,-6.784547865390777588e-02,-1.033600419759750366e-01,5.259877443313598633e-02,1.042934432625770569e-01,2.304264903068542480e-01,8.129577338695526123e-02,-1.043145209550857544e-01,-4.539218917489051819e-02,1.303270012140274048e-01,-9.980867803096771240e-02,1.384721547365188599e-01,-1.014659879729151726e-03,-7.189809344708919525e-03,-9.404464811086654663e-02,-8.310569822788238525e-02,1.008225157856941223e-01,7.572983950376510620e-02,1.692957431077957153e-01, 6.898737698793411255e-02,1.644835025072097778e-01,-5.929080024361610413e-02,8.143321424722671509e-02,-1.857617646455764771e-01,1.487996131181716919e-01,-5.486647784709930420e-02,9.397927671670913696e-02,1.992413699626922607e-01,1.953399628400802612e-01,-3.328660503029823303e-02,9.690108895301818848e-02,1.147485300898551941e-01,-2.913869917392730713e-01,2.713211178779602051e-01,1.798015683889389038e-01,6.187690049409866333e-02,-1.686793267726898193e-01,1.519284099340438843e-01,2.121574617922306061e-02,-7.018842548131942749e-02,-2.963085174560546875e-01,1.600490063428878784e-01,5.237431451678276062e-02,2.631495520472526550e-02,7.306728512048721313e-03,-2.661925740540027618e-02,-3.604324907064437866e-02,1.115397363901138306e-01,-4.882177338004112244e-02,1.016327738761901855e-01,-4.491156041622161865e-01,-1.497405171394348145e-01,3.460118547081947327e-02,-3.374038264155387878e-02,1.930213272571563721e-01,-1.701865196228027344e-01,7.448419183492660522e-02,1.398728638887405396e-01,8.554628118872642517e-03,-1.952796727418899536e-01,1.046641245484352112e-01,-1.577157378196716309e-01,1.414761692285537720e-02,-2.318178117275238037e-01,-2.241644561290740967e-01,-8.683094754815101624e-03,-2.024865448474884033e-01,-1.191622540354728699e-01,1.393142435699701309e-02, 2.065707445144653320e-01,-3.590164780616760254e-01,-1.515438854694366455e-01,1.559294313192367554e-01,1.763704605400562286e-02,9.563460946083068848e-02,1.672656089067459106e-01,6.057652086019515991e-02,-1.217613145709037781e-01,2.386413216590881348e-01,-4.781439527869224548e-02,-1.949442625045776367e-01,1.289478223770856857e-02,-1.656868904829025269e-01,4.894320294260978699e-02,-9.912727028131484985e-02,6.843367964029312134e-02,2.295177429914474487e-01,-2.296468988060951233e-02,-3.286925330758094788e-02,-5.127375014126300812e-03,-2.045199573040008545e-01,-1.548492014408111572e-01,2.001211605966091156e-02,-1.763753294944763184e-01,-2.167380899190902710e-01,5.749950930476188660e-02,-1.518337875604629517e-01,-2.960363961756229401e-02,-1.096143424510955811e-01,9.245778620243072510e-02,-3.102975785732269287e-01,1.208318918943405151e-01,1.419766843318939209e-01,-4.524385184049606323e-02,-1.255566179752349854e-01,-2.784789539873600006e-02,-6.247055903077125549e-02,2.180455476045608521e-01,-2.537987232208251953e-01,-7.740031927824020386e-02,2.569058239459991455e-01,-5.091771483421325684e-02,-1.077532470226287842e-01,2.574959695339202881e-01,3.149536624550819397e-02,6.105509400367736816e-02,-1.527404636144638062e-01,2.279382646083831787e-01,-7.418494671583175659e-02, 1.614730507135391235e-01,1.653910577297210693e-01,-7.447317242622375488e-02,2.150107771158218384e-01,2.990773916244506836e-01,-2.702870666980743408e-01,2.276135794818401337e-02,9.226839244365692139e-02,-1.528473049402236938e-01,-1.467176675796508789e-01,-2.177762612700462341e-02,-1.419523805379867554e-01,2.260303497314453125e-01,-1.239063441753387451e-01,-1.546280384063720703e-01,1.056612506508827209e-01,-7.060912996530532837e-02,-1.209640800952911377e-01,-6.423681974411010742e-03,1.764398515224456787e-01,1.386584490537643433e-01,-3.071664273738861084e-01,-6.061758473515510559e-02,8.134706318378448486e-02,5.004963651299476624e-02,7.932975888252258301e-02,-9.533893316984176636e-02,1.103258132934570312e-01,1.112252622842788696e-01,-1.018177717924118042e-02,4.817335680127143860e-02,-1.360975205898284912e-01,-1.403547376394271851e-01,-1.607084125280380249e-01,-1.468786746263504028e-01,-6.495253741741180420e-02,1.030241101980209351e-01,6.082235649228096008e-02,4.020156711339950562e-02,-9.994800388813018799e-02,-5.431487038731575012e-02,1.365372687578201294e-01,-4.331415519118309021e-02,2.055943906307220459e-01,-6.277935951948165894e-02,-1.440817713737487793e-01,1.837191581726074219e-01,-2.084090858697891235e-01,-2.237089909613132477e-02,2.314582765102386475e-01, -1.402550935745239258e-02,8.045449107885360718e-02,-8.229742199182510376e-02,-2.435038983821868896e-01,5.325480177998542786e-02,-1.292293816804885864e-01,8.729691058397293091e-02,7.601288706064224243e-02,1.471515186131000519e-02,-3.384513780474662781e-02,1.561184674501419067e-01,-2.660348825156688690e-02,-7.119254767894744873e-02,2.654250524938106537e-02,9.386219084262847900e-02,3.309410065412521362e-02,-5.633649602532386780e-02,6.886961311101913452e-02,-4.456343501806259155e-02,4.510881751775741577e-02,-1.732095628976821899e-01,-1.644392013549804688e-01,6.971793621778488159e-02,-1.056756824254989624e-01,-3.621554374694824219e-02,-1.500477362424135208e-02,1.120521947741508484e-01,5.012708529829978943e-02,-1.925308257341384888e-02,-8.458599448204040527e-02,4.374001640826463699e-03,-5.548398196697235107e-02,-2.110031843185424805e-01,7.598957419395446777e-02,2.597754597663879395e-01,3.539234697818756104e-01,6.365766376256942749e-02,2.432846836745738983e-02,2.287256568670272827e-01,2.205906622111797333e-02,-2.633593082427978516e-01,-2.045443505048751831e-01,1.023777052760124207e-01,-1.117489859461784363e-01,-3.024064376950263977e-02,4.439939185976982117e-02,-1.485554277896881104e-01,1.013347040861845016e-02,-3.002931177616119385e-01,2.911214828491210938e-01, 2.290352806448936462e-02,-1.920838952064514160e-01,-1.195686310529708862e-01,1.058109626173973083e-01,1.454456895589828491e-01,4.454353824257850647e-02,-1.609281003475189209e-01,1.971345581114292145e-02,-8.283864706754684448e-02,2.243216186761856079e-01,-9.006983786821365356e-02,-1.785743087530136108e-01,1.585230827331542969e-01,-2.204626351594924927e-01,2.079871594905853271e-01,3.524388745427131653e-02,5.462659522891044617e-02,-8.424342423677444458e-02,-2.258192375302314758e-02,-9.809260070323944092e-02,3.196226060390472412e-02,2.953851968050003052e-02,-1.039341464638710022e-01,-1.081857457756996155e-01,-1.681710220873355865e-02,-1.238824948668479919e-01,-4.925001040101051331e-02,-1.880548521876335144e-02,1.467713713645935059e-01,-7.277449220418930054e-02,7.801178842782974243e-02,-2.359414007514715195e-03,1.583134084939956665e-01,1.832931637763977051e-01,7.632938772439956665e-02,2.117542177438735962e-01,1.938683241605758667e-01,5.632269382476806641e-02,1.509647630155086517e-02,-5.731845274567604065e-02,8.263847231864929199e-02,1.482660472393035889e-01,-3.007100224494934082e-01,6.567856669425964355e-02,1.251956373453140259e-01,-1.162659525871276855e-01,-5.254969000816345215e-02,-1.724998652935028076e-02,-1.430788636207580566e-01,3.762453794479370117e-02, -2.629872784018516541e-02,1.914484947919845581e-01,5.120614543557167053e-02,-1.176945492625236511e-01,6.312107294797897339e-02,-5.570116639137268066e-02,-1.475553065538406372e-01,2.386941909790039062e-01,-3.041763603687286377e-02,-3.358349949121475220e-02,3.898148238658905029e-02,2.447996139526367188e-01,3.666096031665802002e-01,4.369448497891426086e-02,-1.205944418907165527e-01,9.602272510528564453e-02,-1.244121417403221130e-01,2.448749989271163940e-01,9.433485567569732666e-02,2.343055754899978638e-01,7.840859889984130859e-02,-7.954849302768707275e-02,-1.126282066106796265e-01,-1.403986215591430664e-01,1.460159122943878174e-01,2.352510243654251099e-01,-6.700579822063446045e-02,-3.117660284042358398e-01,-8.356804959475994110e-03,1.672992408275604248e-01,1.443405151367187500e-01,2.696706354618072510e-01,-5.565264448523521423e-02,-1.865262985229492188e-01,-9.567794948816299438e-02,2.980353683233261108e-02,1.928898543119430542e-01,-1.043484508991241455e-01,1.279029548168182373e-01,1.859001070261001587e-01,-2.375118583440780640e-01,2.309888601303100586e-01,-1.341764926910400391e-01,-2.105314582586288452e-01,-6.212596222758293152e-02,-1.592455655336380005e-01,-1.797325015068054199e-01,2.754960060119628906e-01,2.304315380752086639e-02,2.616500295698642731e-02, -4.847947508096694946e-03,8.618369698524475098e-02,-1.517119910567998886e-02,-2.592883706092834473e-01,-1.659126132726669312e-01,1.282873600721359253e-01,-1.496243476867675781e-01,-1.716573089361190796e-01,-1.072765588760375977e-01,-1.584623754024505615e-02,7.886733859777450562e-02,-3.015984296798706055e-01,2.698084414005279541e-01,-6.759715825319290161e-02,1.283199936151504517e-01,1.429410576820373535e-01,1.359101533889770508e-01,2.693757414817810059e-02,-2.726652920246124268e-01,1.392037421464920044e-01,2.464253455400466919e-01,2.163320481777191162e-01,1.568001955747604370e-01,-2.318878322839736938e-01,-1.524574309587478638e-01,-3.553436324000358582e-02,9.982784092426300049e-02,1.635316610336303711e-01,2.150094211101531982e-01,-5.001582577824592590e-02,9.238807857036590576e-02,-1.264264732599258423e-01,-7.572306692600250244e-02,2.032866179943084717e-01,1.737770996987819672e-02,-1.484372019767761230e-01,2.488545626401901245e-01,-7.143642753362655640e-02,-3.680080547928810120e-02,7.105090469121932983e-02,-1.101114898920059204e-01,2.532118856906890869e-01,7.546929270029067993e-02,-9.016528725624084473e-02,1.227180510759353638e-01,9.703637659549713135e-02,-7.795876264572143555e-02,6.568488478660583496e-02,-8.390349149703979492e-02,-5.553287640213966370e-02, -2.481413185596466064e-01,1.575407832860946655e-01,-1.737883538007736206e-01,-2.613573372364044189e-01,1.651072800159454346e-01,2.552106231451034546e-02,-2.343166619539260864e-01,-8.680960536003112793e-02,-1.311683952808380127e-01,1.812046766281127930e-01,-1.814494580030441284e-01,-1.903624087572097778e-01,1.132153347134590149e-01,-6.466248631477355957e-02,6.183011084794998169e-02,1.961641758680343628e-01,1.745382994413375854e-01,-2.953664958477020264e-01,2.747555729001760483e-03,2.038748003542423248e-02,1.801792085170745850e-01,-2.879677712917327881e-02,1.454105675220489502e-01,7.414367049932479858e-02,-1.943721771240234375e-01,1.358095556497573853e-01,2.438330054283142090e-01,2.026805654168128967e-02,1.521162837743759155e-01,1.129769459366798401e-01,-1.665447652339935303e-01,-2.014072611927986145e-02,-8.599772304296493530e-02,2.710919380187988281e-01,7.805151492357254028e-02,-1.401578187942504883e-01,8.962222933769226074e-02,-1.869539171457290649e-01,-1.659185290336608887e-01,3.592372313141822815e-02,8.175351656973361969e-03,-3.720109164714813232e-02,-1.033584773540496826e-01,4.212613403797149658e-02,-3.574476391077041626e-02,4.733495041728019714e-02,-5.992725864052772522e-02,-6.894712150096893311e-02,-9.574068337678909302e-02,-8.513924479484558105e-02, 1.083233058452606201e-01,2.311306260526180267e-02,-1.986747682094573975e-01,-2.037791609764099121e-01,7.182274758815765381e-02,6.967027485370635986e-02,2.527671866118907928e-02,-1.165126338601112366e-01,5.710534006357192993e-02,1.139279827475547791e-01,2.691281028091907501e-02,1.602513641119003296e-01,1.374272257089614868e-01,-2.448919117450714111e-01,8.323118835687637329e-02,-1.199167445302009583e-01,7.374818623065948486e-02,-9.918645769357681274e-02,-1.037108302116394043e-01,-1.293098330497741699e-01,9.537994116544723511e-02,1.509441137313842773e-01,7.415232062339782715e-02,7.188200950622558594e-02,-1.613482087850570679e-02,6.497947871685028076e-02,2.827933430671691895e-01,5.308518651872873306e-03,7.462178170680999756e-02,-2.869417704641819000e-02,-2.634903192520141602e-01,-8.874693885445594788e-03,-1.592138111591339111e-01,6.630834192037582397e-02,2.104846388101577759e-01,3.012855164706707001e-02,4.940126463770866394e-02,-2.217317223548889160e-01,-1.013796925544738770e-01,2.696567773818969727e-02,-5.961731448769569397e-02,-3.581781685352325439e-02,-1.747377961874008179e-02,-8.033043146133422852e-02,-1.956163672730326653e-03,7.883048057556152344e-02,-1.190081164240837097e-01,-6.401644553989171982e-03,8.488444238901138306e-02,-2.048677504062652588e-01, 2.068651318550109863e-01,-1.878672987222671509e-01,7.865162938833236694e-02,3.685618937015533447e-02,1.808697134256362915e-01,-2.321085520088672638e-02,1.320610046386718750e-01,-1.867084763944149017e-02,-3.137854114174842834e-02,9.368807822465896606e-02,-1.386545598506927490e-02,-4.728377680294215679e-04,1.151852309703826904e-01,-1.070512533187866211e-01,-3.096716478466987610e-02,1.726615801453590393e-02,-3.144574537873268127e-02,9.604761749505996704e-02,-1.221809014678001404e-01,1.457554404623806477e-03,-2.699026167392730713e-01,-1.622010469436645508e-01,-4.856437444686889648e-02,9.987586736679077148e-02,-6.377909332513809204e-02,1.707380637526512146e-02,9.478491544723510742e-02,6.945078074932098389e-02,-1.488679926842451096e-02,-5.770979449152946472e-02,-1.473108977079391479e-01,7.837747037410736084e-02,-1.405037641525268555e-01,3.063850663602352142e-02,2.632825970649719238e-01,-1.379622370004653931e-01,2.142877429723739624e-01,-1.277926713228225708e-01,-6.593350321054458618e-02,1.429492384195327759e-01,-9.577088803052902222e-02,-2.126840502023696899e-01,-3.782110810279846191e-01,7.096846401691436768e-02,-4.750131815671920776e-02,5.796703323721885681e-02,1.126805171370506287e-01,9.239631146192550659e-02,-7.578062266111373901e-02,-1.134575828909873962e-01, -1.009687110781669617e-01,1.003168225288391113e-01,4.479356110095977783e-02,-1.483487933874130249e-01,2.087718397378921509e-01,1.012795269489288330e-01,-7.907931506633758545e-02,7.076577842235565186e-02,4.837619513273239136e-02,-1.594409532845020294e-02,1.231302693486213684e-01,1.166871264576911926e-01,-1.268825829029083252e-01,-1.418486684560775757e-01,-2.063383162021636963e-01,1.524654030799865723e-02,-7.821294665336608887e-02,-4.451506584882736206e-02,-1.821269094944000244e-02,-1.067345589399337769e-01,-1.331777274608612061e-01,1.309550106525421143e-01,5.899829044938087463e-02,-2.876753360033035278e-02,1.264904439449310303e-01,-1.224633753299713135e-01,2.565690875053405762e-01,-1.474778503179550171e-01,-1.308900564908981323e-01,5.911332368850708008e-02,3.325180336833000183e-02,-5.442971363663673401e-02,1.849759966135025024e-01,3.360792994499206543e-01,2.658370323479175568e-02,-3.763123415410518646e-03,-1.797265186905860901e-02,-1.178908497095108032e-01,-1.067266389727592468e-01,-8.397106081247329712e-02,-5.763265490531921387e-02,-1.768690049648284912e-01,-2.727615237236022949e-01,1.631989181041717529e-01,-1.719268411397933960e-01,-1.080632358789443970e-01,-1.242568790912628174e-01,6.532248854637145996e-02,3.878423199057579041e-02,4.152829200029373169e-02, 1.544219255447387695e-01,1.730366945266723633e-01,-8.645273000001907349e-02,-7.618513703346252441e-02,-6.034050509333610535e-02,1.954669356346130371e-01,-1.453529596328735352e-01,-1.554446518421173096e-01,-1.247135270386934280e-02,-7.668441534042358398e-02,1.350808739662170410e-01,6.286528706550598145e-02,-8.314774930477142334e-02,8.691195398569107056e-02,-1.436461657285690308e-01,-1.043454557657241821e-01,-1.084351465106010437e-01,1.426648534834384918e-02,-1.315144151449203491e-01,-2.887265384197235107e-02,1.169971469789743423e-02,-1.309971213340759277e-01,9.036639332771301270e-02,-7.092051208019256592e-02,1.947150565683841705e-02,-5.777538567781448364e-02,-1.317289918661117554e-01,1.776806265115737915e-01,1.153894811868667603e-01,-1.513759493827819824e-01,2.847560644149780273e-01,-3.053048066794872284e-02,1.930646747350692749e-01,2.179656028747558594e-01,1.260483413934707642e-01,-1.830621957778930664e-01,-1.314099431037902832e-01,-2.023476511240005493e-01,6.634802371263504028e-02,-1.670405417680740356e-01,7.236595451831817627e-02,-2.092638015747070312e-01,3.830134123563766479e-02,-1.425648201256990433e-02,-7.144919037818908691e-02,8.152553439140319824e-02,-2.304750382900238037e-01,6.967043131589889526e-02,1.225938741117715836e-02,2.496399879455566406e-01, -4.916805028915405273e-02,3.418329730629920959e-02,1.730486601591110229e-01,-3.341039121150970459e-01,-2.245220988988876343e-01,2.073513269424438477e-01,-2.134753763675689697e-01,-2.561914175748825073e-02,6.031788513064384460e-02,-8.756157010793685913e-02,6.700827926397323608e-02,-1.159138754010200500e-01,3.123190253973007202e-02,-1.666864007711410522e-01,3.376127779483795166e-02,-3.861444129142910242e-04,2.002084627747535706e-02,-2.256927043199539185e-01,-5.065508931875228882e-02,1.395942717790603638e-01,2.056982368230819702e-01,4.120057914406061172e-03,2.124248258769512177e-02,-1.834077388048171997e-01,1.148331910371780396e-01,3.536117449402809143e-02,-6.441311538219451904e-02,2.964054420590400696e-02,1.648925542831420898e-01,-9.585077874362468719e-03,3.590856194496154785e-01,-2.078245207667350769e-02,6.638062000274658203e-02,-7.962703704833984375e-02,1.697196215391159058e-01,1.716000493615865707e-03,1.325327754020690918e-01,2.039498984813690186e-01,5.120888352394104004e-02,2.246856689453125000e-02,-1.461746245622634888e-01,-3.568911552429199219e-01,5.940355360507965088e-03,-5.981868132948875427e-02,3.894478827714920044e-02,2.167347818613052368e-01,2.359288744628429413e-02,1.326043456792831421e-01,1.587034165859222412e-01,1.221866682171821594e-01, -1.096946001052856445e-01,-5.351264029741287231e-02,1.329737752676010132e-01,-1.893446296453475952e-01,2.818056941032409668e-02,-1.020776256918907166e-01,-1.487327367067337036e-01,-2.507965639233589172e-02,-1.136684268712997437e-01,-1.908795237541198730e-01,-3.913340158760547638e-03,-9.130761027336120605e-02,-2.038634568452835083e-01,-1.364381164312362671e-01,8.943097293376922607e-02,1.665735095739364624e-01,1.396794915199279785e-01,-2.515809535980224609e-01,-5.822317302227020264e-02,2.462732046842575073e-01,3.212804719805717468e-02,1.033534035086631775e-01,8.682002313435077667e-03,1.478937864303588867e-01,2.087706178426742554e-01,3.196366876363754272e-02,2.385471016168594360e-02,4.428367316722869873e-02,-7.682135794311761856e-03,-1.917570456862449646e-02,-1.153682321310043335e-01,-1.202856302261352539e-01,-3.879016265273094177e-02,1.770398765802383423e-01,6.981111317873001099e-02,4.173148050904273987e-02,1.879237741231918335e-01,-9.961341321468353271e-02,-1.941073983907699585e-01,4.297411441802978516e-02,-1.377320736646652222e-01,-3.386007547378540039e-01,-1.883035749197006226e-01,1.087041720747947693e-01,9.066816419363021851e-03,3.830019012093544006e-02,5.000319331884384155e-02,5.656647682189941406e-02,8.732003718614578247e-02,-1.842818111181259155e-01, 1.047168895602226257e-01,-1.147152390331029892e-02,-1.394002586603164673e-01,-1.150082871317863464e-01,-8.741723746061325073e-02,6.274822354316711426e-02,-2.991053275763988495e-03,4.035081714391708374e-02,-1.228376198559999466e-02,-1.271723583340644836e-02,-8.058719336986541748e-02,