//GRU Cell dimensions
static const int input_dim = 6;
static const int hidden_dim = 8;

static float outWBMat[] = {0.03716026, -0.31178397,  0.32444102,  1.2517987 ,  0.5897583 ,  1.5769261 ,  1.644101  , -0.8105084 , -0.76980174,  0.30195284,  0.5061954 ,  0.6655076 , -0.18839487, -0.5999128 , -0.0659535 , -0.6134825 , -0.529784  ,  0.20127796, -0.7531504 , -0.71345997, -0.23721473, -0.20024194,  1.1769264 , -1.9027199 , -1.5532489 ,  0.37660474, -0.19642858,  0.8015059 , -0.14868395,  1.0582682 ,  1.3655193 , -1.5441046 ,  0.36565617, -1.0034677 , -0.97870505, -0.18091339, -0.51628524, -0.23142824, -0.7094089 , -1.8301234 };
static int outWBMAT_x = 8;
static int outWBMAT_y = 5;
static float outWBBias[] = {-0.42325497,-0.43817016 ,-0.7507069 , -0.9799383,  -0.7515556 };
static int outWBias_y = 5;

static float gruKernelMat[]={ 9.85897332e-02,2.61312962e-01,2.51330495e-01,2.72897691e-01,  -2.28177860e-01, -9.48318169e-02, -1.64451376e-01, -2.56353348e-01, 5.92115402e-01,  4.50756639e-01,  4.57207620e-01, -4.25115794e-01  , 7.71902323e-01, 3.71020511e-02, -2.40402102e-01, -3.63789707e-01 , 1.79159537e-01, -3.17428797e-01, 2.37948880e-01, -1.16966255e-01 , -1.41184047e-01,  2.25998893e-01, -3.77401799e-01, -4.77571525e-02 ,  6.84512705e-02,  3.27673078e-01,  4.43277597e-01, -3.40498388e-01 ,  4.41501766e-01,1.84385747e-01, 3.67546111e-01, -1.73149630e-01 -2.02691853e-01, 1.43167630e-01, -1.66694090e-01, -2.40736321e-01 , -3.34599316e-01, -2.58375853e-01, -3.80827695e-01, -2.17242658e-01 , 7.17525929e-02, 2.52342403e-01, 5.58417141e-01, 1.56388059e-01 , 7.60292485e-02, 1.04579723e+00, 7.43925214e-01, -2.90244166e-02 , 4.26392138e-01, -4.77722138e-01, -1.64433077e-01, -4.84990448e-01 , 3.54867995e-01, -7.14947581e-02, -1.38508424e-01, -1.58562332e-01 , 6.10426247e-01, 3.40396971e-01, 5.76018214e-01, -3.64343107e-01 , 3.44130009e-01, 1.81571215e-01, 2.86063492e-01, -4.19228971e-01 , 4.69601341e-02, -2.43052974e-01, -4.77029353e-01, -2.81857520e-01 , -2.89093226e-01, -2.80151337e-01, 1.28894061e-01, -2.79593319e-01 , 1.50332535e-02, -3.02366972e-01, 2.31022406e-02, 2.53189385e-01 , 3.36998373e-01, 2.91519221e-02, -2.75753677e-01, -4.23902214e-01 , 1.08791925e-01, -4.82204467e-01, -3.28161895e-01, 4.91946982e-03 , -1.90332308e-01, -1.66134194e-01, 1.08039483e-01, 2.39371851e-01 , 1.40202016e-01, -3.41005996e-02, -2.12087363e-01, -3.42322469e-01 , -1.76710576e-01, 4.81734723e-01, -1.27597928e-01, 2.19766155e-01 , 1.84880972e-01, -1.85969993e-01, -4.83123839e-01, -2.52090752e-01 , -1.04119934e-01, -8.81378353e-03, 1.05991885e-01, -1.23098873e-01 , 2.27661237e-01, -2.92393923e-01, -2.70336941e-02, -4.67694849e-01 , -8.67820606e-02, 1.35551065e-01, 5.37879229e-01, -3.97908449e-01 -5.03368020e-01, -9.98040661e-02, -6.83923066e-01, 1.81903616e-01 , 3.99203777e-01, 1.65559053e-01, 1.17823526e-01, -7.43627101e-02 , 2.34570339e-01, 2.32297093e-01, -5.37386872e-02, 6.79437304e-04 , -4.39181000e-01, 1.06422789e-02, -3.55542123e-01, 3.06651622e-01 -2.71720946e-01, 2.17017204e-01, -1.68205872e-01, -4.08011794e-01 , -1.05788194e-01, 2.71780431e-01, -2.62078136e-01, -7.01362193e-02 , 9.60840285e-01, 2.00341925e-01, 3.55071694e-01, 6.58944026e-02 , 3.96463960e-01, 2.08631530e-01, 5.75025380e-01, -3.90411466e-01 -6.77603409e-02, -2.39044622e-01, 1.98285848e-01, -1.81960925e-01 , -4.51809734e-01, 4.84558083e-02, 5.30765831e-01, 3.05914611e-01 , -1.31113738e-01, -4.94240820e-01, 7.06782266e-02, 9.13407374e-03 , -4.03893739e-02, -2.54085898e-01, 2.84263015e-01, 4.28411335e-01 , 1.38893798e-01, 5.69310069e-01, 2.21835658e-01, 2.63700426e-01 , -1.77632928e-01, 1.78903311e-01, 4.52363372e-01, 4.10748810e-01 , -5.62923729e-01, 9.46361348e-02, -4.37356196e-02, 1.12669051e-01 , -5.50149560e-01, -1.47174522e-01, 1.06767058e-01, 2.07190186e-01 -3.49578768e-01, 2.08974779e-01, -4.21614259e-01, -4.59914267e-01 , -3.35917622e-01, -1.24169059e-01, 1.01581970e-02, 1.84654132e-01 , 4.02214646e-01, 6.62433088e-01, 6.50180995e-01, -4.74099249e-01 , 5.51733196e-01, -9.13711488e-02, 3.70670184e-02, -2.85061002e-02 , 1.30022898e-01, -5.14823757e-02, -2.35951886e-01, -1.25336275e-01 , -2.60775268e-01, 3.34960759e-01, -3.82616669e-01, -2.58132845e-01 , 6.53574586e-01, 3.98328274e-01, 1.44896671e-01, 1.06427357e-01 , 1.81634128e-02, 3.02562952e-01, -2.67225683e-01, 1.15171142e-01 , 2.89441288e-01, 2.32429743e-01, 1.05226509e-01, -3.42532486e-01 , -2.44363517e-01, -1.68388695e-01, -1.44361585e-01, 1.23437867e-01 , 5.42834342e-01, -6.13417402e-02, -9.56264064e-02, 5.14019251e-01 , 3.93186659e-01, 2.72920609e-01, 5.47329605e-01, 3.88092816e-01};
static int gruKernelMat_x = 14;
static int gruKernelMat_y = 16;
static float gruKernelBias[]={1.0068741,0.8322888,0.8619568,0.8689994,0.9529235,1.1207235,0.90987456,0.97302294,1.6548175,1.4514406,1.2552364, 0.745793,1.2515812,1.1353223,1.1466184,0.83321893};
static int gruKernelBias_y = 16;

static float gruCandidateMat[]={-0.4727568, - 0.14759131, 0.09677356, - 0.3240411, 0.33190238, - 0.13014545,- 0.0261496, 0.19177343,-0.06500764, - 0.20490532, 0.05269117, 0.38535812, - 0.1657997, 0.6061833,0.24718945, - 0.04228074,0.33037803, 0.13664095, 0.32433996, 0.07749252, 0.13465221, - 0.1339721,- 0.24726382, - 0.30595067,0.3993763, - 0.13472152, 0.45795953, - 0.03542509, 0.3604714, 0.1994634,0.18549837, 0.5471846,0.12314722, 0.41328263, - 0.24302448, 0.0844223, - 0.39985418, 0.40748066,0.16209073, - 0.2294778,0.09745617, 0.14744829, 0.4689258, - 0.51668364, - 0.22565441, - 0.2374276,0.39713645, - 0.02871975,0.02569736, 0.2488839, 0.45405322, 0.03968836, - 0.35164264, - 0.13093786,0.33782253, - 0.23594844,0.09108771, - 0.1174404, 0.28447822, 0.36800075, - 0.03416241, 0.21411197,- 0.08764837, 0.17920376,0.16233295, 0.05188627, 0.02826467, 0.43122745, - 0.327509  ,  0.17352758,- 0.16142505, 0.50790566,-0.4240696, 0.274837, - 0.21189627, - 0.37612712, 0.24306422, - 0.16296472,0.10599799, - 0.25930783,0.03943204, 0.37792534, - 0.4943615, - 0.305996, - 0.40265733, 0.03192021,- 0.48150706, 0.08102252,0.0026797, 0.40891486, - 0.03853189, - 0.0407381, - 0.11647231, - 0.5584604,0.4124279, 0.07439288,0.35589236, - 0.12002409, 0.51665926, - 0.23256654, - 0.21181305, 0.2810975,0.40821198, - 0.39921296,0.04002211, 0.15828973, 0.3075834, - 0.36532697, - 0.36089543, 0.48957494,0.17700599, - 0.37892014};
static int gruCandidateMat_x = 14;
static int gruCandidateMat_y = 8;
static float gruCandidateBias[]={-0.03251847,0.0882963,0.08419421, -0.0191211,0.02018296, -0.07248074,0.01184844, 0.05073643};
static int gruCandidateBias_y = 8;
