/*
 * This is an autogenerated file. Modifications
 * might not be persistent.
 */
 #pragma once

    /** Input dimension for the model */
    #define INPUT_DIM 150
    /** Hidden dimension */
    #define HIDDEN_DIM 50
    /** Output dimension */
    #define OUTPUT_DIM 10
    
    /**
     * Input Weights (W1)
     * INPUT_DIM x HIDDEN_DIM 
     */
__attribute__((section(".container-data")))
    static const float W1[INPUT_DIM * HIDDEN_DIM] = {
		-0.03261923789978027,-0.019516054540872574,-0.052996158599853516,0.04079353064298629,0.16866025328636167,0.0363515019416809,0.018301367759704586,-0.03661441430449485,0.06547223031520844,0.05554400756955146,0.014254299923777582,0.17342416942119598,-0.03566748648881912,0.07508132606744766,0.007258217316120864,-0.11844636499881744,0.31525060534477234,0.14734251797199246,-0.10427168756723407,-0.10104379057884216,0.2265656441450119,-0.15092867612838745,-0.06190495565533639,-0.011938483454287054,-0.06649039685726166,0.184615895152092,-0.19817101955413818,0.19705106317996976,0.10033149272203444,-0.0012873719679191709,-0.0349743478000164,0.008739188313484192,0.17618848383426666,0.23699209094047546,0.12979732453823087,0.031563013792037964,0.11874758452177048,-0.04360779374837875,0.018967380747199055,0.21195656061172483,-0.036867398768663406,-0.1740173399448395,-0.21485024690628046,0.07944018393754958,0.17920222878456116,0.13917376101016998,0.1480242908000946,0.26597002148628235,-0.10841242969036102,-0.017051877453923225,
		-0.02188759483397007,-0.08282256871461868,-0.0036880720872431993,-0.26753002405166626,0.2237662971019745,0.2844915688037872,0.009860781952738762,-0.0011666698846966028,0.22466218471527097,-0.2457355707883835,0.08688171952962875,0.08367668092250824,0.2369753271341324,-0.12388528883457182,-0.07796332240104675,0.08614206314086913,0.12802405655384064,-0.0705516040325165,0.04477088525891303,0.042309697717428214,0.3393985629081726,-0.17278429865837094,0.03386930376291276,-0.042648110538721085,-0.16054685413837433,0.055812615901231766,0.0035816277377307415,0.06503278017044069,0.10510018467903136,-0.14477382600307462,-0.3097143769264221,-0.0029858460184186697,-0.00539927463978529,-0.1998129040002823,0.24124944210052485,0.21275307238101956,-0.13798029720783234,0.03528934344649314,-0.14254398643970487,-0.04707383736968039,-0.011461277492344381,-0.09331070631742476,-0.14384280145168304,-0.2463679909706116,-0.07337088137865065,-0.154499813914299,0.08876614272594452,-0.03977474570274352,-0.08019861578941347,0.06947040557861327,
		-0.23461772501468656,0.2064111828804016,-0.025367353111505505,0.014146437868475916,-0.058319661766290665,-0.0645914375782013,-0.05916053056716919,-0.1900562047958374,0.2696118652820587,0.04641600325703621,0.11950575560331345,-0.1412786990404129,-0.00902409106492996,-0.061753708869218826,0.022911457344889637,-0.1258900761604309,-0.1198214292526245,0.12975122034549713,0.08477292954921721,-0.06309954077005386,0.11567502468824388,-0.030689382925629612,0.09768278151750563,-0.024828525260090828,0.10677136480808258,-0.18058590590953824,0.021538132801651955,-0.03503064438700676,-0.005840306635946035,0.0840814933180809,0.15976585447788239,0.21528711915016172,-0.07137612253427507,-0.13011203706264496,0.07670984417200087,-0.20196987688541407,0.04900088533759118,-0.11160561442375183,0.02683159336447716,0.18420010805130002,0.1162362918257713,-0.04447593539953232,-0.028618134558200836,-0.11382191628217694,-0.04622137546539306,0.1683913171291351,0.07328876107931137,-0.1912316530942917,0.1657261401414871,-0.1757689416408539,
		-0.09472074359655379,0.013594019226729868,-0.09932789206504819,-0.05646710842847824,-0.07662244141101836,0.17282366752624512,0.10590825974941251,-0.18383285403251648,-0.05877679586410521,0.1947406530380249,0.25769418478012085,0.11826252192258838,-0.05654726922512054,-0.019525492563843727,-0.14182665944099426,-0.0882418155670166,-0.025440208613872528,-0.030225764960050586,0.15424992144107819,-0.15115177631378174,-0.006952922325581311,0.10666897147893904,-0.11217927187681198,0.005991525016725064,-0.06858883798122406,-0.08709776401519775,0.10575409233570099,0.03452316299080848,-0.16686353087425232,-0.2203993648290634,0.03881647437810898,0.20878975093364718,0.13024237751960752,0.12484904378652573,-0.150128573179245,-0.08664651215076447,-0.19368670880794525,0.12141185253858565,-0.0009121490875259039,0.15643371641635895,0.10016869008541107,-0.14028787612915042,0.00028661140822805464,-0.15938884019851682,-0.1122915968298912,0.19645202159881592,0.19704461097717282,0.1145387887954712,0.10265105217695235,0.0554383285343647,
		-0.03714626654982567,-0.09106390178203583,-0.1805959343910217,-0.017826022580265995,-0.051820840686559684,0.14120200276374814,-0.2224177718162537,-0.18303517997264865,0.2189787030220032,0.00252970727160573,0.12337865680456163,0.029521729797124863,-0.07667638361454009,0.1994420289993286,0.07028563320636749,0.04316204786300659,0.17332644760608673,-0.04683828353881836,-0.049180395901203156,-0.13727371394634244,-0.0015024524182081223,0.07585068047046661,-0.14012311398982996,-0.18786372244358066,-0.15457484126091006,-0.03293260931968689,0.08787669241428375,-0.10262948274612425,-0.08398592472076416,0.18419088423252103,-0.0015532493125647304,0.0007872224668972193,0.09608834236860275,0.17070409655570984,-0.04940911382436752,0.07489491254091264,0.04181286320090294,-0.12984541058540344,-0.15029944479465485,0.14800034463405606,0.03283071145415306,-0.06226353719830512,-0.07804676145315169,-0.0044029392302036285,-0.04318908229470253,-0.04765304550528526,-0.043640565127134316,-0.2369169294834137,0.04147699475288391,-0.07791337370872499,
		0.06349309533834456,0.1484057605266571,-0.05650664865970612,0.1466822773218155,-0.1323990821838379,0.12374192476272584,0.2560831904411316,-0.18939973413944242,0.017443491145968434,0.1151582971215248,0.2022325247526169,0.03223179280757904,0.1401669532060623,0.0899876430630684,0.0036187046207487587,-0.07718847692012787,-0.14258329570293424,-0.09487508237361908,-0.1382557600736618,-0.1250065863132477,0.097673162817955,-0.12582264840602875,0.0011988248443230987,0.06796953827142715,0.22691729664802554,0.19835612177848813,0.040091078728437424,0.016493674367666245,0.12977637350559235,-0.05113080143928528,-0.08686235547065733,0.09578531980514528,-0.12275969237089154,-0.009656883776187897,-0.1685841530561447,-0.025830890983343124,-0.22142434120178225,0.030842969194054607,0.1712863743305206,-0.17999352514743805,-0.06878700107336044,0.1346329152584076,0.1422629505395889,-0.10230354219675064,-0.05370236560702324,0.1100582331418991,0.11684279888868335,-0.01245588157325983,0.11749903112649918,-0.04288165643811226,
		-0.04021243005990983,-0.12839272618293762,0.14785681664943695,0.10636422783136368,0.10013384371995925,-0.04612306877970696,-0.09635603427886963,-0.16098707914352414,0.2612550854682922,-0.17251041531562802,-0.1725756824016571,-0.06610113382339478,0.05927156656980515,-0.18591617047786713,0.07412207871675493,0.0949398651719093,-0.1331212520599365,0.053036827594041824,0.10843273997306824,0.010434632189571854,0.19963862001895905,0.08778440207242964,-0.019923543557524678,-0.02425578981637955,0.12129951268434525,0.1031372621655464,0.2439247965812683,-0.0298395287245512,-0.10689441859722136,-0.1588315665721893,-0.08380044996738435,0.2271073311567306,-0.014108410105109215,-0.09629390388727188,-0.12043961137533188,-0.12708680331707,-0.1571645885705948,-0.06476754695177077,0.0873282179236412,0.14591565728187558,0.13017670810222623,0.027422126382589344,0.07513249665498732,0.005768658593297005,0.07200445979833603,0.2006554752588272,0.042773287743329995,-0.05577663704752922,0.053699340671300895,0.2427676320075989,
		-0.013613804243505001,-0.08023135364055634,0.1538301408290863,0.20416125655174253,-0.08498327434062956,-0.09467988461256029,-0.015521650202572344,-0.10206993669271469,0.1504005938768387,0.2431579977273941,0.13291087746620178,0.08439932018518449,0.025907194241881367,-0.08243828266859053,-0.1503029614686966,-0.1310431808233261,0.06854524463415144,0.2068365663290024,-0.06493902206420897,-0.2023945748806,0.13987714052200317,-0.05782830715179444,-0.06758352369070053,-0.08853719383478163,-0.1220129355788231,-0.1639397740364075,-0.070985347032547,0.05170188844203949,0.09815676510334015,-0.027078511193394657,0.13869012892246246,0.19283773005008698,-0.12841348350048065,0.04056383296847344,0.19317583739757535,0.18644413352012637,0.15357595682144162,-0.0008917659288272262,-0.09644842892885208,-0.02170142158865929,0.2479998469352722,0.002517200075089931,0.07835713773965836,-0.037058837711811066,-0.0784783810377121,0.1536398082971573,0.2136165350675583,0.07840842008590697,-0.005507894791662693,0.027155639603734016,
		-0.04096610471606256,0.02938463725149631,0.05784125626087189,0.2107898741960525,-0.127113476395607,0.1333761662244797,0.08072299510240552,0.03993764892220497,0.27856576442718506,0.23996050655841825,-0.17805789411067963,-0.05832453817129135,-0.16522885859012604,-0.21254864335060122,0.17720445990562436,0.0834031030535698,0.09846702218055725,-0.011679421178996563,0.06203151494264603,0.015882201492786407,0.047380942851305015,0.013936967588961123,0.08005181699991225,0.0016206136206164956,0.0561864823102951,-0.07477063685655592,0.30334451794624323,0.01800975762307644,0.08250951766967772,-0.2414911687374115,0.08040706068277359,0.07460817694664001,-0.010630433447659016,0.02292750589549541,0.05717649683356285,-0.08444514125585555,-0.0650143474340439,0.15654268860816958,0.2539468705654144,0.04972681030631065,0.22080279886722562,-0.0372811146080494,-0.05917187407612801,0.03685220330953599,-0.12481137365102768,-0.10172823071479795,-0.018107518553733826,-0.2211198806762696,0.22196531295776367,-0.06846378743648529,
		0.010434439405798912,-0.0431353971362114,-0.11706425994634627,-0.19697152078151706,0.0552314966917038,0.27630338072776794,0.09581653028726578,-0.02918332070112228,0.10342597961425778,-0.2309332191944122,0.11446554213762285,0.1572142541408539,0.006865615956485272,-0.03604865074157714,-0.06063159182667732,-0.06283468008041382,0.13274815678596494,-0.04422160610556601,0.07094969600439072,-0.07472416758537292,0.23297801613807675,-0.10156627744436264,0.15173014998435974,-0.10733578354120255,-0.1396423429250717,0.004770064726471902,-0.17970356345176697,-0.16040240228176114,0.10285396873950958,-0.09724769741296768,-0.11734906584024428,-0.03760316222906113,0.056341279298067086,0.15747947990894318,-0.1008274033665657,-0.09821154177188872,0.058705788105726235,0.12327930331230162,-0.06043673306703566,-0.1306512802839279,-0.07560414820909502,0.016782306134700775,-0.15942546725273132,0.13642776012420654,-1.2750675523420797e-05,0.03283592313528061,0.01861771568655968,0.16220353543758392,0.02139271423220634,-0.1327936202287674,
		0.0015863112639635801,0.045692369341850274,0.08580332994461058,0.0621177926659584,-0.1207945942878723,-0.01452597975730896,0.13138917088508606,-0.06513078510761261,0.18151500821113584,0.14539650082588196,0.07092580944299699,0.12195128202438353,-0.1123596504330635,0.007875050418078898,-0.10195137560367584,-0.150045245885849,0.21115560829639438,0.03671380877494812,-0.16401115059852603,-0.014902091585099697,0.18392874300479886,-0.2439587861299515,0.030479585751891136,-0.2106039226055145,0.01023072749376297,-0.171613946557045,0.05586600676178932,0.1518648415803909,0.06594987213611603,-0.13662396371364594,0.1319112628698349,0.04633209854364396,-0.08020044118165971,0.11819263547658923,-0.047432947903871536,-0.12697932124137878,-0.09521853923797609,-0.18468248844146729,0.0522167943418026,0.02976871468126774,0.03887072578072548,-0.013972670771181583,-0.0759124904870987,0.10423649102449416,0.1447567492723465,0.015352141112089154,0.1289040595293045,-0.1165766566991806,-0.1341642737388611,0.1324650347232819,
		-0.007067732047289611,-0.08326080441474913,-0.020687604323029518,-0.07273391634225844,-0.04058371111750603,-0.17489515244960785,-0.08991040289402008,-0.10592843592166899,0.1287079006433487,-0.03520914912223816,0.15950188040733337,-0.06427173316478729,0.18401984870433807,0.017363891005516052,-0.10521879792213441,0.10255245864391327,0.0057388083077967176,0.15008561313152313,0.18387643992900848,-0.18583261966705317,0.14349499344825745,-0.021111795678734776,-0.13366524875164035,-0.2375953197479248,-0.0058503705076873285,0.00574687821790576,0.07544491440057753,-0.1675034463405609,-0.06567111611366272,0.09465877711772917,0.19134740531444547,0.15301036834716797,-0.15925125777721405,-0.13636952638626096,0.10695026814937593,-0.17091001570224762,0.13607163727283478,-0.2062326669692993,0.08148615807294846,0.0871240869164467,0.22030648589134216,0.15700492262840274,-0.1790377646684647,-0.04930945858359337,0.13160274922847748,0.02019006572663784,0.11044025421142578,-0.14728319644927979,0.0477716438472271,0.2184648066759109,
		-0.0622575506567955,0.052209991961717606,0.02092706225812435,-0.04357197508215904,-0.17070205509662628,0.06933967024087904,0.08173674345016478,-0.0658353939652443,0.008139008656144142,-0.009822032414376737,0.09942397475242615,-0.13019013404846191,-0.1998679339885712,0.08459772169589996,0.16980421543121338,-0.1324126869440079,-0.018169177696108815,0.01177980937063694,-0.10041560232639313,-0.04811970889568329,-0.08959707617759703,0.030893752351403236,0.061420604586601264,0.03696569427847862,-0.07344909757375717,-0.18071790039539334,0.05674678459763526,0.03159799799323082,0.10885900259017944,0.15453091263771054,0.07622089982032773,0.19068726897239682,-0.006157652940601111,0.02592724934220314,-0.09396597743034361,-0.1548379212617874,-0.0007543253013864161,0.13723786175251007,0.034993678331375115,-0.010815626941621305,-0.1572521924972534,0.1421203911304474,0.016289539635181427,0.153560996055603,0.07912328094244003,0.134068563580513,-0.09237648546695709,0.06684649735689163,0.1737862378358841,0.2122487723827362,
		-0.15591545403003693,0.14024977385997772,0.0036412412300705914,-0.030433950945734974,0.1710942834615707,-0.02598362416028976,0.03002651408314705,-0.08368032425642012,0.11162749677896498,0.03129168227314949,-0.029775772243738167,-0.298915296792984,0.053275927901268005,-0.018828315660357475,0.13047511875629425,0.0746447518467903,0.04151051864027977,0.17857013642787933,0.07792800664901733,-0.11207424849271776,0.08319704234600067,-0.10678216814994812,0.029546853154897686,0.165730282664299,0.04702940210700035,-0.16891700029373166,-0.002449602819979191,-0.1291818469762802,-0.06366940587759018,-0.060527220368385315,0.1487303823232651,0.16620948910713199,-0.2057303339242935,0.1108893007040024,0.2173682600259781,-0.009197302162647247,-0.007920965552330017,-0.0003804966399911792,0.18394555151462558,0.03448435664176941,0.1084304004907608,-0.051454421132802956,-0.07364236563444138,-0.06177288293838501,-0.11082281172275543,0.14846426248550415,0.026235567405819886,0.07038588076829912,0.2420553117990493,-0.049437753856182085,
		-0.08687888085842131,-0.049074221402406686,0.18226875364780423,0.03525874391198158,0.03571220487356186,-0.1412649303674698,0.1241806298494339,-0.20957621932029724,0.1985431015491485,-0.21829910576343536,0.18283291161060333,0.10393022745847702,0.025808408856391907,0.05122241750359536,-0.039068043231964104,0.08489424735307692,0.06772073358297348,-0.11168409138917924,0.12104772776365283,-0.2152553349733353,0.18937128782272336,-0.1887197941541672,-0.05483473092317581,0.19289359450340274,0.11934822797775267,-0.09917943179607393,-0.023355947807431218,-0.037548761814832694,0.09680072218179703,-0.11576506495475768,-0.03550291806459427,-0.008169753476977347,-0.003668362740427256,0.09425186365842819,-0.0025695634540170435,-0.12029645591974256,0.12743473052978513,-0.09880761802196503,-0.04895195364952089,-0.08581080287694931,0.1326178014278412,-0.020936673507094383,-0.14099164307117462,0.019613098353147503,-0.03863218426704407,-0.16413168609142306,-0.007563701365143059,0.07090255618095397,0.20681439340114596,-0.0047302995808422565,
		0.046787861734628684,-0.0692758932709694,0.09275572001934052,-0.03088519535958767,-0.1565630733966827,0.05901582911610604,-0.062240459024906165,-0.21196426451206207,0.1615287959575653,0.12711507081985474,-0.04256055876612663,-0.2376537173986435,0.15838176012039185,0.08411832153797148,0.1350490301847458,0.17482194304466248,0.10751994699239731,0.2257864624261856,-0.025352640077471733,-0.116418719291687,0.06632855534553529,0.0795474201440811,0.09819822013378143,-0.06869424879550934,-0.024248529225587845,-0.12621501088142398,0.1725001037120819,-0.1400457918643951,0.11766396462917328,0.04084176570177078,0.07823989540338515,0.049818169325590134,0.0211568046361208,-0.1021629124879837,0.1577957570552826,0.17421548068523404,0.08947261422872543,-0.1506129056215286,0.04959596693515777,0.2241058051586151,0.0073920339345932,-0.04656823724508285,0.008347785100340843,0.10050898790359496,0.12421559542417528,0.06380964815616609,0.005573010072112083,-0.1448902040719986,0.049496114253997796,-0.1265745460987091,
		-0.06484290957450867,-0.16525490581989288,0.12906795740127566,-0.020098093897104263,-0.026397474110126495,0.2956773638725281,0.11517275124788286,-0.03170258179306983,0.1844363361597061,0.237767219543457,0.0870450586080551,0.09271515905857088,-0.16545288264751432,-0.18656559288501734,0.13964504003524783,-0.1682531088590622,0.07008167356252672,0.018530584871768955,0.04565388709306717,0.08611637353897093,0.16886314749717712,-0.166655033826828,-0.1739751100540161,0.014471910893917084,-0.18310344219207764,0.05983256548643112,0.01211453229188919,-0.1331651359796524,0.034583281725645065,-0.02256488613784313,-0.1201440840959549,0.1365041136741638,0.01963673532009125,-0.08400182425975798,0.04580424353480339,-0.08120087534189224,-0.028343064710497856,-0.1366482526063919,0.08776954561471939,0.1146513894200325,-0.23879066109657285,0.05999287217855453,0.21216599643230438,0.002321807900443673,-0.14464515447616574,-0.07534261047840117,0.15813522040843964,0.07964275777339935,-0.03410879895091057,0.1521683782339096,
		-0.1849817186594009,0.031573064625263214,0.014699772000312803,0.05588141083717345,0.03734702989459037,0.015065932646393778,-0.11312455683946608,-0.20705367624759677,-0.08537751436233522,0.10994077473878862,0.06796304881572722,-0.12477056682109833,-0.019636882469058044,-0.172869935631752,0.16796661913394928,0.21769993007183075,-0.0600968487560749,0.18482482433319086,0.009912539273500443,-0.15985484421253202,-0.010811518877744673,-0.24871663749217984,-0.05961679294705391,0.012196330353617666,-0.16999587416648865,0.02127953805029392,0.1193605288863182,0.08218108117580412,-0.18094995617866522,0.08996778726577759,0.06752164661884309,-0.003617363283410668,-0.07001494616270065,-0.014976887032389637,0.19849896430969244,0.12830115854740146,0.039995528757572174,0.11229304224252701,-0.03243162110447884,-0.10866497457027437,0.057873852550983436,-0.16231982409954074,-0.18345952033996582,0.013182583265006544,0.04863186925649642,0.16346481442451474,0.1314551532268524,0.20765744149684903,0.16225101053714752,-0.16524209082126617,
		-0.19522659480571744,-0.12329425662755965,0.040532968938350684,0.014342446811497213,-0.018071375787258148,0.04990401864051819,0.12881721556186676,0.1358460336923599,0.06988395750522614,-0.19258344173431396,0.11283809691667555,-0.1945594549179077,0.2150230258703232,-0.21258501708507535,0.10197037458419801,0.2328421622514725,-0.004500816576182841,0.07566857337951662,-0.06281964480876923,-0.10475638508796692,-0.04082801192998886,-0.13412123918533325,0.05643592402338982,-0.0628688260912895,0.04057256504893302,0.10628392547369005,-0.06377197802066802,-0.1376301348209381,0.0056857015006244165,0.1774279773235321,0.020736765116453167,0.02517345547676086,0.09515689313411711,-0.15841910243034363,0.21424067020416254,0.16214774549007419,0.005988989491015673,0.02365688793361187,-0.198782816529274,0.006299594882875681,0.16157564520835874,-0.23016583919525144,-0.015661772340536114,-0.02887310087680817,0.05719778314232826,-0.08639552444219589,0.11000576615333554,0.21188968420028687,0.18277536332607267,0.1697576493024826,
		0.1617327183485031,0.15281786024570465,-0.20572589337825772,-0.0936623439192772,0.062091413885355,0.10531243681907651,-0.18707357347011566,-0.0919288620352745,0.07697726041078568,-0.20650975406169889,0.10295081138610841,-0.14064560830593106,0.16198916733264926,-0.025471245869994164,0.10750324279069902,-0.08240599930286406,-0.14280638098716736,-0.07651678472757338,0.137698158621788,0.06547004729509354,0.22250826656818387,0.08634928613901137,0.05133170261979103,-0.06253407895565034,0.09543839842081071,0.13431550562381744,0.0740131437778473,-0.2439794093370438,-0.04951420426368713,0.2351421415805817,0.235356017947197,0.089321069419384,-0.10673152655363081,-0.16300453245639804,0.11733336001634595,0.06747465580701828,-0.0671420767903328,-0.057112637907266624,0.03778945654630661,0.00770282419398427,-0.015102299861609934,-0.1766278445720673,0.004159622825682163,-0.021645102649927136,-0.061605967581272125,-0.12505345046520233,0.09900161623954773,0.01472747605293989,0.03306829184293747,0.18387489020824432,
		0.03342880308628082,-0.11747044324874878,-0.24686697125434875,-0.1780799776315689,0.09455735236406325,0.02601468935608864,0.009138452820479868,-0.0033907927572727208,0.06594083458185195,-0.21278358995914456,0.014615033753216265,-0.0662945806980133,-0.03755358606576921,0.11980681121349335,0.04145057126879693,-0.189710333943367,-0.06551107764244081,0.01237463392317295,-0.19196514785289762,0.14158894121646878,0.12166640162467955,-0.2729600965976715,-0.05597612261772156,0.032107874751091,-0.0879618600010872,0.05172077193856239,-0.056386981159448624,0.011897942982614039,-0.03430255874991417,-0.002371370559558273,0.08099726587533952,-0.09437201172113419,-0.1169160157442093,-0.16801050305366516,-0.14098790287971497,0.06474366039037703,-0.028757154941558838,0.10065840929746628,-0.009037730284035202,-0.1978634744882584,-0.12778815627098083,-0.054340694099664695,0.035205475986003876,0.11952969431877135,-0.05172337219119073,0.16392722725868225,0.13147640228271484,0.11843359470367433,-0.10672579705715181,-0.053605757653713226,
		0.008767097257077696,0.22250878810882568,-0.12292474508285522,0.20856772363185883,0.1566728949546814,0.0703369304537773,0.01117080822587013,-0.057196523994207375,-0.02183834463357925,0.09271806478500366,0.08237560093402861,0.2964045107364654,0.07258058339357376,-0.029453845694661137,0.18924427032470706,-0.017459459602832794,-0.0547475591301918,-0.1594642996788025,-0.07280940562486649,-0.012086019851267338,-0.11355894804000854,-0.088663749396801,0.00924259889870882,-0.16381262242794034,0.229659765958786,-0.10026727616786957,0.15790100395679474,0.0970403254032135,-0.03669923916459084,0.0251619890332222,-0.14604246616363523,-0.09837520867586137,-0.1373424530029297,-0.17401301860809326,-0.0033272362779825926,-0.04438474774360657,0.04831972718238832,0.09985800832509993,-0.02435499429702759,-0.19052408635616305,0.02443788945674896,0.07484451681375502,0.024662235751748085,-0.05025269836187363,-0.029137017205357555,-0.044859375804662704,1.651224374654703e-05,-0.18629494309425357,0.26047179102897644,-0.22742797434329984,
		-0.05000371113419533,0.046618089079856866,-0.16213352978229523,-0.009920021519064903,-0.22333575785160065,0.04030557349324226,0.07728653401136398,-0.20542219281196594,0.08502203226089478,0.0594003163278103,-0.014140641316771506,0.10611852258443832,0.15605732798576355,-0.13076537847518924,0.034435734152793884,-0.04126265645027161,-0.067060649394989,0.06513219326734543,-0.0833931490778923,-0.019542060792446136,0.008788777515292166,0.12255416065454484,-0.15534180402755737,-0.17499218881130219,-0.07943921536207199,0.019361577928066254,0.13588201999664304,-0.08132318407297134,0.015703102573752403,0.1579950600862503,0.12924821674823764,0.2566698491573334,0.1193361505866051,0.08761391788721085,-0.2412049770355225,0.022714445367455486,-0.052275851368904114,-0.062460694462060935,0.22124116122722626,-0.0518021434545517,-0.018655600026249886,0.1200132891535759,0.000986372702755034,0.13711033761501312,-0.05841099843382835,-0.035667445510625846,0.06555738300085068,-0.08516450971364976,-0.0754108652472496,0.07931442558765413,
		-0.017617737874388695,0.07839255034923552,0.06891739368438721,0.19304966926574707,-0.05316908657550812,-0.12985852360725403,-0.06899888813495636,-0.0050814254209399215,0.04741479456424713,-0.011191173456609249,0.06690464913845062,0.3450244069099426,-0.11688565462827682,0.2536173760890961,0.009193763136863708,-0.2150325030088425,-0.052471671253442764,0.0959130823612213,-0.03868073597550393,0.09266113489866257,-0.2832307815551757,-0.15260069072246552,0.22044622898101807,-0.1846090257167816,0.21679139137268064,-0.021159034222364422,-0.11549449712038037,0.1929337382316589,0.163235604763031,-0.02717583440244198,-0.08303518593311308,0.024821110069751736,-0.07927058637142181,0.17142780125141144,-0.05331894010305405,0.058060705661773675,-0.15071819722652435,-0.014502805657684803,0.06718598306179048,0.08939820528030394,0.052115045487880714,0.07593657821416855,0.18141393363475802,0.0689081996679306,-0.055689074099063866,0.1667500138282776,-0.16437086462974548,-0.08749333769083023,0.16388411819934845,0.05983449518680574,
		-0.13292600214481354,-0.01270727440714836,0.14055852591991425,0.008893920108675955,-0.04322686046361923,-0.008940381929278374,-0.22598162293434146,-0.1137538477778435,-0.12505854666233063,0.15060400962829587,0.10829690098762512,-0.04187719151377677,0.17387488484382627,-0.012533375062048435,0.03686518967151642,-0.06769128888845444,0.22179250419139865,-0.10666317492723465,-0.1406874358654022,0.16869167983531952,-0.1490190774202347,-0.023576360195875168,-0.007282564882189036,0.10111475735902785,-0.16311575472354886,-0.18639759719371796,0.19827359914779666,-0.05441849306225777,0.022016057744622234,-0.04744364693760871,0.08437318354845048,0.10076715052127838,0.034989308565855026,0.12241340428590775,0.0884779170155525,-0.02625250071287155,0.1456592231988907,0.023444311693310734,0.17833320796489716,-0.09202836453914642,0.07262232899665833,0.1936415433883667,-0.0052168453112244615,-0.010911162011325361,-0.03363487124443054,0.00431561516597867,0.08959708362817764,-0.023134075105190277,0.10679852217435837,0.23163089156150815,
		-0.013072367757558823,-0.042542211711406715,-0.004824751056730747,-0.1427479386329651,0.12945616245269775,-0.2660335302352905,-0.06574176996946335,0.025545429438352585,-0.22919173538684845,0.1931965798139572,0.20597712695598597,-0.18140217661857602,0.19432564079761505,0.128384530544281,0.03147543966770172,-0.04021575674414634,0.031005024909973145,0.013635458424687382,-0.010734874755144121,0.013551679439842703,0.014992932789027687,0.07142245769500734,-0.15963852405548096,0.08135247230529787,-0.04486285150051117,0.08139944821596146,0.08202362805604935,-0.18771865963935846,0.10953174531459807,0.28686797618865967,0.09040294587612151,-0.019665043801069256,-0.1213047355413437,0.2528710663318634,0.0464531071484089,0.031787950545549386,0.03275317698717117,0.03708035871386527,-0.06316475570201875,0.05317706242203711,-0.10542260855436324,0.018286362290382385,0.03672199696302413,-0.11858832836151123,0.30809518694877625,-0.20426657795906064,-0.2076242566108704,-0.15084008872509003,0.06708110123872756,0.0631462186574936,
		0.05410201847553253,-0.04917107895016671,0.07476407289505005,-0.2482800185680389,-0.18604119122028354,-0.1361890882253647,-0.04122491180896759,0.15409786999225614,-0.19301220774650574,-0.04724211990833281,0.10369440913200377,-0.13836824893951416,0.06894795596599579,-0.039112169295549386,0.08892621845006943,0.06484375894069673,-0.12255262583494185,0.1973040550947189,0.042265601456165314,0.1804499179124832,0.20158077776432037,0.11301041394472122,-0.1029154434800148,-0.05106876045465469,-0.11677221208810808,-0.10073590278625487,0.08018162101507187,-0.24200375378131864,0.21538230776786801,0.07390261441469193,0.15832389891147614,-0.19973063468933105,0.01052558235824108,0.17527604103088376,0.25833630561828613,0.22396694123744962,0.1353292018175125,-0.2358787804841995,-0.0217764787375927,0.01078927330672741,-0.14968127012252808,0.25176551938056946,0.1848759353160858,0.032870352268218994,0.013919897377490996,-0.15640008449554446,-0.09013587236404419,-0.18097425997257233,0.044087305665016174,-0.21660169959068296,
		-0.0041614160872995845,-0.07902497053146361,-0.21825315058231357,0.032381299883127206,0.0036436985246837135,0.08121971040964127,-0.08590699732303618,-0.07935049384832382,-0.19607955217361447,0.0028560783248394728,-0.05925006419420242,0.0034201233647763725,-0.1575913578271866,-0.051487520337104804,-0.010719446465373041,0.06439523398876192,-0.1751040667295456,-0.03491324186325073,0.08078546077013014,0.007995503023266792,0.007069199346005916,0.10892850905656815,-0.05527433380484581,-0.19081373512744904,0.1942797899246216,-0.04121822491288185,-0.04880579933524132,0.03995684534311296,-0.108255498111248,-0.18765279650688169,0.2541145980358124,-0.12077071517705917,-0.2239116132259369,-0.2508428990840912,0.02265097573399544,-0.048646554350852966,0.07497235387563705,0.10935144126415251,0.041732907295227044,-0.1335111558437347,0.055038813501596444,0.04321619495749473,-0.024717902764678,-0.010892799124121666,-0.2596109211444855,0.2819173634052277,-0.15813402831554413,-0.11307590454816817,-0.03144140169024468,0.08629515767097473,
		-0.1613422930240631,0.15285624563694,-0.04125984385609626,0.007412691600620747,-0.14108088612556458,-0.012527391314506529,-0.24334739148616796,-0.18530941009521484,-0.10841842740774153,-0.1995619833469391,0.19409431517124176,0.023668061941862103,0.09424977749586104,-0.16005542874336243,-0.2422015815973282,-0.3285059034824372,-0.0806072726845741,0.10314624011516572,-0.1838844269514084,0.16939593851566312,-0.10862180590629576,0.14546456933021543,0.009434862062335014,0.09906641393899918,-0.02871238440275192,-0.15968002378940582,0.044578563421964645,0.1600831001996994,0.19588519632816317,0.22798842191696164,-0.14689011871814728,-0.0627644807100296,-0.15029822289943695,-0.1549990326166153,-0.06266839802265167,0.04988601803779603,-0.05134499818086624,-0.1276094615459442,-0.009090636856853962,-0.07233073562383652,0.03209486231207848,0.11527635157108307,0.11933988332748413,-0.12896710634231567,-0.2265169620513916,0.1301375776529312,0.07223503291606902,-0.2152245491743088,0.1347334682941437,0.027657059952616688,
		-0.16714511811733246,0.0752088725566864,-0.09797687083482742,0.06863752007484436,0.10181579738855362,-0.017546519637107842,-0.017829781398177147,-0.17869791388511655,-0.015166932716965679,0.06410208344459534,-0.046766482293605804,0.1225820258259773,-0.013284735381603241,0.030477421358227726,-0.1515602767467499,-0.28356277942657476,-0.011309428140521048,-0.10316895693540573,-0.07965876907110216,-0.1480957120656967,-0.16469889879226685,-0.1613912433385849,-0.013732684776186943,-0.03344988077878952,0.16338583827018735,-0.1525832265615463,-0.04238850623369216,-0.133177787065506,-0.08548533916473389,-0.035898253321647644,-0.1000249683856964,0.05234920233488083,0.06374839693307878,-0.03832245618104935,0.03842977806925773,-0.00035579554969444866,0.09267740696668622,-0.1551678031682968,-0.018978441134095195,-0.1951238811016083,0.2166031301021576,0.014491112902760504,0.2330882102251053,0.15206450223922727,-0.07611653208732606,0.09871967136859891,0.11916448920965192,-0.13632288575172424,-0.10558743774890898,-0.07972551882266997,
		-0.06116218119859696,0.02721512317657471,0.07089672237634659,0.0923080816864967,0.03717602416872978,0.1349801868200302,-0.0035091438330709934,0.034142401069402695,-0.24163810908794406,0.021296752616763115,0.09850367158651352,0.005801033228635787,0.1155404895544052,0.01471361890435219,0.1279444992542267,-0.08588020503520966,0.005892395973205566,0.1404314786195755,0.04095612466335296,-0.022731311619281765,-0.030568828806281086,0.060741689056158066,0.19761347770690918,0.08733892440795897,0.09733464568853377,-0.09475646167993546,0.11187052726745604,-0.12544064223766327,0.09280192106962207,-0.061807248741388314,0.07620859146118164,-0.09133161604404448,-0.14011520147323608,0.15713916718959808,-0.14136986434459686,-0.023818781599402428,0.16441226005554202,0.09198847413063048,0.2432505786418915,-0.048251353204250336,0.0791686400771141,0.05186543241143226,-0.016774266958236694,0.037585079669952386,-0.15960730612277985,-0.14118871092796323,0.23208214342594144,-0.1790880411863327,0.12526489794254306,0.03456759452819824,
		0.02180229686200619,0.0492376871407032,-0.08999261260032654,0.1591714471578598,0.17124989628791806,-0.22628501057624814,-0.05021509900689126,-0.04645856469869613,-0.21412335336208346,-0.014459220692515375,0.08746669441461563,-0.14022591710090637,0.06129638105630875,-0.009910900145769121,-0.1664734333753586,-0.09145884960889816,-0.108537457883358,0.07079604268074036,-0.03765425086021423,0.09174586832523346,-0.17876325547695163,-0.03210676088929177,-0.0400748997926712,0.020686427131295204,-0.05999746173620224,-0.11129952222108841,0.027916632592678074,0.020229602232575417,-0.05550046265125275,0.12883205711841586,0.03334646672010422,0.1635325253009796,-0.2269035279750824,-0.16488228738307953,-0.07895381748676301,0.11940019577741624,-0.02251839637756348,0.047320224344730384,-0.01598468981683254,-0.2183314263820648,0.011668312363326546,0.13888438045978546,0.30668637156486517,0.12121085077524182,0.2267044186592102,0.1657050848007202,0.0651092380285263,-0.11112573742866515,0.08252229541540147,0.1601869910955429,
		0.15820094943046567,-0.07898499071598054,-0.08867520838975906,0.0471021942794323,-0.010481752455234528,-0.18352378904819489,-0.0732234939932823,0.19683510065078733,-0.07326381653547288,0.06734176725149153,0.00045734090963378554,0.19629891216754916,0.038987595587968826,-0.19002059102058408,-0.005789567716419697,-0.24606043100357056,0.08654119074344634,0.09049345552921295,-0.045979052782058716,0.2485970854759216,-0.10657437890768051,0.17817321419715879,-0.2333200573921204,0.03210354968905449,-0.164218932390213,0.11976580321788788,-0.023849882185459137,0.21876908838748926,0.1645793169736862,0.053074728697538376,0.05216379463672637,-0.08443225175142287,-0.23927412927150726,-0.06798399984836577,-0.02081478759646416,-0.03408714011311531,0.17627426981925964,-0.1450216770172119,-0.11263658106327055,0.1674862802028656,0.051157161593437195,-0.010407960042357443,-0.08971095085144044,-0.09970267862081528,0.07988875359296799,1.0038969776360318e-05,-0.21555672585964197,-0.1362764686346054,-0.012282226234674454,-0.1340629160404205,
		0.08374062180519105,-0.01459477562457323,-0.19275629520416254,0.043670710176229484,-0.01987443119287491,0.09093470871448515,0.055764343589544296,0.18333876132965088,-0.08818096667528152,-0.1872851252555847,-0.11139240115880966,0.19839078187942502,-0.10649921745061874,0.12597081065177917,-0.181940034031868,-0.28143650293350214,-0.11236291378736497,-0.07973169535398482,-0.15387265384197235,0.12131331861019133,-0.10706833004951476,0.12623700499534607,-0.347734808921814,0.14108821749687192,-0.03031804040074348,0.01749603636562824,-0.21352218091487885,0.14571473002433774,-0.10475718975067137,0.1396909654140472,0.12491565942764282,-0.20784533023834229,0.0060999938286840924,-0.11303511261940002,0.0785224512219429,0.1361043155193329,-0.032880038022994995,-0.16679842770099643,-0.09072428196668622,-0.05255153775215149,0.19145141541957852,-0.12402109056711197,0.07041194289922714,-0.015709949657320976,0.19377169013023374,0.005829792469739914,0.05136788636445999,-0.15639765560626984,-0.21453179419040677,-0.07397448271512985,
		-0.13258635997772214,-0.036251876503229134,-0.14012810587882996,0.15418316423892972,-0.13799746334552765,0.12102210521698,-0.18228207528591162,0.0981116071343422,-0.10755181312561037,-0.1424953192472458,0.14858873188495636,-0.004321602173149586,-0.0737815871834755,0.03483492136001587,-0.09521427005529405,-0.08225303143262863,-0.023300088942050927,-0.11138144880533217,0.027102718129754066,0.2438598573207855,-0.12487302720546722,0.006115779280662537,-0.16447162628173828,0.10108337551355362,0.16836361587047577,0.11007712036371232,-0.14054960012435913,0.11811278760433197,0.2538776099681854,0.16353470087051392,0.07989297807216643,0.015867453068494797,-0.09580224752426147,-0.014606127515435219,-0.1402658522129059,0.1632276028394699,0.1326552927494049,-0.04563511162996292,-0.06504708528518677,0.002944907173514366,0.23436301946640015,0.013587015680968761,-0.11503715813159943,0.16870515048503876,-0.011744394898414612,0.06749267876148224,-0.02042580768465996,0.013240561820566652,-0.15903528034687042,-0.08256929367780685,
		0.00022000813623890278,0.2802509665489197,-0.1799126863479614,0.20118723809719086,0.2345068007707596,0.09299302846193311,-0.26523858308792114,0.1601570397615433,0.02367536723613739,-0.10129459202289581,0.2418502271175384,0.007747960276901724,0.08866387605667113,0.05559678375720978,-0.0848763585090637,-0.11012440919876097,-0.09164308756589888,0.1707019358873367,0.07608388364315034,-0.1634845733642578,-0.022867927327752117,0.0995481461286545,-0.11942453682422638,-0.03985994309186936,-0.1194809377193451,0.12876686453819272,-0.05754225701093674,0.12498328834772113,0.07891741394996643,0.01668856292963028,-0.035234540700912476,0.16764937341213226,0.10114433616399764,-0.11912314593791958,-0.21996238827705383,0.17696447670459747,-0.017754253000020977,-0.03565708175301552,-0.16333983838558194,-0.05342568457126617,0.0924016386270523,0.047648999840021126,0.1689727455377579,-0.11316950619220732,0.02374492771923542,0.00784793496131897,0.05024133995175361,0.13599911332130432,0.22817932069301605,-0.14244286715984342,
		0.0023974371142685405,0.01927819103002548,0.04727194458246231,-0.021554842591285702,0.008144865743815897,-0.052557874470949166,-0.15261487662792206,0.06589491665363313,-0.23078843951225286,0.02825975231826305,0.012852472253143787,-0.14173920452594754,0.04381439834833145,-0.019016128033399582,0.0823235809803009,-0.0009804664878174663,-0.07011156529188156,0.1595553755760193,-0.1467057019472122,0.2442918419837952,-0.2597608864307404,0.1691040992736816,-0.01671310886740685,0.04969865456223488,0.007231131661683322,-0.171536847949028,-0.10919195413589475,0.15618018805980682,-0.1247863844037056,0.18482112884521484,0.01024889852851629,0.08814095705747604,-0.06303662061691286,-0.08628558367490766,-0.07517601549625395,-0.0578967109322548,-0.1450668126344681,0.003413193859159946,0.11145763844251633,-0.0918405205011368,0.019188076257705692,0.0027268151752650733,-0.059483949095010764,0.1740367561578751,-0.26736184954643244,0.038556855171918876,-0.08609887212514877,-0.05494657903909683,-0.008680353872478008,0.03160090744495392,
		0.03508767485618591,0.21261277794837952,-0.07130916416645049,-0.05031953752040864,-0.07538872957229614,-0.0661732703447342,-0.1150676980614662,-0.12563863396644592,0.05424460396170617,0.17824430763721466,0.013738187961280346,0.2708402872085571,-0.021594775840640065,0.19474519789218905,0.011546737514436243,-0.25914317369461054,0.044507615268230445,-0.04262423887848854,-0.16299495100975037,-0.1371249556541443,-0.03441207855939865,-0.014907781966030594,-0.2728607058525085,-0.027963658794760704,-0.08433376997709273,0.1466757357120514,0.02864674665033817,0.10627286881208418,0.07645871490240097,0.0651695355772972,-0.033053893595933914,0.05498899146914482,-0.06296073645353317,0.17414359748363495,0.06227133423089981,0.07785667479038239,0.10571112483739856,-0.048713855445384965,-0.15189447999000547,-0.0629325658082962,0.04855229333043098,0.16562038660049438,0.06957497447729111,-0.046607453376054764,-0.14076352119445804,0.04636256024241448,-0.10027332603931427,0.02192705310881138,0.16504392027854917,0.010494350455701351,
		-0.12918275594711304,0.10451804846525192,-0.12953251600265503,-0.03240676596760749,-0.05516194552183152,0.09620347619056702,-0.2226553112268448,-0.0037417914718389507,-0.12044534832239152,0.1775548458099365,0.21759614348411557,0.21700903773307803,0.019489146769046783,-0.031342245638370514,-0.1731720417737961,-0.08982029557228088,0.07558884471654892,0.024194819852709767,-0.06873799115419388,0.19564028084278104,-0.20603086054325104,-0.04938184842467309,-0.11851748824119568,0.06196615472435951,-0.0522233247756958,-0.12676113843917847,0.08972126245498656,0.06220930442214013,0.15230700373649597,0.07560477405786514,-0.05481134355068207,-0.01580078713595867,-0.05726030841469766,-0.009542169049382208,0.04738571494817734,0.1658083200454712,-0.11261756718158722,-0.0021792482584714885,0.12177322804927825,0.1323406994342804,0.038582060486078255,0.04610444605350495,0.3088988661766052,0.05869489535689354,-0.10253094136714937,0.04159464687108993,0.0389283075928688,-0.17151293158531186,0.007013962604105473,-0.0710567757487297,
		-0.2181362509727478,0.203399658203125,0.11238735914230345,0.14951327443122864,0.18138369917869568,-0.2765114009380341,0.04166654497385024,0.10681789368391038,-0.3345746994018554,0.007992585189640522,-0.027651101350784302,0.09248431026935576,-0.09858013689517975,0.06727012246847153,0.04990090429782867,-0.13563065230846402,0.15215010941028595,0.042101386934518814,0.02020924538373947,-0.10734423995018004,0.06300348788499832,-0.12965227663517,-0.15836311876773831,0.20483054220676422,-0.09781171381473537,0.022173609584569928,0.21831554174423215,0.1693185120820999,-0.13731172680854797,0.08518183231353758,0.1028568148612976,-0.23333048820495605,0.011038223281502722,0.16599741578102112,0.003521901788190007,0.20284515619277954,-0.10332964360713959,-0.0012347449082881212,0.2198560386896133,0.021223509684205052,-0.006353624165058136,-0.09784898161888121,0.24117337167263034,-0.18872140347957608,0.1411164402961731,0.05728248506784439,0.04150909185409546,0.053567368537187576,0.20649567246437073,0.1904948204755783,
		0.10898326337337493,-0.040771815925836556,0.09380888938903807,-0.032453641295433044,-0.06713121384382248,-0.048992838710546494,-0.16348260641098022,0.08778381347656249,-0.14455272257328033,-0.12141149491071697,-0.1215837225317955,-0.08140543848276137,-0.13603824377059937,0.08460927009582518,0.047921184450387955,-0.0897275432944298,0.020652346312999725,-0.06049439683556556,0.11697524040937425,0.01627280004322529,-0.03967084363102912,0.059627208858728416,-0.026473533362150192,-0.07568790763616563,-0.016449231654405594,0.1801064908504486,0.06692233681678772,0.20089760422706604,0.08443347364664076,-0.10020460933446884,0.11246656626462936,-0.236864909529686,-0.08759092539548877,-0.04324638843536377,0.049176391214132316,0.1736619472503662,-0.13826341927051541,-0.13762532174587247,0.07914107292890547,-0.06699526309967041,0.1711219996213913,0.09597351402044295,0.18420396745204926,0.1005893424153328,0.0676899328827858,0.15567675232887268,0.18604873120784762,-0.05352094396948814,0.046190749853849404,-0.05675720050930976,
		-0.005856626201421022,0.034901287406682975,0.05835090205073356,-0.1795291304588318,0.13617737591266632,0.002869880059733987,-0.2225462645292282,-0.08285404741764067,-0.1170631721615791,-0.17926426231861112,0.02790401317179203,0.1894626617431641,0.009855049662292005,0.12783089280128482,0.06523964554071425,-0.2211437672376633,-0.22022217512130735,0.007267937529832125,0.10071654617786407,0.10122718662023544,-0.10824700444936752,0.006569597404450177,-0.23031803965568545,0.0706176683306694,0.07847715914249422,0.12698525190353394,0.0090840021148324,-0.1331791877746582,0.025232985615730286,0.2490861564874649,0.08155103027820587,-0.12408235669136047,0.07689902186393739,-0.07540336251258849,-0.15317746996879578,-0.11474689841270448,-0.017318211495876312,0.094595268368721,-0.12881846725940704,0.1608421504497528,-0.01948948763310909,-0.016131654381752014,-0.0725630521774292,0.04477011039853095,-0.06887438893318176,0.23539063334465024,-0.2215464413166046,-0.14165015518665314,0.01766905002295971,-0.06351195275783537,
		-0.14097200334072113,0.2577768862247467,0.023517642170190808,-0.11293555796146393,-0.04409608244895936,0.0015774513594806194,-0.21487781405448916,-0.055303961038589484,0.01156907994300127,-0.1667463928461075,0.17406584322452545,0.2206435054540634,0.1462156772613525,0.07971468567848204,0.0538434237241745,-0.02235734835267067,-0.20427048206329346,-0.09661059081554414,0.015450247563421724,-0.05068089812994003,0.1140802875161171,0.18965534865856168,-0.14030252397060392,-0.13837768137454984,-0.07395417988300323,-0.007200239691883325,-0.13135826587677002,-0.00010085469693876802,0.18052075803279877,-0.03883161395788193,-0.08206114172935484,0.056239981204271317,0.010703265666961668,0.17951397597789762,0.08549115061759949,0.13871212303638455,-0.035233937203884125,0.014245523139834404,-0.07470179349184036,0.1762857288122177,0.08441317826509476,0.04201240465044975,0.022444764152169228,-0.0044827298261225215,0.026511810719966885,0.10781116783618927,-0.1529066115617752,0.07362502068281172,-0.009105609729886057,0.0892055034637451,
		-0.17445838451385498,0.244658038020134,-0.14887036383152008,0.13603699207305908,0.06707490980625153,0.016876397654414177,-0.284257173538208,0.03494790196418762,-0.16371673345565796,-0.07292355597019196,-0.002608126495033502,0.11126599460840224,-0.029168412089347836,0.23924522101879125,-0.08232168853282928,-0.1979603618383408,0.03136532008647919,0.09082441776990889,0.046530239284038544,-0.12552750110626223,-0.2131738215684891,-0.05538106337189674,-0.10553735494613647,-0.08788618445396422,-0.08448360860347749,-0.0687422752380371,0.06142397224903106,-0.061186082661151886,-0.1489032208919525,0.034805681556463235,0.11587779223918915,-0.11740015447139743,-0.13117851316928866,0.11569082736968993,-0.0304177924990654,-0.0031617642380297184,-0.1584845781326294,-0.0576132833957672,0.22383601963520047,-0.010997572913765907,0.015907706692814823,-0.0698968917131424,0.3241054713726044,-0.0980762466788292,-0.2203118205070496,-0.021447692066431042,-0.03231046721339226,-0.10204324871301651,-0.0491189882159233,-0.04933349043130874,
		-0.03991851955652237,0.11293743550777438,-0.09849399328231812,0.1665704995393753,0.11153272539377213,0.07406915724277496,-0.09117817878723143,-0.019016386941075325,-0.1577330082654953,0.042394097894430154,0.06649202853441238,-0.11720842123031615,0.08237966895103455,-0.09185164421796799,0.04903590306639671,-0.016789963468909264,-0.12778088450431824,-0.14102095365524292,-0.1273457109928131,-0.016485845670104023,-0.014399706386029719,-0.06100669875741005,-0.06773301213979721,0.12380093336105348,0.08705992996692659,-0.05269786715507507,0.2172065824270248,-0.003369866171851754,0.07150095701217651,0.1556200236082077,0.1915808469057083,-0.13517446815967563,-0.1381378173828125,-0.004656764212995768,-0.13129283487796786,0.029650641605257988,0.005103445146232843,0.03299356997013092,0.11546207219362258,0.08283419907093048,0.12831825017929074,0.11615874618291855,0.19985441863536835,0.11430095881223677,0.2322893142700195,-0.025986569002270695,-0.009062002412974834,-0.11780114471912385,0.22528779506683344,-0.07557717710733414,
		0.04174439236521721,0.1133248433470726,-0.1530206799507141,-0.14031383395195007,0.26495638489723206,-0.10681559145450592,-0.011909072287380695,0.01209901552647352,-0.2517843544483184,0.0568646416068077,-0.1655910164117813,0.06405802816152574,-0.04988943412899971,-0.11461883038282393,-0.07287822663784027,-0.05674760788679122,-0.11419694870710373,0.08723816275596617,0.049949318170547485,-0.006875680293887854,-0.0864640399813652,-0.13904736936092374,-0.11577926576137546,-0.13351680338382724,-0.08705580979585646,0.16948866844177246,0.15513546764850616,0.17820776998996732,-0.09229683876037595,0.18101736903190607,-0.08496711403131486,-0.11071283370256425,-0.06135815754532814,-0.029184756800532338,0.18637922406196594,0.2181929647922516,-0.04298684746026993,-0.07348793745040894,0.03899891674518585,0.15725505352020264,-0.12335626780986783,0.18163058161735532,0.2072077989578247,-0.02595294453203678,0.006448195781558752,0.10080353170633315,0.03306523710489273,-0.10791553556919098,0.10021158307790755,-0.14339587092399594,
		0.18173083662986755,0.08399951457977295,0.029270898550748825,-0.04224177077412605,0.03140346705913544,-0.12477342039346695,-0.10825405269861219,-0.018667379394173626,-0.1081869751214981,0.07249271124601364,-0.10995254665613174,-0.024196285754442208,0.17998751997947693,-0.12192334979772568,-0.10099968314170835,-0.24905458092689514,-0.01782090961933136,0.012353431433439255,-0.07867323607206343,-0.13173751533031464,-0.15492285788059235,0.038077212870121,-0.07578024268150328,0.003476457903161645,0.11352863907814024,0.05338191241025925,0.07175151258707048,0.025095019489526745,-0.1555391997098923,-0.04295858368277549,0.09539559483528134,-0.021979672834277156,-0.18558941781520846,0.16358040273189542,0.0614246279001236,0.1346457153558731,0.08740705996751785,0.0534086599946022,0.051420394331216805,0.046397920697927475,-0.11851225793361665,0.10859211534261703,0.011910663917660713,-0.09575631469488147,0.03835932165384293,0.10779888927936554,-0.10963471233844756,0.03734951466321945,0.08612535893917082,-0.16918566823005676,
		-0.13256631791591644,0.2243154942989349,0.012163287959992882,0.10524147748947144,0.11884023994207382,0.06282292306423187,-0.05694936215877532,0.14904949069023132,-0.19050703942775726,-0.025252498686313633,0.16387248039245603,-0.10968594253063202,0.1478258967399597,-0.03440799564123154,0.15067337453365326,-0.3093520700931549,0.12263985723257065,-0.08640716969966887,-0.10892942547798157,0.06993122398853302,0.1171374320983887,0.13112606108188626,-0.14011791348457334,-0.21886342763900762,-0.19842064380645752,0.18748839199543002,0.01262701489031315,0.06430180370807649,0.11569295078516008,-0.1337110698223114,-0.173893541097641,0.017038831487298012,-0.1726785898208618,-0.02735314704477787,-0.06431162357330321,0.060014799237251275,0.16470904648303986,-0.13340124487876892,0.08342909067869185,0.14447009563446045,0.17092344164848328,-0.04393164813518524,0.09710926562547684,-0.0516681969165802,-0.09110890328884123,0.21382920444011688,0.02334550023078918,-0.20115371048450467,-0.11397038400173187,-0.118918240070343,
		-0.1950392425060272,0.183020293712616,-0.019305231049656868,0.055869318544864655,0.033470269292593,0.060189642012119286,-0.15222232043743134,0.13026100397109985,-0.2381504029035568,-0.14445140957832334,0.10915519297122957,0.009838149882853031,-0.17038795351982114,0.2133840620517731,-0.029446633532643325,-0.07710714638233183,-0.1076209619641304,-0.053299594670534134,0.034008949995040894,0.10334985703229904,-0.07275927066802976,0.13904765248298645,-0.17366574704647064,-0.039691194891929626,-0.2788734138011933,0.11428147554397584,-0.034632861614227295,-0.1911767274141312,-0.026231821626424786,0.004508791957050561,-0.23165728151798246,-0.19952008128166202,0.1443643569946289,0.11236634850502016,0.05120168998837471,-0.0712800845503807,0.008667220361530779,0.011906474828720093,-0.13999950885772702,-0.10476851463317872,-0.021917827427387238,0.07825280725955963,0.16366736590862274,0.1145939826965332,0.09481766819953917,-0.12956789135932922,0.19910478591918945,0.10574138909578323,-0.006948644760996104,0.02563164383172989,
		-0.12223556637763976,0.2421493828296661,0.20405113697052,-0.10656153410673139,-0.014895203523337841,-0.06044983863830568,-0.0886276662349701,0.10695062577724457,0.04279077425599098,0.11122059077024461,0.08235803991556166,0.042714390903711326,0.11068847030401228,-0.12078893929719928,0.049507055431604385,-0.2011824697256088,-0.18414559960365293,-0.009626929648220543,0.17366687953472135,-0.26374855637550354,0.12284648418426512,0.0711057111620903,-0.022190982475876805,-0.08901381492614746,-0.14434167742729187,0.173472598195076,0.0838858038187027,0.008064726367592812,-0.19865481555461886,-0.033742435276508324,0.14723268151283264,-0.08619297295808792,-0.108639657497406,0.19424419105052948,-0.09361267834901808,0.1518172472715378,0.16480344533920288,-0.024121936410665512,0.1305560767650604,0.0508854053914547,-0.07687085866928099,0.146724671125412,0.14977917075157166,-0.13037018477916718,0.047217514365911484,0.1511363983154297,0.1014527678489685,-0.17172776162624356,0.04544205591082572,-0.32768338918685913,
		-0.007655363995581865,0.015025979839265347,0.04710433632135391,0.028939405456185337,0.0729404166340828,0.12240777164697647,-0.15167710185050962,-0.11116401851177216,-0.07523301988840103,0.1978465467691421,0.3141219615936279,0.12225253880023958,-0.070887990295887,0.08418986201286317,0.2112287282943725,0.02882993407547474,0.051547810435295105,9.937967843143268e-05,-0.06828250735998155,-0.050757408142089844,0.14012834429740906,0.09146500378847121,0.08351308852434157,0.2108987867832184,0.17197388410568237,-0.06444516777992249,-0.19118005037307736,0.013182373717427252,0.05469100549817085,0.11728937178850173,0.028968155384063717,-0.035365447402000434,0.19578793644905088,0.22009539604187006,0.10545902699232099,-0.011047301813960077,-0.11531178653240205,-0.11536476761102672,0.1699677109718323,-0.003597296075895429,-0.1797126531600952,-0.05224738270044327,0.2846413552761078,-0.010943926870822906,0.008497703820466995,-0.0029436338227242236,0.22022971510887143,0.04177815839648247,-0.003466715570539236,-0.08602572977542876,
		-0.10652592033147812,0.1966641992330551,0.13057121634483335,0.05595684424042702,0.13699087500572207,0.1834727078676224,-0.07029248774051666,0.04204212129116058,0.018869834020733837,-0.0425647534430027,0.23017022013664246,0.11516140401363373,0.07930722832679746,-0.02659079246222973,0.0864400938153267,-0.028682017698884007,0.21878157556056976,-0.14376027882099152,-0.01989835686981678,-0.15564988553524015,0.13668623566627502,0.028012534603476524,-0.038980577141046524,0.02649150416254997,0.1858951300382614,-0.13761645555496219,-0.16327115893363953,0.168144553899765,0.10914191603660583,0.05882377550005913,-0.028639055788517,0.09366931021213533,0.11132808029651642,0.2311574816703796,0.30723297595977783,0.20146787166595456,0.05435682833194733,-0.08294472843408583,-0.11799060553312303,0.056418281048536315,0.1653899848461151,0.030318094417452805,0.21513134241104126,-0.13738156855106354,0.04166702926158905,0.019322397187352177,0.025283383205533024,-0.09205739200115202,0.04885685443878174,0.03025551326572895,
		-0.04715081676840782,0.057734914124011986,0.1839190423488617,-0.09565307199954985,-0.03659585490822792,0.023562571033835408,-0.044770441949367516,-0.17373549938201904,0.0021535067353397603,-0.016041111201047897,-0.04105039685964584,-0.10855790227651596,-0.16470116376876834,0.10801424831151961,-0.10213886946439744,-0.03571262583136558,0.06934120506048203,0.0821937546133995,-0.04014839977025986,0.02222448773682117,0.04125256091356277,-0.04571741074323654,0.019967846572399136,0.056253593415021896,0.09689942002296448,-0.08449739217758177,0.20844447612762448,0.08119210600852966,-0.05303826928138732,0.13665328919887543,0.06425739824771881,0.23536346852779386,-0.031322341412305825,0.0008513537468388674,-0.14974212646484378,0.16579686105251312,-0.05921760946512222,0.15715834498405454,0.1756354570388794,0.1107250079512596,0.18320313096046448,0.060707647353410714,-0.09071689099073409,0.06486486643552779,-0.08048397302627563,0.2637556195259094,0.1604841649532318,0.14862093329429624,-0.021263074129819873,0.021861752495169636,
		0.036508969962596886,-0.08529680222272873,-0.11472108960151672,-0.035681802779436105,0.15302890539169312,0.0054051466286182395,-0.18831954896450043,-0.2704019248485565,0.05100439116358758,-0.05683111399412154,0.27974265813827515,0.04235611483454704,-0.16865037381649017,-0.14092352986335752,-0.20127137005329127,0.08250115811824799,0.16885340213775635,-0.15160028636455536,-0.10518817603588104,-0.16895128786563873,0.0021509423386305566,-0.15310777723789215,-0.03644600883126259,0.2065567821264267,-0.0676957219839096,-0.209421381354332,-0.0959051251411438,0.11058608442544936,-0.09101971238851549,-0.07252795994281767,-0.06824532896280289,0.08737864345312117,-0.012077014893293377,0.09369358420372008,0.12486092746257782,0.09587839245796205,-0.13528241217136386,0.1141202375292778,-0.06873216480016707,0.017078202217817307,0.1274559199810028,0.13690315186977384,-0.15097343921661374,-0.16428497433662412,0.21105661988258362,-0.0547100082039833,-0.104838527739048,-0.09899025410413742,0.0686287134885788,-0.12309088557958603,
		-0.04779500886797905,0.18939033150672913,-0.014515125192701818,0.04392774403095245,-0.0400538332760334,0.1828642934560776,0.10098790377378464,-0.2491878420114517,0.17231005430221555,-0.041486084461212165,0.16336593031883237,-0.18387137353420255,0.07443857938051224,0.08243187516927719,0.1526927351951599,-0.14253036677837372,0.030736060813069344,0.1202048510313034,-0.11964768171310425,-0.19304613769054407,-0.17414399981498718,-0.2540951371192932,0.008338957093656063,0.07647520303726195,0.26379212737083435,-0.24678799510002136,0.2468187063932419,-0.07975517958402634,-0.10472860932350159,0.05590695515275002,0.20387512445449826,0.036620676517486565,-0.21392688155174253,-0.10621671378612518,0.08828521519899367,-0.12380073964595792,-0.00856800191104412,0.04136246070265769,0.05058849602937698,-0.16233059763908386,-0.0945892855525017,0.03432781621813774,0.03180125728249549,0.08310088515281676,0.15431922674179074,0.06766220182180403,0.028233552351593968,-0.16081655025482175,-0.07856000959873198,-0.12663033604621887,
		-0.20322553813457486,0.15754804015159607,-0.2002621442079544,0.1833568513393402,0.02733518369495869,-0.033146273344755166,0.08893723785877228,-0.24258188903331754,0.03961954265832901,-0.1568726897239685,-0.05199852958321571,0.13294255733489993,-0.07310429960489273,0.04146559536457062,0.23662568628788,0.005813545547425746,0.1285676211118698,0.06566525995731354,0.10323342680931091,0.008616346865892409,0.18217532336711886,-0.26613429188728327,-0.16879086196422574,-0.05657766759395599,-0.09737375378608704,-0.2122783660888672,0.248919203877449,0.11955516040325168,-0.032700136303901665,-0.1749861538410187,-0.08167285472154617,0.2517771124839783,0.023131182417273518,0.044596225023269646,0.008128720335662367,0.12372947484254836,-0.02328314632177353,-0.05872618034482002,-0.096760630607605,0.015683896839618683,0.1608181893825531,0.15199753642082214,-0.11163932830095293,-0.051264744251966476,0.1958393156528473,-0.0037126424722373494,0.29456016421318054,0.13598763942718506,0.0629660040140152,-0.017096519470214847,
		-0.1218881905078888,0.05884306877851486,0.029317261651158333,-0.2219673544168472,-0.10325925052165984,-0.13303953409194946,-0.13544420897960663,-0.06377453356981276,-0.14800375699996948,-0.005291358567774296,0.20841714739799494,0.02194858156144619,-0.024713372811675075,0.019494736567139622,-0.09762752801179884,0.017437228932976723,-0.01143363118171692,-0.07124897837638856,0.061800211668014526,-0.0437852256000042,0.08984439074993132,0.07711949944496153,0.015195141546428207,0.1371881067752838,-0.15723048150539398,-0.12799307703971863,-0.1561162769794464,0.17235127091407776,0.027962746098637577,0.08758589625358582,0.1804040819406509,0.2394901216030121,-0.22405937314033508,0.07301989197731018,0.22850027680397034,-0.09215246140956877,0.13086675107479095,-0.07552435994148254,-0.06545166671276094,0.1213397905230522,-0.15618224442005155,0.013678607530891897,-0.0043425955809652805,0.10880049318075181,0.04485408589243889,-0.09509553760290143,-0.03822499141097069,0.003335264045745134,-0.023191241547465324,-0.03314801678061485,
		-0.051435306668281555,-0.014905164949595928,0.10870219767093657,-0.015387267805635927,0.22319935262203214,-0.10266002267599103,0.026936145499348637,-0.14450736343860626,-0.12813444435596466,0.07834666967391968,0.1262332797050476,0.19124321639537809,-0.12080682814121248,0.17438797652721405,0.0014823330566287039,0.013794346712529661,0.01986333355307579,-0.08892048150300978,0.025662330910563472,-0.13606145977973935,0.1844259053468704,-0.1353667080402374,0.047157611697912216,0.15245236456394196,-0.06596922874450684,-0.20680686831474304,0.16314631700515747,-0.00923863425850868,-0.14568886160850525,-0.02584232948720455,0.05921512842178345,0.30191078782081604,-0.1948002874851227,0.18227285146713254,-0.0654720664024353,0.07404255121946336,-0.09746241569519043,-0.1816800385713577,0.15248247981071472,0.1477879136800766,0.01388199720531702,-0.10625066608190536,0.009709222242236136,-0.17156308889389038,-0.03898355737328528,-0.13410227000713348,-0.023006225004792213,-0.10871243476867676,0.177594318985939,-0.08037240803241728,
		-0.11060895025730132,0.030048539862036705,0.02599004283547401,0.06902316212654112,-0.13545466959476474,-0.04347264766693115,0.2137304395437241,-0.10044994205236435,-0.1378960609436035,-0.018208695575594906,0.0054311142303049564,0.14278392493724823,-0.16823863983154297,0.1061394587159157,0.1180381178855896,0.1129331290721893,-0.14112451672554016,0.11590932309627534,-0.07096871733665465,-0.08242157101631165,-0.04250435531139374,-0.10235252231359482,-0.01152200438082218,0.09654755145311357,0.024506356567144397,0.1125224158167839,-0.20037025213241574,0.10751201957464218,-0.16732773184776306,0.020432952791452408,-0.007058876100927592,0.2125028222799301,-0.08637578040361404,0.08091290295124055,-0.028116699308156967,0.16732066869735715,-0.18261004984378812,0.03787480667233467,-0.022484349086880687,0.08127812296152115,-0.056432634592056274,0.02346307411789894,0.1714104413986206,-0.06786563247442247,-0.0682273507118225,-0.049296576529741294,0.24738577008247375,-0.0009404597803950307,0.03561278805136681,-0.012479188852012157,
		-0.0609416514635086,-0.014660146087408062,0.1776735484600067,-0.00936238095164299,-0.05723677203059197,-0.13682226836681366,-0.2078088968992233,0.012740775011479855,-0.06489552557468414,-0.09729495644569397,-0.09743057191371918,0.06424827873706818,-0.10238093137741087,-0.10752839595079422,-0.02881920337677002,0.1911513060331345,-0.011065617203712463,0.06267710775136949,-0.15563482046127322,-0.06725573539733888,0.09390290826559067,-0.1643601953983307,-0.15753503143787384,-0.09385495632886887,0.017613023519515995,0.044066574424505234,-0.0678374171257019,-0.06573542952537538,-0.16506467759609222,0.10942213237285615,-0.07213358581066132,0.25452837347984314,-0.09229315817356107,0.01628546230494976,0.037299878895282745,0.17709201574325562,0.03242584317922592,0.034766554832458496,0.11854778975248335,0.1467268019914627,0.12356595695018767,0.1531081646680832,-0.12751753628253934,0.11861128360033038,0.1707691252231598,-0.038776107132434845,-0.06789860874414444,0.19948633015155792,-0.03762855753302574,0.0670885220170021,
		0.03285021334886551,-0.05113119632005692,-0.03105873242020607,-0.10694183409214018,0.022500373423099518,-0.06306100636720656,-0.08224527537822722,-0.2761500477790832,0.13297136127948764,0.12915322184562686,0.06765788793563843,-0.1520002782344818,-0.180011048913002,-0.22199317812919614,-0.04481269419193268,0.08461805433034895,-0.009510571137070656,-0.1239446625113487,-0.021131100133061406,0.03336058557033539,0.15176737308502194,-0.11737898737192153,0.06578952074050902,-0.11455384641885757,-0.0619855634868145,0.025564683601260185,-0.0879601016640663,0.03655099123716353,-0.2085856795310974,0.16334804892539978,0.036040734499692924,0.12634292244911194,-0.11146794259548189,0.005948635283857584,0.14605090022087097,0.11316866427659987,-0.05346437916159629,-0.07392648607492448,0.24749217927455905,0.19376645982265472,0.13973569869995114,0.1647258698940277,0.15525093674659726,-0.0507347583770752,-0.08101935684680937,-0.01773872971534729,0.094391368329525,0.1464567482471466,0.016444608569145203,-0.08792512118816374,
		-0.2822999060153961,-0.11670683324337003,-0.05189094692468643,0.12620319426059723,-0.01755673810839653,0.09494955837726593,0.08060994744300841,-0.20370140671730042,-0.1122119054198265,0.11149410158395767,-0.011555640958249569,0.17782558500766754,-0.11584784090518953,0.13406085968017578,-0.2009863257408142,0.19021210074424744,-0.06081073731184005,0.04747422784566879,0.09089624881744383,-0.1977711319923401,-0.11010880023241043,-0.23199088871479034,0.19434212148189542,-0.0683763399720192,0.1476815491914749,-0.059534341096878066,0.0056852619163692,0.09164834767580032,-0.06685849279165268,-0.2378728240728378,0.1620904356241226,0.20152537524700162,-0.04152232035994529,-0.04894175007939338,-0.005488368682563306,-0.15956892073154447,0.004669105168431997,-0.1306275427341461,0.15634435415267942,0.06542216986417769,-0.06825170665979384,-0.1473303586244583,0.1011558398604393,-0.24017572402954096,0.12616847455501554,0.1400652676820755,0.1010521724820137,0.13168033957481384,-0.1385888606309891,-0.006901418324559927,
		0.020495196804404255,-0.062213752418756485,-0.04939186945557594,-0.023029651492834088,-0.08411628752946852,0.038866754621267326,0.05001007393002511,0.05248234048485756,0.10923615843057632,0.02956891618669033,0.08981910347938538,0.0338357649743557,0.09009381383657457,0.08536660671234131,-0.0232264082878828,0.15042343735694882,0.02148438058793545,0.0045920773409307,-0.18437664210796356,0.10516171157360078,0.19724470376968384,-0.2075781226158142,-0.11311677098274232,0.031652346253395074,0.11212661862373352,-0.0701202228665352,0.12847068905830386,-0.018101559951901436,-0.01765289343893528,-0.09695900231599809,-0.12619204819202426,0.13011828064918518,-0.22044229507446286,0.047691002488136285,-0.06061428040266036,0.1493314504623413,-0.03574645519256592,-0.11018724739551544,-0.07893460988998413,-0.21328020095825198,0.09491585940122604,0.049978576600551605,0.01918939873576164,0.007806970272213221,-0.05824682489037515,-0.14597681164741516,0.15419763326644895,0.05869473516941071,-0.04921798035502433,-0.032309114933013916,
		0.0743081718683243,0.189764067530632,-0.043437793850898736,-0.13790351152420047,-0.0037924991920590396,0.13466157019138336,0.1939634084701538,0.07315169274806976,-0.11481959372758865,0.009350708685815334,0.09471071511507034,-0.18394511938095087,0.04301944375038146,-0.14302341639995575,0.14315447211265567,-0.0231392253190279,0.006860313005745411,-0.18135467171669006,-0.18456402420997614,-0.09719378501176834,-0.0810984820127487,-0.041146565228700645,0.1672941297292709,0.08607829362154008,0.03870132938027382,0.1071341335773468,0.03898220881819725,-0.08459990471601486,0.1090555340051651,0.0842036157846451,0.007621144875884056,0.14946989715099335,-0.02426131442189217,0.14835162460803986,0.059761583805084235,-0.09306152164936066,-0.002600715495646,-0.18430097401142118,-0.020107269287109375,-0.0015742393443360925,-0.06917566061019897,0.0416724644601345,0.097345769405365,-0.00392464268952608,-0.09166721999645233,0.05964326485991477,-0.07380902767181395,0.044622138142585754,0.0026188085321336985,-0.19980843365192413,
		-0.018855631351470947,0.07828447222709654,-0.03911195322871208,0.09027882665395737,0.15250773727893827,0.07882992923259735,0.08661798387765884,-0.12242068350315093,0.12563508749008176,0.22624462842941284,-0.08927256613969803,-0.031628023833036416,-0.16522030532360077,-0.15339899063110352,-0.0983814522624016,0.10545000433921813,0.14257384836673734,0.1315069943666458,0.03106069937348365,-0.06364895403385161,0.05575209110975265,-0.29493519663810724,0.20701199769973758,-0.06707359850406647,0.10208867490291597,-0.2458139955997467,0.05508512258529663,-0.08816027641296385,0.003498143749311566,-0.17217892408370972,-0.0728938952088356,0.2365817576646805,-0.19142919778823847,-0.09643319249153136,-0.040366817265748985,0.0935039073228836,0.0984363853931427,0.18861220777034757,0.1393248289823532,-0.09333978593349457,-0.16196338832378387,-0.1288883239030838,-0.06173644587397576,-0.10313056409358977,-0.17378059029579163,0.04329349100589752,0.05116920545697212,0.09031274914741516,0.11586785316467282,0.053209427744150155,
		-0.0881248489022255,-0.1910170018672943,0.2574502825737,-0.00817208644002676,0.10788799822330473,-0.08403382450342176,0.1382330358028412,-0.2584809362888336,0.15128283202648163,0.057675525546073914,0.011799510568380354,0.06402906775474548,-0.1634903997182846,0.14549580216407776,-0.07596785575151442,-0.03220438957214356,0.1441803574562073,-0.04317793250083923,0.17546138167381287,0.1398914009332657,-0.01582394354045391,-0.17613698542118073,0.10126380622386931,0.11481472849845888,-0.016799895092844963,0.09358502179384233,0.0623689666390419,-0.09455923736095426,-0.11976230889558792,-0.17950281500816345,0.02293001301586628,0.1704022586345673,-0.22097562253475186,0.04514733701944351,-0.029853871092200283,-0.19500589370727536,0.03610708937048912,-0.0480629988014698,-0.06308025121688843,0.031778380274772644,0.0650997757911682,0.1744699776172638,-0.06818084418773651,-0.04807404801249504,0.009960013441741465,-0.04799503087997437,-0.06559944152832031,0.058344021439552314,-0.0721312239766121,-0.18059939146041873,
		0.13061103224754333,0.06227072328329088,0.237590879201889,0.15624135732650754,-0.10223688185214995,-0.193253830075264,-0.037777826189994805,0.024475170299410823,-0.08119700103998184,0.1547680050134659,0.18248407542705533,-0.0554010197520256,0.15321524441242218,-0.2564803659915924,-0.051180757582187646,0.3150119483470917,0.040607448667287833,-0.19273321330547327,0.17982596158981326,0.07027982175350189,-0.044152677059173584,-0.16285008192062375,0.022812185809016228,0.1587209105491638,0.15514089167118073,-0.08213899284601212,-0.08853534609079361,0.011901537887752056,-0.1694091260433197,0.1157876178622246,0.09733862429857255,0.04884510487318039,-0.22394625842571259,-0.13020858168601987,-0.15440279245376584,0.010814422741532324,0.14562614262104034,-0.15674084424972534,0.019948227331042286,0.06292936205863953,0.18679840862751007,-0.032926946878433234,0.2101613134145737,-0.020221926271915436,0.10774338990449904,-0.09374204277992247,0.015283627435564993,-0.0578329898416996,-0.10556774586439133,0.12149932980537415,
		-0.10994536429643632,0.05986640229821205,-0.21533876657485956,0.006792536005377769,-0.12633703649044034,0.1519363671541214,-0.27765154838562006,-0.14954040944576263,0.01693787612020969,0.06495018303394319,0.10092414170503616,0.030574457719922062,-0.03330396860837937,-0.15028806030750275,0.0764191821217537,-0.1964661329984665,0.13623125851154327,0.08150345087051392,0.08006036281585692,-0.1202368289232254,0.08134975284337996,-0.038251299411058426,-0.1167200356721878,-0.16387049853801727,-0.144123837351799,-0.011847834102809426,0.047063346952199936,-0.07610618323087692,0.02683433890342712,0.06747445464134216,-0.22838701307773596,0.2214288264513016,-0.06535863876342772,0.006727616302669048,0.2279436439275741,-0.04484014585614205,0.008860643021762371,-0.0617748498916626,-0.1438126415014267,-0.2431427538394928,0.27722916007041926,0.050013117492198944,0.02685450576245785,-0.1449778378009796,0.0847444012761116,0.03989282995462418,-0.007527829613536595,-0.09383744746446607,0.2228887677192688,-0.15604043006896973,
		0.0733623057603836,-0.07686616480350494,0.11081374436616896,0.1102682501077652,0.09233729541301727,0.09497997909784317,-0.009741448797285557,-0.066999115049839,0.08955809473991394,-0.18541754782199854,0.22283673286437988,-0.17335674166679382,-0.10150822252035141,0.01755732111632824,-0.15183109045028684,0.19671961665153506,0.034686129540205,0.15681874752044675,0.12363529205322263,-0.012590638361871243,0.07813679426908493,-0.05066780745983124,0.08789740502834319,0.14422966539859772,-0.14741414785385132,-0.03456805273890495,-0.08649251610040663,-0.1628856956958771,-0.12367887794971465,-0.07268084585666656,-0.1777215451002121,0.09264522790908813,0.004316556733101606,-0.19408597052097318,0.1260390132665634,-0.01911584846675396,-0.044292010366916656,-0.21249058842659002,-0.0402764193713665,-0.08575454354286195,0.20332179963588717,-0.12404526770114897,-0.19543975591659546,-0.18465048074722287,-0.13386262953281403,-0.2322510778903961,0.048978757113218314,0.14356054365634918,0.16250933706760406,0.1254861056804657,
		0.049666415899991996,0.11987766623497008,0.0018283927347511055,-0.06763890385627747,0.15008573234081268,0.06697022914886473,0.09261583536863328,0.08306317776441575,0.1727001965045929,0.05659341067075729,-0.19822855293750757,-0.13939908146858218,0.1614648699760437,0.05559759587049484,-0.09662661701440813,-0.02659517712891101,0.0059242877177894115,-0.18122485280036926,0.16636931896209714,-0.1163155436515808,0.07706991583108902,0.2513541579246521,0.05781754478812218,-0.03370552510023117,-0.045564156025648124,0.05236751213669776,0.18957355618476868,0.0017373441951349378,-0.19974590837955475,0.19998005032539368,0.017992446199059483,0.0025776510592550044,0.023678623139858242,-0.21790978312492368,0.1534193456172943,0.15822033584117887,0.2378121465444565,0.2018664628267288,0.20698523521423334,-0.02609464898705482,0.09528103470802307,-0.13221141695976255,-0.22338949143886566,-0.10143317282199858,0.2305932939052582,-0.1575123816728592,0.07935575395822525,-0.12814325094223022,0.13168852031230927,-0.09418965131044389,
		-0.0964038670063019,-0.046597134321928003,-0.22336144745349884,0.030376724898815155,-0.04319514706730842,-0.09173299372196196,0.15950269997119906,0.008820980787277222,-0.21834053099155426,0.03774408251047135,0.10632123798131943,-0.11086027324199677,0.08527333289384843,-0.15840670466423032,-0.03396674990653992,0.2653156220912933,-0.045933812856674194,-0.04434584826231002,-0.20603320002555847,-0.021096300333738327,-0.13429132103919986,-0.1756441444158554,-0.005006910301744938,0.10976441949605939,0.063432477414608,0.04017790779471397,0.15186260640621185,0.055070456117391586,-0.07710766047239302,0.19547753036022184,0.04086810722947121,0.15640585124492642,0.0910535454750061,0.01707170158624649,0.08981213718652724,0.18988293409347531,-0.16477979719638822,0.06195034831762314,-0.10900792479515076,-0.07322309911251068,-0.14895132184028625,-0.0915958359837532,0.0993458181619644,0.11727142333984375,0.23334912955760956,-0.2022027671337128,-0.11159580200910567,0.017300760373473167,-0.06400932371616364,0.16510166227817535,
		0.07849401980638504,-0.07256054878234862,-0.232962965965271,0.10548824816942216,-0.20232112705707553,0.138546422123909,-0.124432735145092,-0.15451163053512573,0.003230641596019268,-0.199410617351532,-0.08298129588365556,0.0347052775323391,0.035133495926857,-0.17515638470649722,0.15629656612873075,0.2461797446012497,-0.1759648025035858,-0.1290290504693985,-0.08103804290294646,-0.016145022585988045,0.1369112282991409,-0.234265387058258,0.22955164313316345,0.1402759552001953,0.21434324979782104,-0.1222405955195427,-0.019852522760629654,-0.08935078233480452,-0.010686649940907955,0.10972469300031662,0.07238005846738815,0.11601672321557997,0.06652188301086424,-0.23432712256908414,0.008049423806369305,-0.006377805955708027,0.05878976732492446,-0.026752192527055737,0.019011961296200752,-0.24766290187835696,-0.0322115570306778,0.08808935433626175,-0.11508595943450928,0.16424837708473203,-0.17254097759723666,0.20260286331176763,0.24133569002151484,-0.03191418945789337,-0.02307308837771416,0.12080467492341995,
		0.0874563157558441,0.16570547223091123,-0.12651275098323822,-0.0555119514465332,0.03744190931320191,0.15166319906711578,0.07041416317224504,-0.13414441049098969,0.04318543896079064,-0.19954988360404968,-0.0635983869433403,0.07283130288124083,-0.1119474321603775,-0.0607662945985794,0.15792471170425415,-0.09059824049472809,-0.23363621532917025,0.13631993532180786,0.008021600544452667,-0.1253765970468521,-0.11157745867967604,-0.21248334646224973,0.09412542730569841,0.12012099474668503,0.11742033809423448,0.06414653360843658,0.2338349372148514,-0.034276705235242844,0.1600937694311142,0.04134165123105049,-0.0578589104115963,0.21143278479576114,-0.13349451124668119,0.08360787481069566,0.04220816493034363,-0.03751282021403313,0.013289044611155987,0.03767698630690575,-0.11118950694799423,0.13477715849876404,0.041467722505331046,-0.10774320363998413,-0.18389458954334256,0.1137823686003685,-0.09640277922153474,-0.08193638920783998,-0.07170851528644563,-0.08486706018447877,0.21464104950428006,-0.08381894230842592,
		0.2266976088285446,0.22200408577919006,-0.19005841016769406,0.09698513895273207,0.016730399802327156,0.14861242473125455,-0.12309197336435318,0.08405984938144685,0.15158674120903015,0.09727529436349867,-0.16480520367622375,0.22304584085941315,0.009257555007934569,-0.11222369223833085,0.07669965922832489,-0.18258033692836761,0.027770727872848514,-0.22360529005527496,0.03154373541474342,0.22596462070941925,-0.05932193621993065,-0.14280456304550174,0.24319863319396964,-0.06355160474777222,0.20549580454826355,0.13014070689678192,-0.06386486440896989,0.1985899955034256,0.07029642909765244,-0.14872714877128604,-0.08817937225103378,0.10755308717489241,-0.02022919058799744,0.04179340228438377,-0.10043853521347045,0.06015574559569359,0.16477063298225403,0.05653462931513785,-0.09783219546079636,-0.13290147483348846,0.16892044246196744,0.12267153710126877,0.04687132686376572,0.19133897125720975,-0.2267065048217773,0.04827824234962464,-0.06436184048652649,-0.014910085126757618,-0.011487390846014021,-0.08605031669139863,
		0.03982684761285781,0.09340573847293851,0.05682166293263436,0.07274030894041061,-0.014136839658021925,-0.012908945791423319,0.05391845852136612,-0.11216806620359421,0.15444020926952362,0.2380184531211853,-0.05086785927414894,0.1359557956457138,0.07481121271848679,0.20761439204216003,-0.20283071696758273,-0.2245249301195145,-0.026297101750969887,-0.008381618186831474,-0.17026862502098083,-0.02183127216994762,-0.13146913051605225,0.1169123128056526,0.1848565638065338,0.10323870927095412,0.003057783236727118,-0.04595879837870598,0.2096331417560577,0.025498339906334877,-0.1457376033067703,-0.014389852061867716,-0.09580379724502565,-0.03653040155768394,-0.03743271529674529,0.04793781787157059,-0.19685794413089752,-0.0376976616680622,-0.11211526393890381,-0.1593556851148605,0.050289250910282135,0.17984092235565186,0.023108454421162602,-0.15748490393161774,-0.06903974711894989,-0.0884702652692795,-0.024635545909404755,-0.02382702380418777,-0.1548537462949753,0.05950574204325675,0.21164551377296448,-0.005710909608751536,
		0.0810486823320389,0.09206771850585936,-0.09648990631103516,0.04876590520143509,-0.10176726430654524,0.03613380342721939,-0.16251738369464871,0.04403965547680855,-0.07730534672737122,0.06033039465546609,-0.17251560091972354,-0.021386206150054928,-0.07997891306877135,0.22177904844284058,0.10580711066722867,0.10994194447994232,0.050509843975305564,0.02859283052384853,0.041492629796266556,-0.03309145197272301,-0.04465934261679649,-0.134990856051445,-0.06352924555540085,-0.022477177903056145,-0.12333664298057552,0.02834733203053475,0.06148326024413109,-0.034314580261707306,-0.02174432761967182,0.13508829474449155,0.0565195120871067,-0.1650366336107254,-0.08641714602708817,0.1994975507259369,-0.06531117111444472,0.08572869002819061,0.03570066392421722,-0.15257219970226288,0.24940177798271174,-0.19954903423786163,0.12727372348308563,0.025351177901029583,0.11492952704429625,-0.051038403064012534,0.038169097155332565,0.024501511827111244,0.11137542873620987,-0.008308555930852888,0.15785852074623108,-0.05750631168484688,
		0.05519074201583862,-0.004468856379389763,-0.15275318920612335,-0.23126900196075434,-0.06640123575925826,-0.08903377503156662,0.2467690110206604,0.1160050481557846,-0.19411087036132807,-0.1349959224462509,-0.09604547917842866,0.06131209433078765,-0.13981613516807556,-0.1795687824487686,-0.009918609634041788,0.2439259141683578,-0.21347193419933316,0.1284458190202713,-0.21031397581100464,0.14762757718563077,-0.08690904825925826,-0.05232832580804825,0.0178013127297163,0.003587971674278378,-0.01570424623787403,-0.0717327445745468,0.07405359297990799,-0.2011253386735916,0.031886108219623566,0.07571417838335037,0.09267275035381314,-0.08958582580089569,0.22411938011646274,0.006461483426392078,0.2319893687963485,0.1152743324637413,0.1385159939527512,-0.014707512222230434,-0.002816862193867564,-0.08847814053297044,0.02507691271603107,0.012050381861627104,-0.00315865152515471,0.16622570157051084,-0.013141862116754057,-0.07227864861488342,-0.04037138819694519,0.2166815847158432,-0.06823189556598663,-0.09972070902585982,
		0.04129288345575333,0.0011103161377832291,-0.08255334198474883,-0.054293178021907806,0.020532382652163502,-0.022210462018847462,0.018242858350276947,0.14948347210884091,-0.18040364980697632,-0.025037307292222977,-0.031050182878971093,-0.02033507823944092,0.008830317296087742,-0.18840464949607846,-0.000398205651436001,0.1186983287334442,-0.19085299968719482,0.07139447331428529,-0.28743669390678406,0.12076517939567567,-0.1432306319475174,-0.06702058762311937,0.07731635868549347,0.11381208151578905,0.1322358697652817,0.1583544015884399,0.10149525105953217,0.1691697388887405,-0.08371341228485107,-0.013312047347426414,-0.1459512859582901,-0.0723333582282066,0.029437208548188213,0.09733485430479048,0.08577964454889297,0.10857331752777101,-0.15363579988479611,-0.0679051950573921,-0.0932402238249779,-0.006187688559293746,0.12055765092372896,-0.0791051611304283,-0.2535330057144165,0.10716693103313446,-0.015061719343066216,-0.04962261393666267,-0.15046805143356323,-0.021060626953840252,0.15344925224781036,-0.04144926741719245,
		0.05727813392877579,-0.05600035563111305,-0.11712125688791275,0.05220898985862732,0.104415625333786,0.21867646276950842,-0.11627839505672452,-0.21816951036453247,0.18932534754276276,-0.18040969967842105,0.1303742527961731,-0.08775039017200471,0.17013829946517944,0.023837829008698467,0.02899393625557422,-0.13861043751239777,0.0002991394721902907,0.14287570118904114,0.0649719387292862,0.1533541828393936,-0.192718505859375,0.192806214094162,0.056331470608711236,-0.02301425114274025,-0.18593741953372958,0.008904293179512026,-0.14857199788093564,-0.09443806111812592,-0.021495142951607708,-0.047848664224147804,-0.11892787367105485,0.13536344468593597,-0.06677463650703432,0.0626577213406563,-0.08592859655618668,0.1186137571930885,0.061826474964618676,-0.13342976570129392,-0.0682336613535881,0.10925380140542984,0.0697021335363388,0.1191197633743286,0.122555173933506,-0.04778249189257621,0.00633540377020836,0.14824840426445007,-0.022409893572330475,-0.20304976403713224,-0.11131828278303145,0.06783255189657211,
		-0.03503144904971123,0.1107552647590637,-0.1140953451395035,-0.013704524375498293,-0.0948430523276329,0.19142411649227142,0.01585174724459648,-0.005335003137588501,-0.04353841021656991,0.09483041614294052,-0.1025407537817955,0.0011234155390411615,-0.1185859441757202,0.09790772199630735,-0.0837538167834282,-0.2689412534236908,-0.17292633652687073,-0.1376821845769882,-0.03851020708680153,0.010293634608387949,0.06422159075737,-0.12210890650749208,-0.06568039953708649,0.02868242561817169,-0.0960620567202568,-0.0670868530869484,0.05385641008615494,0.03807806223630905,-0.014722793363034725,-0.13230852782726288,-0.14054515957832334,-0.11016283929347993,-0.0028030294924974437,-0.17142947018146515,-0.1737770438194275,-0.02219792641699314,-0.028666580095887188,0.12185977399349213,0.10617949813604355,0.14342236518859863,0.10214649140834807,-0.03977551311254501,0.17076635360717773,0.15279719233512878,-0.12337225675582883,0.004425476770848036,0.1753745675086975,-0.048833902925252914,-0.011917025782167913,-0.10216934978961943,
		-0.2490736097097397,0.03358204290270805,-0.014255982823669912,0.15791954100131989,0.14753153920173645,-0.023425498977303505,0.08159991353750227,-0.050881132483482354,0.013530507683753969,0.10174104571342467,-0.10997655987739564,0.21124994754791257,-0.1317206472158432,0.19124653935432434,0.0792919546365738,0.005617579910904168,0.14265200495719907,-0.12341929227113725,-0.22204633057117465,0.027484619989991188,-0.03198633342981338,-0.20225438475608826,0.20260436832904813,-0.13294337689876556,0.07380313426256178,0.02573513798415661,0.16527701914310458,-0.14195628464221954,-0.18022413551807406,-0.12445250898599625,-0.07612474262714387,-0.025262458249926564,-0.024868907406926155,-0.16299720108509064,-0.1532239466905594,-0.10468926280736925,-0.1940947026014328,0.17231515049934387,-0.045664012432098396,-0.16915346682071683,0.0897848755121231,-0.0372316800057888,0.06060745567083359,-0.15603452920913696,-0.13399569690227509,-0.16047289967536926,0.05230516567826271,0.0764865055680275,0.0066800559870898715,-0.08331575244665144,
		-0.09305450320243837,0.008820164948701859,-0.032598428428173065,-0.09221363812685011,-0.05748198181390762,-0.17362231016159055,0.13669312000274658,-0.08039769530296326,-0.058500684797763824,-0.020878097042441368,-0.13896302878856656,-0.004091015551239251,-0.1230105087161064,0.1451837420463562,0.07155413180589675,-0.05411586165428161,0.005079253111034632,-0.0007679184782318772,-0.02811550348997116,0.07969497889280319,0.12654720246791837,-0.03205752745270729,0.16757865250110626,0.18737073242664334,-0.038894690573215485,0.12310740351676945,-0.08631008863449097,0.13141116499900815,-0.007620533462613822,-0.18689568340778354,0.12373195588588712,0.07180187106132506,-0.10515800863504407,-0.128473237156868,-0.17815124988555908,0.069043792784214,-0.003970374818891287,-0.0372697189450264,0.0609918013215065,-0.04937496408820152,-0.1458480209112167,0.12196402251720427,0.04203390702605248,0.06598930060863496,-0.005679531954228878,0.05542343109846116,0.1307094693183899,-0.07196496427059174,0.20845846831798556,-0.17301110923290253,
		0.1572180539369583,-0.055296964943408966,-0.06928271800279617,-0.12923479080200195,0.042327240109443665,-0.05963055044412612,0.09041290730237962,0.07663633674383163,-0.17760781943798065,0.14164237678050995,-0.01966171711683273,-0.0414317287504673,0.047943033277988434,-0.09230858087539673,0.19663624465465543,-0.07630782574415207,-0.08144371956586836,0.04964074492454529,-0.160512775182724,0.035177379846572876,0.01960668154060841,-0.10892023891210556,0.1610835492610931,0.0573115199804306,-0.12696005403995514,0.11759806424379345,-0.08085615187883377,0.18817701935768127,-0.04794054850935936,0.1526067852973938,-0.09678927809000017,0.06715575605630875,-0.10970160365104675,-0.07703524827957153,0.0802517905831337,0.14572493731975555,0.07636868208646774,-0.004848926328122616,-0.2370504140853882,0.019909506663680077,0.09734907746315001,0.08409749716520308,0.044023025780916214,-0.0044429153203964225,0.088037833571434,0.11065986007452012,-0.02422216720879078,0.049174718558788286,0.02640476077795029,-0.0633707046508789,
		-0.08877909183502196,0.15669946372509003,0.1404891759157181,-0.21768473088741305,0.08180371671915054,-0.13536007702350614,-0.2266959547996521,-0.14490829408168793,0.10792704671621321,-0.06495167315006257,-0.10849276930093764,0.19045513868331906,-0.0813494622707367,-0.13425393402576444,-0.1620074361562729,0.016948649659752842,-0.07400360703468321,-0.04161480814218521,0.07129289954900742,-0.0853540822863579,0.16381421685218814,0.25379097461700445,-0.08237636089324951,-0.18813832104206082,0.09722767025232319,0.21201427280902865,-0.1589529812335968,0.18005801737308502,0.008013836108148098,-0.1011870726943016,-0.12018777430057523,-0.23757827281951904,-0.19299916923046112,-0.08486095815896988,0.17260529100894928,-0.13653768599033358,-0.1365964710712433,-0.15424996614456174,-0.0790436416864395,0.029718836769461632,-0.04724969342350959,0.17240555584430695,0.0988136529922485,0.09524020552635194,0.0488760843873024,-0.09829477965831758,-0.2880838215351105,-0.19209644198417666,-0.24362319707870486,0.11556881666183473,
		-0.119858019053936,-0.0023487345315515995,0.15762530267238617,0.012554962188005449,0.13268382847309113,-0.05739540606737136,0.2294931411743164,0.04942598193883896,0.0871443822979927,0.040224581956863396,-0.1390000879764557,0.02360404096543789,0.06475537270307541,0.05012141168117524,-0.08279313147068021,-0.06135465204715729,-0.10841210186481474,0.09021545946598053,0.07198678702116013,-0.13617125153541565,0.02692181617021561,0.07874955236911771,-0.23349626362323755,-0.18471868336200717,-0.03551013022661209,-0.0817400813102722,0.02813226170837879,-0.22344002127647397,0.08144867420196532,-0.1533994972705841,-0.1462342143058777,-0.13831125199794767,-0.044290512800216675,-0.13152500987052915,0.14115919172763824,-0.09979701787233351,0.09909509867429732,0.06760863959789276,0.09248524904251097,0.15396980941295624,0.13651344180107114,-0.12164553999900815,-0.08857832849025726,0.0864100381731987,-0.0982154980301857,-0.02985027618706227,-0.031604643911123276,0.015048952773213388,-0.11110304296016692,-0.139021098613739,
		-0.2267822325229645,0.05570283532142639,-0.08019844442605971,-0.07147020846605301,-0.027830023318529126,0.01300724595785141,-0.0012750700116157534,0.04249034076929093,-0.20484635233879087,-0.08853403478860854,0.023131318390369412,0.02451056614518165,-0.06684774160385132,-0.04004359617829323,0.026329187676310536,-0.0005565209430642426,-0.25293862819671636,0.06346174329519272,0.0002576452679932117,-0.08818057179450989,-0.09962837398052216,0.03516598045825958,0.15406839549541473,0.03148181363940239,0.009889481589198112,-0.09730302542448044,-0.02935517020523548,0.04500395432114601,0.04091589525341988,-0.08777890354394911,0.15693269670009613,-0.02182470820844173,-0.09837489575147629,-0.2440525591373444,0.027969300746917725,0.030394915491342545,0.0480213463306427,-0.047175612300634384,0.01024135947227478,-0.10258154571056366,-0.02135537005960941,-0.16113650798797607,0.07897359132766722,-0.02048761583864689,0.18651038408279416,-0.12583595514297485,0.0413246899843216,-0.012503385543823242,-0.06336284428834917,-0.12300137430429457,
		-0.04558517038822175,0.05918363854289055,-0.23573172092437744,-0.059352807700634,0.1701616793870926,0.07221261411905289,-0.15513598918914792,0.007569819223135708,0.22136892378330233,-0.223179891705513,-0.1954281032085419,-0.09885346144437791,0.1570112705230713,0.06214374676346779,-0.12226622551679613,-0.032831236720085144,-0.33999079465866083,0.1169336810708046,-0.06738585978746414,-0.14456310868263245,-0.1484898030757904,0.15372030436992642,0.14292818307876587,0.0596626251935959,-0.04625575989484787,0.11894832551479342,-0.025781715288758278,0.06651299446821213,0.0866737961769104,-0.0037171565927565093,-0.03231467306613922,0.2124929577112198,-0.07833331823348999,0.002200814662501216,-0.23974938690662384,0.08167117834091187,-0.018354391679167747,-0.11519723385572432,-0.07537475228309631,0.05047646164894105,-0.024830862879753113,0.11720512807369232,-0.001770337461493909,0.056350026279687875,-0.1647556275129318,-0.12166460603475568,-0.1159444749355316,-0.20720387995243073,0.16161824762821198,-0.02375120110809803,
		0.2100685685873032,-0.13454534113407135,-0.10220848768949507,0.03376687318086624,0.1026393175125122,0.011693798936903475,-0.2425914108753204,-0.19676983356475833,0.19661447405815122,0.08072125166654587,-0.21765200793743134,0.20036110281944275,-0.045816324651241296,-0.046957023441791534,0.03365303948521614,-0.1594659686088562,-0.021619150415062908,-0.10673961043357848,0.05158718675374985,0.08715716004371643,-0.01851833052933216,0.17536340653896332,-0.06974031031131744,-0.22474607825279236,0.17702649533748627,-0.09792562574148178,-0.21003557741642,-0.04398779943585396,-0.13752174377441406,-0.1715113818645477,-0.029547180980443958,-0.08982081711292265,-0.09518754482269288,-0.18392470479011533,-0.17836704850196838,-0.1229036524891853,0.06889986246824265,-0.07589062303304672,-0.05126446485519409,0.09525964409112929,0.031124591827392575,-0.1085495948791504,-0.17141997814178467,-0.018613601103425026,-0.21487875282764435,0.26800164580345154,-0.1282157897949219,0.06799384951591492,0.08984014391899107,0.1119902804493904,
		-0.04264897853136064,-0.07547393441200256,-0.1481107920408249,0.02726723998785019,0.13011312484741214,0.0691092610359192,-0.16537500917911527,0.11973693221807483,0.09782472997903822,-0.007799258455634117,-0.0940447598695755,0.13371559977531433,-0.09349907189607619,0.030915247276425355,0.09903298318386076,0.02702008187770844,-0.07792960852384564,-0.14508579671382904,-0.13505105674266815,0.09956437349319457,-0.06750670820474625,-0.07218529284000398,0.02995105274021625,-0.11007395386695859,0.030825069174170494,-0.08824499696493149,0.13958260416984558,-0.02600392326712608,0.1212092265486717,-0.002362803788855672,0.14395073056221008,-0.17048875987529752,-0.003035836154595017,0.10892021656036377,-0.015090491622686388,0.019674882292747494,-0.1073283925652504,-0.0071825748309493065,0.05981367081403732,0.058323573321104064,-0.01421939022839069,-0.16943877935409543,0.06057556718587875,-0.0728285536170006,-0.278771847486496,0.22386814653873444,-0.26523146033287043,-0.03478158637881279,0.08205341547727583,-0.010281394235789776,
		-0.2120315730571747,-0.08238404244184494,0.1826413124799728,0.08351704478263858,-0.012594610452651976,-0.06765641272068024,0.11002328246831893,0.0697849914431572,0.04094352573156357,0.10532251000404357,-0.03820456564426423,-0.09166932851076126,0.0458010956645012,-0.13025897741317746,-0.031095782294869426,0.15191765129566193,-0.029759040102362633,-0.09013066440820693,0.19249999523162842,-0.1677454560995102,0.13559895753860474,-0.15020401775836945,-0.04760681465268135,-0.08089356869459151,0.08525124192237855,-0.13151137530803683,0.05571753904223442,-0.09012728184461592,0.08589391410350798,0.05929455533623695,-0.021925345063209534,-0.04379866272211074,-0.14033451676368713,0.012142048217356207,-0.10085284709930421,-0.042784467339515686,-0.005795284174382687,0.11210902035236359,0.028157977387309074,0.03342833369970322,-0.060934357345104224,0.003176674945279956,-0.11605624854564665,0.027187956497073174,0.2460678219795227,-0.025520304217934605,0.270374208688736,-0.03376777470111847,0.03800996765494346,-0.04517380893230438,
		0.1525647342205048,-0.21288594603538516,0.11300685256719588,-0.005968731362372636,0.12115680426359175,-0.1289651542901993,0.09855911135673524,0.19964158535003665,-0.14165173470973969,-0.09737903624773024,-0.1713799387216568,0.03885357454419136,-0.007209232542663811,0.09838780760765076,-0.1455618143081665,-0.06189614906907082,0.014529746025800703,0.11044723540544508,-0.05109038576483727,0.12797880172729492,0.19775231182575226,0.08424813300371169,-0.10169633477926256,0.08120720088481903,-0.008823967538774014,-0.11034582555294035,0.17910470068454742,0.04906002432107925,-0.015906948596239086,-0.029406076297163963,0.14921151101589203,-0.21904405951499936,0.07834775745868683,0.01603106968104839,-0.03869954869151115,0.13536866009235382,0.0020602867007255554,-0.156437411904335,0.0785311758518219,-0.23205372691154474,0.14439421892166138,0.0008978369878605006,-0.17789907753467557,0.10358384251594543,0.2335931062698364,0.11437654495239258,0.10919189453125,0.05796567350625991,-0.10928551852703094,-0.1114870011806488,
		0.2067503035068512,-0.10043055564165117,0.02453419379889965,0.0473044253885746,0.046901486814022064,-0.20302514731884,-0.050424106419086456,-0.10308723896741868,-0.024402599781751633,0.06718794256448744,-0.023784253746271133,0.012494190596044062,-0.05389724671840668,0.09476537257432936,0.005515226628631354,0.07270743697881697,-0.29430010914802557,0.0943167582154274,-0.10997871309518815,0.013234317302703856,-0.044990941882133484,0.069460429251194,0.03067710995674133,-0.05145339295268058,-0.052919119596481316,-0.1058201789855957,0.11081603914499284,0.08072897046804428,-0.04068727418780327,-0.014873879030346869,0.10596866160631181,0.1344076246023178,-0.09050855785608293,-0.10193134099245073,0.12094732373952866,-0.10709574073553085,-0.019703827798366543,0.10029354691505432,-0.1518771946430206,0.20716607570648196,-0.1789452433586121,-0.001743765198625624,-0.24682669341564176,-0.03160737082362174,0.0162670761346817,-0.01536507345736027,-0.17182348668575287,0.11198475956916808,0.1088487431406975,-0.06763217598199844,
		0.04209557175636292,-0.11718763411045073,-0.02545209601521492,-0.1878630965948105,-0.031042408198118206,-0.07347194105386734,0.019461004063487046,-0.16573652625083923,0.15209704637527463,0.019681742414832115,0.07021434605121613,0.007752091623842715,-0.09939800202846527,-0.09283599257469176,-0.08754708617925644,-0.0992578491568565,-0.26929110288619995,0.1733335256576538,-0.09707194566726685,0.1269969642162323,-0.07703708112239836,0.268229454755783,-0.124615341424942,0.09334851056337357,0.023084349930286407,-0.13313032686710352,0.05358274653553962,0.13157743215560913,0.08214063197374342,-0.04758648574352263,-0.11859241127967833,0.010485261678695679,0.1209629848599434,-0.00999611895531416,-0.20898923277854917,0.002446656813845039,0.17015208303928378,-0.18107880651950842,-0.16368959844112396,0.006828384473919869,0.04525936022400856,0.15300232172012326,-0.13066732883453366,-0.10858035087585448,-0.14625488221645358,-0.015606006607413294,0.03657442331314087,-0.16158995032310483,0.07187306880950928,0.05307377129793168,
		-0.09374251216650009,0.07005225867033005,0.13237001001834867,0.08724139630794525,-0.21044854819774628,-0.024473743513226506,0.03194354847073554,0.01889118365943432,0.07338651269674301,-0.11604704707860945,-0.1024334132671356,0.01531174313277006,0.1155703067779541,-0.14959596097469327,-0.0549233891069889,-0.08578677475452423,-0.09694403409957886,-0.09353845566511154,-0.07129646837711336,-0.018444428220391273,0.005579501856118441,0.019040387123823166,-0.19800816476345062,-0.1360478401184082,0.0023684317711740732,-0.04550939053297043,-0.05864730849862097,-0.15942223370075226,0.08075984567403795,0.019207924604415894,-0.16234457492828366,-0.3133485019207001,-0.1204443424940109,-0.2003726214170456,-0.17057596147060392,-0.07421093434095383,-0.19126208126544952,-0.1559285819530487,-0.25651788711547846,0.11257418990135194,-0.10872688144445421,0.03889581188559532,-0.13567085564136505,-0.011737797409296036,0.04574860632419585,0.18570607900619504,-0.18925896286964414,0.10647820681333539,0.017922092229127884,0.028902068734169013,
		-0.31336784362792963,-0.09621481597423552,0.04971350729465485,0.07381517440080641,0.1573771834373474,0.07562009245157242,-0.030370723456144326,-0.04896901920437813,-0.10361064970493315,-0.09371615946292877,-0.05227029696106912,-0.038759950548410416,-0.16586428880691528,0.07495392113924025,-0.09031224995851518,0.19736540317535398,-0.24747952818870544,-0.10316917300224304,0.2256588637828827,-0.1993102878332138,0.1197424829006195,-0.04506499320268631,0.00910546537488699,0.04326489567756653,0.013954919762909412,-0.1340998411178589,0.20679862797260284,0.020495008677244183,-0.04176706075668336,-0.1371905207633972,-0.13347920775413513,0.0337521992623806,0.07208208739757539,-0.2369168698787689,-0.25243937969207764,0.1401811093091965,0.11701069027185437,-0.021093197166919708,0.14384326338768003,0.06954409182071684,0.1268264800310135,0.040460433810949326,0.048499543219804764,-0.14456473290920255,-0.09127169847488403,-0.25551807880401606,-0.09348949044942859,-0.018302856013178825,-0.14103803038597107,-0.15090002119541168,
		0.04559921473264694,0.057404976338148124,-0.16461706161499026,0.00790359452366829,0.07325517386198045,-0.002461675088852644,0.2236941456794739,0.16634139418601987,-0.031152948737144474,-0.04231873527169228,-0.18498308956623077,-0.25058355927467346,-0.10324953496456145,0.02322129718959331,-0.1203365921974182,0.012190635316073895,-0.12797129154205322,0.0769461691379547,-0.1768540143966675,0.07051903009414673,0.0592830367386341,-0.2410941421985626,-0.0870673358440399,-0.013244281522929667,0.01913009211421013,0.01731961779296398,0.1822193264961242,0.0022384861949831247,-0.1727321147918701,-0.15632253885269165,-0.13088147342205048,-0.1764300316572189,-0.024865899235010144,-0.20720636844635007,-0.19531507790088654,-0.1348915994167328,0.15773904323577884,0.15247528254985807,-0.10551376640796659,-0.017359582707285885,0.15765702724456787,-0.14664876461029053,0.10911126434803008,-0.04808654263615609,0.17377588152885437,-0.05309142917394638,0.18126702308654785,-0.0023591867648065086,0.11731556802988052,-0.14675955474376678,
